{"type":"LSTM","options":{"inputSize":17,"inputRange":17,"hiddenLayers":[20,20],"outputSize":17,"decayRate":0.999,"smoothEps":1e-8,"regc":0.000001,"clipval":5,"maxPredictionLength":100,"dataFormatter":{"indexTable":{"1":4,"2":12,"H":0,"a":1,"l":2,"o":3,"e":5,"y":6,"T":7,"s":8,"c":9,"h":10,"u":11,"B":13,"stop-input":14,"start-output":15,"unrecognized":16},"characterTable":{"0":"H","1":"a","2":"l","3":"o","4":"1","5":"e","6":"y","7":"T","8":"s","9":"c","10":"h","11":"u","12":"2","13":"B","14":null,"15":null,"16":null},"values":[{"input":"Hallo","output":"1"},{"input":"Hey","output":"1"},{"input":"Hallo","output":"1"},{"input":"Tschau","output":"2"},{"input":"Bye","output":"2"}],"characters":["H","a","l","o","1","e","y","T","s","c","h","u","2","B","stop-input","start-output","unrecognized"],"specialIndexes":[14,15,16]},"activation":"leaky-relu"},"trainOpts":{"iterations":10000,"errorThresh":0.001,"log":true,"logPeriod":5,"learningRate":0.001,"callbackPeriod":100,"timeout":"Infinity","momentum":0.1},"input":{"rows":18,"columns":17,"weights":[0.21098752319812775,0.006610328331589699,0.9167366623878479,0.6852010488510132,0.6335815191268921,0.9752439856529236,-0.2167443484067917,-0.6394402384757996,0.3921624422073364,0.6952508687973022,0.4869860112667084,0.22714358568191528,0.11914822459220886,-0.46384963393211365,-0.7742431163787842,-0.06251481175422668,-0.6723355054855347,0.19888532161712646,5.3901591300964355,-1.216804027557373,0.26774030923843384,1.6743814945220947,0.6968156695365906,2.138559341430664,-0.9133622646331787,1.5513296127319336,2.2346718311309814,4.283050060272217,-2.8858067989349365,0.5861943960189819,-4.432237148284912,-0.5563746094703674,-5.100039005279541,-0.9627025723457336,-0.18517589569091797,-0.20937997102737427,0.025477182120084763,-0.002622260246425867,-0.26292845606803894,-0.23217728734016418,-0.5554094314575195,0.6126329898834229,-0.45357781648635864,-0.607569694519043,-0.677516520023346,-0.2558775246143341,0.5153047442436218,0.5405606031417847,0.45510250329971313,0.16071370244026184,0.5778586864471436,0.1309276819229126,0.145573690533638,0.08563084155321121,-0.06664271652698517,0.05087088420987129,0.15032720565795898,0.2291133999824524,-0.031205691397190094,0.2256990224123001,-0.0518740750849247,0.2014823853969574,-0.016269691288471222,-0.054196473211050034,-0.030950797721743584,-0.17055408656597137,-0.11665238440036774,-0.030502481386065483,-0.8545897006988525,1.167863368988037,-1.0057740211486816,-1.0495786666870117,-0.941625714302063,-0.7296260595321655,-0.6325941681861877,0.45772555470466614,-0.5418181419372559,-0.44254690408706665,-0.3903088867664337,-0.933221697807312,0.82685387134552,0.5442151427268982,0.5764195919036865,-1.1689674854278564,0.32652270793914795,-0.2379433810710907,0.46963128447532654,-0.6211366653442383,-0.00397605961188674,-0.4402013421058655,-0.16436313092708588,-0.05600086599588394,0.5683540105819702,-0.0016796336276456714,-0.37989088892936707,-0.32766836881637573,-0.44731032848358154,0.16343513131141663,0.24283871054649353,0.5535842180252075,-0.5963572859764099,0.0603717602789402,-1.4273338317871094,2.6345596313476562,-1.831381916999817,-1.473117709159851,-1.0645679235458374,-1.0759550333023071,-1.532195806503296,0.05707204341888428,-0.11151274293661118,-0.2151639312505722,-0.028865162283182144,-2.032365322113037,1.990783452987671,0.7514575719833374,0.5743812322616577,-2.5032472610473633,0.25558117032051086,-0.6047576665878296,0.16105490922927856,-0.671306848526001,-0.676307201385498,-0.8141458034515381,-0.36997851729393005,-0.2705715596675873,0.3917205035686493,-0.6309217810630798,-0.39061570167541504,-0.5106236934661865,-0.3051038980484009,0.06780940294265747,0.31435152888298035,0.4343598484992981,-0.2499188929796219,0.3471606373786926,0.34189900755882263,-2.4731924533843994,3.1255130767822266,0.9358668327331543,1.5058552026748657,2.7969446182250977,1.2798088788986206,-1.5486798286437988,1.5910003185272217,1.7568670511245728,0.8315243124961853,0.9927350282669067,-1.8178541660308838,-0.7581763863563538,-2.4646620750427246,2.325181722640991,-1.3822999000549316,-0.1622420698404312,0.22758057713508606,0.25938698649406433,-0.8614346385002136,-1.1997590065002441,0.17975230515003204,0.7728495001792908,-1.0857633352279663,0.08864995837211609,1.2031888961791992,1.3778959512710571,0.17909829318523407,-1.0469169616699219,-0.9152624607086182,-1.0819575786590576,0.2971539795398712,-1.1723990440368652,-0.9754503965377808,0.3006899356842041,-0.859424889087677,-1.0992059707641602,-1.1828914880752563,-1.2505300045013428,-0.3350137174129486,-0.1627056747674942,-0.6677066683769226,0.06832536309957504,-0.3429449200630188,-0.061375249177217484,-0.21552090346813202,0.09854886680841446,0.042784374207258224,-0.46083343029022217,-0.0442001074552536,0.02940090373158455,0.8532499670982361,-0.35029006004333496,0.4425549805164337,0.6447522640228271,-0.132821187376976,-0.5339802503585815,0.24879635870456696,0.2024141401052475,-0.11248403042554855,0.009101791307330132,-0.7925187349319458,0.6442487835884094,0.3878186047077179,0.3246743083000183,-1.2875639200210571,0.27234700322151184,-0.45578375458717346,1.6945469379425049,-1.4970448017120361,-0.42906060814857483,-1.4417635202407837,-1.2529115676879883,-0.8942553400993347,0.6846766471862793,-0.15996253490447998,-0.7469742298126221,-0.4227030575275421,-1.393809199333191,1.4656550884246826,0.5682110786437988,0.9282350540161133,-1.6480449438095093,0.38709118962287903,-0.0799507424235344,0.5858561396598816,-0.5840502381324768,-0.15883295238018036,-0.3960191309452057,-0.3579708933830261,-0.017503106966614723,0.5732696652412415,-0.1267346441745758,-0.5126970410346985,-0.18180756270885468,-0.6089875102043152,0.3104017972946167,0.1623314470052719,0.5626744627952576,-0.6177498698234558,0.2012079358100891,-0.10029325634241104,0.998408854007721,-0.6717318296432495,-0.5430634021759033,-0.19432273507118225,-0.5427324771881104,-0.19786369800567627,0.26592350006103516,-0.2643258571624756,-0.1084497794508934,0.12041277438402176,-0.5838032960891724,0.33979296684265137,-0.1600690335035324,0.3115270137786865,-0.9624832272529602,0.13321007788181305,-0.2093753069639206,0.4291105568408966,-0.2640896737575531,0.276722252368927,0.21309813857078552,-0.08632159978151321,-0.38964852690696716,0.28109481930732727,-0.07321154326200485,-0.09763212502002716,-0.287526398897171,-0.35432305932044983,0.2375151664018631,0.3586612045764923,0.3504498600959778,-0.5827958583831787,0.24437998235225677,0.12297940999269485,0.3015599548816681,0.1400049924850464,0.39103105664253235,0.7602453231811523,0.11944321542978287,-0.11183904111385345,0.14057773351669312,-0.02072753943502903,0.03529253974556923,0.03834105283021927,-0.12329882383346558,0.17517833411693573,0.007592798676341772,-0.07525353133678436,-0.2955726385116577,0.22657239437103271,-0.031017938628792763,-0.0693010687828064,-0.06731690466403961,0.02869168110191822,0.051868509501218796,0.007241814862936735,0.05493280664086342,0.065349280834198,-0.06064614653587341,0.021617060527205467,0.001703617163002491,-0.07144337147474289,-0.0022930242121219635,-0.007018384989351034,-0.05750430375337601,0.075503870844841,-0.010721580125391483]},"hiddenLayers":[{"inputMatrix":{"rows":20,"columns":17,"weights":[-0.4004925489425659,0.7117133140563965,-0.5804823637008667,-0.4564734399318695,-0.2627852261066437,-0.35105255246162415,-0.39499303698539734,0.34926965832710266,-0.3938451111316681,-0.41791123151779175,-0.22471068799495697,-0.5892762541770935,0.4275292158126831,0.3159412443637848,0.3833383619785309,-0.7409119606018066,0.47045159339904785,-0.08163469284772873,0.4921572208404541,-0.2814428508281708,-0.23973341286182404,-0.25526124238967896,-0.23198455572128296,-0.12025982141494751,0.37981244921684265,-0.17843769490718842,-0.30792656540870667,-0.10689719021320343,-0.2714264392852783,0.0788404643535614,0.14021766185760498,0.3134937882423401,-0.45922142267227173,0.2750862240791321,0.358781099319458,0.7439882755279541,0.3136502802371979,0.48965656757354736,0.5341662764549255,0.4718969762325287,-0.02962794341146946,-0.6124117374420166,0.5357245802879333,0.5109724998474121,0.5862021446228027,-0.3943714499473572,0.5405000448226929,-0.5606833100318909,-0.5717067718505859,-0.8890218138694763,-0.5104975700378418,-0.2874874472618103,0.3548978269100189,-0.3657102584838867,-0.2062622755765915,-0.16063068807125092,-0.21442274749279022,-0.03564491868019104,0.27994388341903687,-0.2857830822467804,-0.2954230308532715,-0.20081357657909393,-0.29984647035598755,0.12956422567367554,0.1327846646308899,0.3609209954738617,-0.444092333316803,0.32392188906669617,0.5076815485954285,0.17124733328819275,0.03848416358232498,0.2665560245513916,0.4424561858177185,0.1824404001235962,0.36578595638275146,-0.28070953488349915,0.31604740023612976,0.360906720161438,0.45813533663749695,-0.047894757241010666,-0.19876497983932495,-0.4838109612464905,-0.2128283828496933,-0.33503201603889465,-0.2716324031352997,-0.23904775083065033,0.33007577061653137,-0.5301584601402283,-0.7471298575401306,-0.666595458984375,-0.43998947739601135,0.4192628264427185,0.301865816116333,-0.3481808304786682,-0.17686954140663147,-0.017530817538499832,-0.13981199264526367,-0.21879281103610992,-0.17380155622959137,0.4008731544017792,-0.16780716180801392,0.08950906246900558,-0.41418564319610596,0.8886308073997498,-0.5618879795074463,-0.30676084756851196,-0.2229360044002533,-0.4802190661430359,-0.5013697743415833,0.5637931227684021,-0.43034234642982483,-0.5858654975891113,-0.5123302936553955,-0.6557334065437317,0.7153404951095581,0.5606688261032104,0.5449790358543396,-0.8827757835388184,0.7246566414833069,-0.2743465304374695,0.6774419546127319,-0.5481111407279968,-0.3169228732585907,-0.09955834597349167,-0.4280884265899658,-0.41769939661026,0.42141076922416687,-0.25077635049819946,-0.4728093147277832,-0.2554101347923279,-0.6066045165061951,0.5760954022407532,0.4575147032737732,0.3490409553050995,-0.7196474671363831,0.5084521770477295,-0.4356967806816101,0.5270918607711792,-0.5389346480369568,-0.46385958790779114,-0.5699694752693176,-0.5234736800193787,-0.28272581100463867,0.49524998664855957,-0.4267737567424774,-0.5197891592979431,-0.29447463154792786,-0.37923768162727356,0.21407584846019745,0.2532384693622589,0.3977481424808502,-0.5677716732025146,0.34011587500572205,-0.4024515748023987,0.33141711354255676,-0.5289997458457947,-0.25784966349601746,-0.3272228538990021,-0.4398566484451294,-0.16030532121658325,0.40673354268074036,-0.3636813461780548,-0.42175474762916565,-0.31198784708976746,-0.4241751730442047,0.15130099654197693,0.4258473813533783,0.46078628301620483,-0.2578867971897125,0.4748042821884155,-0.09238468110561371,0.42289450764656067,-0.17566174268722534,-0.09297125041484833,0.012712237425148487,-0.2548886835575104,0.21629968285560608,0.2747081518173218,-0.13446152210235596,-0.2595759332180023,-0.19791528582572937,-0.5553225874900818,0.06448046118021011,0.3284248113632202,0.1522289365530014,-0.41576048731803894,0.387554794549942,0.07636987417936325,0.21886077523231506,-0.33700722455978394,-0.14724989235401154,-0.06035953387618065,-0.13202732801437378,-0.06550552695989609,0.2243736833333969,-0.06380068510770798,-0.17908452451229095,-0.08660953491926193,-0.12445428222417831,0.05229411646723747,0.015285887755453587,0.24209673702716827,-0.2972029745578766,0.028754396364092827,0.15554556250572205,0.5647530555725098,0.19974756240844727,0.2909106910228729,0.36718177795410156,0.4136671721935272,0.015858890488743782,-0.7415440678596497,0.5251237750053406,0.6957268714904785,0.9563620090484619,-0.23635567724704742,0.08137573301792145,-0.5138002634048462,-0.5462746620178223,-0.7241086363792419,-0.8262117505073547,0.0871281772851944,0.7159975171089172,0.30385226011276245,0.4096912145614624,0.5074371099472046,0.3829725384712219,-0.4360932409763336,-0.531373918056488,0.5233128666877747,0.44754815101623535,0.4324902296066284,-0.4168228805065155,0.5058475136756897,-0.138326957821846,-0.498409628868103,-0.8527697324752808,-0.5199903249740601,-0.48698368668556213,0.7259508371353149,-0.5334139466285706,-0.4268726110458374,-0.37341585755348206,-0.5000669360160828,-0.3964270353317261,0.47595182061195374,-0.30352258682250977,-0.47130462527275085,-0.36631882190704346,-0.6122756600379944,0.4326913058757782,0.32130616903305054,0.45174315571784973,-0.7205777764320374,0.4022257328033447,-0.3746129274368286,0.35682904720306396,-0.6223763227462769,-0.8063193559646606,-0.6536403894424438,-0.50703364610672,0.37321317195892334,0.0968606024980545,-0.2931569814682007,-0.12352640181779861,0.10799416154623032,-0.20727474987506866,-0.29724234342575073,-0.06349171698093414,0.33198127150535583,-0.22200652956962585,-0.014734353870153427,-0.01856216788291931,0.46372276544570923,-0.13977301120758057,0.18362675607204437,0.3245593309402466,-0.05549616366624832,-0.1486797034740448,0.24697230756282806,-0.06740967184305191,-0.10984314233064651,-0.10489942878484726,-0.39172813296318054,0.1262637972831726,0.15197139978408813,0.04358039051294327,-0.384916216135025,0.22596365213394165,0.3028007745742798,0.37780460715293884,0.23780253529548645,0.31148654222488403,0.35590943694114685,0.2758682370185852,-0.5331510305404663,-0.3351269066333771,0.2722817063331604,0.30722275376319885,0.3754294514656067,0.0071987551636993885,0.49185463786125183,-0.3917683959007263,-0.3735106289386749,-0.6467850804328918,-0.291852205991745,-0.32967570424079895,0.6265170574188232,-0.20717760920524597,-0.06122672185301781,0.11988019943237305,-0.13051831722259521,-0.22260741889476776,-0.007826540619134903,0.10755752772092819,-0.18901048600673676,-0.14770686626434326,-0.5723302960395813,0.28889232873916626,0.4419051706790924,-0.001820448786020279,-0.661491870880127,0.24328550696372986,0.04838454723358154,0.24821873009204865,-0.26674988865852356,-0.07526145130395889,-0.03532952070236206,-0.24107402563095093,-0.13016311824321747,0.12568597495555878,-0.0021771180909126997,-0.11072316020727158,-0.0690985918045044,-0.0872063934803009,0.04643351584672928,-0.018109692260622978,0.21502932906150818,-0.36355382204055786,0.130745530128479]},"inputHidden":{"rows":20,"columns":20,"weights":[-0.5271797776222229,-0.5027408003807068,0.2792988717556,-0.4095396399497986,-0.40703484416007996,0.04497266188263893,0.13870732486248016,-0.26357582211494446,0.31680113077163696,0.3413519561290741,-0.35288211703300476,0.6478281617164612,0.17943477630615234,-0.1266433447599411,0.3645559847354889,0.0048422738909721375,0.31206125020980835,-0.009410361759364605,0.35376521944999695,-0.5277243852615356,-0.39235997200012207,-0.36383962631225586,0.6767403483390808,-0.46344223618507385,-0.6281513571739197,-0.19795800745487213,0.07965018600225449,-0.1432858556509018,0.028195751830935478,0.47036829590797424,-0.6257961988449097,0.4154101610183716,0.6096778512001038,-0.48706141114234924,-0.043378494679927826,0.1889275461435318,0.49086445569992065,0.17754575610160828,0.5555849671363831,-0.5614137649536133,-0.41533997654914856,0.18368315696716309,0.7340378761291504,-0.20425549149513245,-0.3006097674369812,-0.44616591930389404,-0.1451786309480667,-0.06359444558620453,-0.46062472462654114,0.36696842312812805,-0.3452533781528473,-0.292234867811203,0.3875942528247833,-0.4927600622177124,-1.5252646207809448,0.4866321384906769,0.6161690354347229,0.20818814635276794,0.3244168162345886,0.08430274575948715,-0.36817818880081177,-0.3620263934135437,0.4151257574558258,-0.3337155878543854,-0.5553630590438843,0.03995037078857422,-0.100658118724823,-0.1486341655254364,0.31959953904151917,0.20487837493419647,-0.39856016635894775,0.6073852181434631,0.2989611029624939,-0.3476923704147339,0.27286219596862793,0.011729056015610695,0.32711341977119446,0.20546746253967285,0.45879927277565,-0.523339033126831,-1.04157555103302,-0.6967575550079346,-0.2005874216556549,-0.6325107216835022,-0.08817093819379807,0.5379825830459595,0.6023955345153809,-0.9591178297996521,0.7334290742874146,0.8602520227432251,-1.0091739892959595,0.5642217993736267,-0.13184131681919098,0.35751211643218994,0.3982231914997101,-0.6007080674171448,1.1126928329467773,-0.6162694692611694,0.020786428824067116,-0.675574779510498,-0.7375290393829346,-0.3814997971057892,0.33303576707839966,-0.41739732027053833,-0.368291437625885,0.13953109085559845,0.3363589346408844,-0.47450268268585205,0.42886990308761597,0.5268292427062988,-0.47153258323669434,0.2163129597902298,0.3481406569480896,-0.23734723031520844,0.16911469399929047,-0.032908640801906586,0.5976037383079529,-0.21831044554710388,0.397220641374588,-0.3842141032218933,-0.5557618141174316,-0.493847519159317,0.05915322154760361,-0.4356707036495209,-0.3165193200111389,-0.055088333785533905,0.36211010813713074,-0.32090944051742554,0.0699852854013443,0.4211951196193695,-0.3552934229373932,0.6013216376304626,0.07985793054103851,-0.03244279325008392,-0.027826497331261635,0.05160690099000931,0.49500957131385803,-0.15881332755088806,0.23973019421100616,-0.5578033924102783,-0.41447731852531433,-0.4105494022369385,0.21816900372505188,-0.39126163721084595,-0.20178796350955963,0.10031741112470627,0.18143169581890106,-0.2513629198074341,0.2350093424320221,0.33250364661216736,-0.4823307394981384,0.5253725647926331,0.14622703194618225,-0.07367562502622604,0.046162642538547516,-0.12981030344963074,0.2957267761230469,-0.11336445808410645,0.13802482187747955,-0.5260943174362183,-0.6284025311470032,-0.5055308938026428,0.30719155073165894,-0.5217056274414062,-0.5216806530952454,-0.09064871072769165,0.2950885593891144,-0.32901912927627563,0.14467045664787292,0.5610389113426208,-0.6278524398803711,0.5293868780136108,0.3650449216365814,-0.13366679847240448,0.22915996611118317,0.09447236359119415,0.569172203540802,-0.10132816433906555,0.3805970549583435,-0.5578129291534424,-0.3076624572277069,-0.5326716303825378,0.20882649719715118,-0.3657120168209076,-0.4279187321662903,0.301664263010025,0.0791933536529541,-0.26751264929771423,0.490407794713974,0.24840021133422852,-0.2544042468070984,0.539068341255188,0.03165348991751671,-0.10193275660276413,0.4035557210445404,-0.1512768715620041,0.2042941302061081,0.04678141698241234,0.33949893712997437,-0.39171725511550903,-0.36808377504348755,-0.442369669675827,0.5313279628753662,-0.27379488945007324,-0.6389812231063843,0.2800920009613037,0.04552026465535164,-0.2088814079761505,0.4474203288555145,0.24479950964450836,-0.5136433839797974,0.3694983422756195,0.2627522945404053,-0.31350913643836975,0.3315655291080475,-0.0708976462483406,0.3817375898361206,0.25028151273727417,0.53861403465271,-0.4957420825958252,-0.33070555329322815,-0.37885159254074097,0.8698301911354065,-0.5145255923271179,-0.8589624762535095,-0.022841310128569603,-0.16682931780815125,-0.006816701497882605,0.5867215991020203,0.47615939378738403,-0.6314484477043152,0.6101771593093872,0.6690633893013,-0.7772290706634521,0.21059520542621613,0.18728984892368317,0.5500542521476746,0.502282977104187,0.9066512584686279,-0.5253840088844299,-1.0274465084075928,-0.4839444160461426,0.49036094546318054,-0.44800567626953125,-0.16834065318107605,0.43190816044807434,0.6254017949104309,-0.8849414587020874,0.7766789197921753,0.6872760057449341,-0.21649931371212006,-0.20031344890594482,-0.01102625485509634,0.024048086255788803,0.1476963311433792,-0.3928046226501465,0.6077798008918762,-0.46201851963996887,0.2198980748653412,0.044048137962818146,-0.7373633980751038,-0.30472037196159363,0.22258087992668152,-0.16894590854644775,0.3276984691619873,0.21241089701652527,0.2699548602104187,-0.537825345993042,0.3161311745643616,0.4247734546661377,-0.06047384440898895,-0.26899027824401855,-0.09736692160367966,0.07662113755941391,-0.024419523775577545,-0.14561283588409424,0.2646959722042084,-0.5378586649894714,-0.1962304264307022,-0.04680486023426056,-0.47685062885284424,-0.39023125171661377,0.3904942274093628,-0.4174714982509613,-0.5856276154518127,-0.13856299221515656,-0.026326676830649376,-0.1106623038649559,0.3966825306415558,0.3819893002510071,-0.3605201840400696,0.4863606095314026,0.2912377417087555,-0.18002009391784668,0.4956974983215332,0.22261519730091095,0.44941431283950806,0.12055500596761703,0.5730335712432861,-0.5371975302696228,-0.8489631414413452,-0.311379998922348,0.5504897832870483,-0.3450002372264862,-0.28904739022254944,0.3478064239025116,0.44635918736457825,-0.6283594369888306,0.48469260334968567,0.6538752317428589,-0.3865744173526764,-0.20900052785873413,0.2873419225215912,-0.20129646360874176,0.04474128037691116,-0.23624281585216522,0.7094751596450806,-0.3561354875564575,0.20734520256519318,-0.012813016772270203,-0.4879571199417114,-0.6095694899559021,0.45593905448913574,-0.368845671415329,-0.6752724647521973,0.22836780548095703,0.21931922435760498,-0.28101688623428345,0.5218945741653442,0.3973790407180786,-0.5763684511184692,0.48141181468963623,0.26872581243515015,-0.3688226044178009,0.4767858386039734,0.039973609149456024,0.41558533906936646,0.22093048691749573,0.5427144765853882,-0.5783026814460754,-0.43474888801574707,-0.11115424335002899,0.25008583068847656,-0.227857306599617,0.15162533521652222,-0.0425039604306221,0.33993053436279297,-0.28075242042541504,-0.041454512625932693,0.30959147214889526,-0.18476131558418274,-0.03775155916810036,0.09036219120025635,0.06995700299739838,-0.35389745235443115,-0.17168280482292175,0.23033155500888824,-0.37552550435066223,-0.19695167243480682,-0.08998595178127289,-0.7453832030296326,-0.5349681377410889,-0.36182892322540283,-0.7008541226387024,-0.09284280240535736,0.0581417977809906,0.3287414014339447,-0.4764009714126587,0.3265516459941864,0.784656286239624,-1.0753730535507202,0.4933645725250244,0.2936170995235443,0.017618311569094658,0.274367094039917,-0.09437370300292969,1.1393903493881226,-0.2512339651584625,0.16095997393131256,-0.669812023639679,-0.3901485502719879,-0.4839187264442444,0.8924241065979004,-0.5312528014183044,-0.8636618256568909,-0.011396365240216255,-0.10708479583263397,-0.0367673896253109,0.3942670524120331,0.4586793780326843,-0.908542811870575,0.7706244587898254,0.7811501026153564,-0.680913507938385,0.3365745544433594,0.21548767387866974,0.6849242448806763,0.42863500118255615,0.906499445438385,-0.6211690902709961]},"inputBias":{"rows":20,"columns":1,"weights":[-0.29350680112838745,-0.3001677691936493,1.346423864364624,-0.01242824550718069,0.8521460294723511,-0.4360779821872711,0.26379963755607605,0.2680683434009552,-0.4313213527202606,-0.16325177252292633,0.2023831158876419,-0.26819151639938354,0.655809760093689,0.7132989764213562,-0.32066115736961365,-0.3604368567466736,0.19496892392635345,0.7437995672225952,0.78927081823349,-0.21853984892368317]},"forgetMatrix":{"rows":20,"columns":17,"weights":[-0.4002930521965027,0.10241342335939407,-0.2550547420978546,-0.39834561944007874,-0.2952548861503601,-0.17848052084445953,-0.29273638129234314,0.21810905635356903,-0.20632867515087128,-0.32870158553123474,-0.26413872838020325,-0.15655355155467987,0.2675126791000366,0.46911028027534485,0.21131347119808197,-0.16358445584774017,0.3209708034992218,-0.4179303050041199,0.1184866651892662,-0.2338123470544815,-0.5212914347648621,-0.5402585864067078,-0.19315311312675476,-0.34873270988464355,0.18314267694950104,-0.20315872132778168,-0.2856144607067108,-0.4011642634868622,-0.27575770020484924,0.27790459990501404,0.40814298391342163,0.26375117897987366,-0.24557968974113464,0.2657433748245239,-0.7492305636405945,0.19610737264156342,-0.4780254662036896,-1.0231775045394897,-0.9653191566467285,-0.6108608841896057,-0.3216113746166229,-0.1661829799413681,-0.5532209873199463,-0.3072189688682556,-0.40634775161743164,-0.0695238709449768,0.28313082456588745,0.6098307371139526,0.17863042652606964,-0.11049861460924149,0.26988083124160767,-0.3720757067203522,0.1624431610107422,-0.24697738885879517,-0.2646271288394928,-0.16226492822170258,-0.2831697463989258,-0.24462194740772247,0.2225000262260437,-0.33235400915145874,-0.08505513519048691,-0.3839479982852936,-0.2237720489501953,0.2928647994995117,0.1843167096376419,0.18281562626361847,-0.3189118802547455,0.29719242453575134,0.21220727264881134,0.10541419684886932,0.19120852649211884,0.22149820625782013,0.22777995467185974,0.18567369878292084,-0.11127942055463791,0.022191496565937996,0.3273743689060211,-0.06345593184232712,0.1233525350689888,-0.36887696385383606,0.03783434256911278,0.05649414286017418,0.04356674477458,-0.24460799992084503,0.005951860919594765,-0.5839731097221375,0.1671748012304306,-0.6072961091995239,-0.6698416471481323,-0.7286330461502075,-0.6466765403747559,-0.6084557771682739,0.3678082525730133,-0.7526201605796814,-0.2543248236179352,-0.484233558177948,-0.3962133824825287,0.5124872922897339,0.30401676893234253,0.565744161605835,-0.2689395844936371,0.23788756132125854,-0.10425056517124176,-0.2935747504234314,-0.009696552529931068,-0.39178556203842163,-0.5315020084381104,-0.06647856533527374,-0.042089857161045074,-0.17681147158145905,-0.07952846586704254,-0.053567759692668915,-0.1040443480014801,0.08193595707416534,-0.10135092586278915,0.031222330406308174,-0.01034916378557682,0.2418060153722763,0.03678269311785698,-0.5140855312347412,-0.0008747333777137101,-0.3023747205734253,-0.5554871559143066,-0.5059219598770142,-0.425798237323761,-0.25233402848243713,0.09123358875513077,-0.3199048936367035,-0.22117921710014343,-0.29778775572776794,-0.15763714909553528,0.2321729063987732,0.30171632766723633,0.23525243997573853,0.0071473089046776295,0.0929207131266594,-0.4749433100223541,0.2268824279308319,-0.6371437311172485,-0.5917479991912842,-0.6848578453063965,-0.6472902894020081,-0.4127380847930908,0.32943183183670044,-0.7451580166816711,-0.48169130086898804,-0.46173396706581116,-0.4871216416358948,0.5772400498390198,0.37811335921287537,0.43090322613716125,-0.3325076103210449,0.4517289400100708,-0.1887570321559906,0.041745562106370926,-0.09791163355112076,-0.25425511598587036,-0.15786334872245789,-0.17332744598388672,-0.22265398502349854,0.010317161679267883,-0.21922141313552856,0.09876054525375366,-0.17439015209674835,-0.024432018399238586,0.22689327597618103,-0.017538655549287796,0.0022101360373198986,-0.06903128325939178,0.09753178805112839,-0.06856095045804977,0.05636860802769661,-0.19853505492210388,-0.11189653724431992,-0.007487157825380564,-0.21705923974514008,-0.03547085449099541,0.152182936668396,-0.16757921874523163,-0.013378635048866272,-0.13109830021858215,-0.009073066525161266,0.09628280252218246,-0.05318514630198479,0.2626569867134094,-0.07724262028932571,0.17059163749217987,-0.544367790222168,0.3973231613636017,-0.3767508864402771,-0.3772670328617096,-0.18910028040409088,-0.3569675385951996,-0.49039438366889954,0.5075852274894714,-0.530322253704071,-0.27528098225593567,-0.5288721323013306,-0.4102538228034973,0.48192423582077026,0.3446800410747528,0.42729440331459045,-0.43586763739585876,0.5143498778343201,-0.4211263954639435,0.215200737118721,-0.47753384709358215,-0.6210801601409912,-0.697078287601471,-0.5878354907035828,-0.22429794073104858,0.4414718449115753,-0.5549315214157104,-0.48263925313949585,-0.338059663772583,-0.39480671286582947,0.3536128103733063,0.2082739770412445,0.48237040638923645,-0.15405993163585663,0.40645352005958557,-0.5653173327445984,0.07854580134153366,-0.2460658848285675,-0.5060519576072693,-0.5899810194969177,-0.49241870641708374,-0.6310989260673523,0.26727521419525146,-0.5639700293540955,-0.3113826513290405,-0.5706151127815247,-0.3292909860610962,0.521648645401001,0.4733046889305115,0.3367532789707184,-0.031986452639102936,0.45969510078430176,-0.16279341280460358,0.022190237417817116,-0.134442538022995,-0.24932776391506195,-0.24621206521987915,-0.31345728039741516,-0.17891795933246613,-0.0957242026925087,-0.34100621938705444,-0.16291475296020508,0.06627432256937027,-0.15657560527324677,0.32629290223121643,0.0954788476228714,-0.01939329132437706,0.12566663324832916,0.1433538794517517,-0.6024105548858643,0.23439930379390717,-0.6469296216964722,-0.6621676683425903,-0.8629387021064758,-0.6530712842941284,-0.534655749797821,0.42145225405693054,-0.6876867413520813,-0.44767090678215027,-0.5576158761978149,-0.44816672801971436,0.4743407964706421,0.34738337993621826,0.6550950407981873,-0.4252914488315582,0.3204701244831085,-0.16826824843883514,0.1358957141637802,-0.02202451042830944,-0.30279436707496643,-0.1563577800989151,-0.1521197259426117,-0.16621945798397064,0.1326397955417633,-0.14174938201904297,-0.1384066939353943,-0.14674748480319977,-0.008921858854591846,0.22408288717269897,0.20003578066825867,-0.0392211452126503,-0.02898663654923439,0.16398292779922485,-0.44235244393348694,-0.12666524946689606,-0.15790702402591705,-0.5559425354003906,-0.535809338092804,-0.3379167318344116,-0.2648400068283081,-0.0010627679293975234,-0.30926162004470825,-0.16784662008285522,-0.3066791594028473,-0.011018702760338783,0.03766193613409996,0.33332589268684387,0.2437824010848999,0.11631046235561371,0.09813646972179413,-0.5300005078315735,0.5113853812217712,-0.7752572298049927,-0.8226258754730225,-0.6842023730278015,-0.8115464448928833,-0.6304882168769836,0.7266952395439148,-0.648319661617279,-0.6797361373901367,-0.5829875469207764,-0.6899538040161133,0.5292981863021851,0.7163820862770081,0.7445321083068848,-0.5377375483512878,0.5812599658966064,-0.4414169490337372,0.28700050711631775,-0.2733156085014343,-0.35093680024147034,-0.18485324084758759,-0.22594183683395386,-0.39832058548927307,0.4601096510887146,-0.32835254073143005,-0.30465176701545715,-0.4277619421482086,-0.44575265049934387,0.4198472499847412,0.5043745040893555,0.26793381571769714,-0.37897342443466187,0.43727901577949524]},"forgetHidden":{"rows":20,"columns":20,"weights":[-0.11539749056100845,-0.2760971188545227,-0.19443798065185547,-0.12882833182811737,-0.024930372834205627,0.3113415241241455,0.20208017528057098,-0.1349889487028122,0.4396338164806366,0.21334446966648102,-0.22231197357177734,0.25896114110946655,-0.28669893741607666,0.08917424082756042,0.3759045898914337,-0.2860754728317261,0.09201397001743317,-0.150184765458107,-0.02147725597023964,-0.3083993196487427,0.00721883587539196,-0.26646745204925537,0.002530045574530959,-0.08456169813871384,-0.18752425909042358,0.44105154275894165,0.03917975723743439,-0.09318840503692627,0.6503088474273682,-0.012115187011659145,-0.06642123311758041,0.10455503314733505,-0.7205915451049805,0.15428869426250458,0.24965162575244904,-0.2672375440597534,-0.04852120578289032,0.030873486772179604,0.10036880522966385,-0.0430033840239048,0.3373664319515228,0.01908598653972149,-0.35444581508636475,0.3636011481285095,0.7159661054611206,0.5567331910133362,0.06617486476898193,0.057996366173028946,0.6102957129478455,-0.4613787531852722,0.6980080008506775,-0.1126541793346405,-0.7603703141212463,0.5138983726501465,0.799667239189148,-0.4990968406200409,-0.5765711665153503,-0.17531366646289825,-0.5800575613975525,0.4848756790161133,-0.2239009588956833,-0.2815319001674652,-0.0564957931637764,-0.20604485273361206,0.14184938371181488,0.2998770773410797,0.08436547964811325,-0.10906300693750381,0.2435533106327057,0.2755655348300934,-0.1571333110332489,0.15136267244815826,-0.3153780996799469,0.16616177558898926,0.09296085685491562,-0.24200420081615448,0.26259538531303406,-0.22609438002109528,-0.23605656623840332,-0.2162238210439682,-0.4393618702888489,-0.35852354764938354,0.3754613399505615,-0.4958571791648865,-0.6960586905479431,-0.20591558516025543,0.19621644914150238,-0.20771250128746033,-0.00885569304227829,0.4842332601547241,-0.7401981353759766,0.8011232018470764,0.55242520570755,-0.4761495292186737,0.6441878080368042,0.3413581848144531,0.8007105588912964,0.25919947028160095,0.7527604103088379,-0.8111419677734375,0.051882337778806686,0.18603020906448364,0.14874452352523804,0.1775086224079132,0.046525564044713974,-0.03037545457482338,-0.12294873595237732,0.0890529677271843,-0.18520276248455048,-0.19624976813793182,0.19783219695091248,-0.11517146974802017,0.06306307017803192,-0.15817853808403015,-0.34793969988822937,0.13813988864421844,-0.17284394800662994,0.11723874509334564,-0.02247505448758602,0.20125465095043182,0.22158029675483704,-0.1630367487668991,0.020693257451057434,0.036960870027542114,0.11756915599107742,0.9278655648231506,-0.030758488923311234,0.127848818898201,0.8050169944763184,-0.13992702960968018,0.2773411273956299,0.01159625593572855,-1.0445060729980469,0.2655573785305023,0.6132314205169678,-0.7051495313644409,-0.28167444467544556,0.10398479551076889,-0.28391921520233154,0.007728325668722391,0.1415242999792099,-0.30063000321388245,0.03873090818524361,0.03448985144495964,-0.004248781595379114,0.9282338619232178,-0.0527111291885376,0.11459913104772568,0.8321694135665894,-0.19458353519439697,0.06557727605104446,0.0563347227871418,-0.9276856184005737,0.21982523798942566,0.5769586563110352,-0.6567848324775696,-0.1636119782924652,0.04673965275287628,-0.21365123987197876,0.027515878900885582,0.16565419733524323,0.2030474990606308,0.2852441966533661,0.2044655978679657,-0.06499406695365906,-0.019935455173254013,-0.10106556117534637,0.13302837312221527,-0.10588380694389343,-0.22289018332958221,0.17609570920467377,-0.22593386471271515,0.0933249369263649,-0.15910457074642181,-0.44780367612838745,0.04493612423539162,-0.17955410480499268,0.08911122381687164,-0.07330793142318726,0.13629396259784698,-0.02351546473801136,-0.12356171011924744,-0.014530397951602936,-0.30937278270721436,0.1488131582736969,0.2944733500480652,0.24475964903831482,-0.09875611215829849,0.1322915107011795,0.2833077013492584,-0.15972574055194855,0.059852954000234604,-0.3741304576396942,0.14478088915348053,0.05863984674215317,-0.33633479475975037,0.22659702599048615,-0.23991821706295013,-0.2541249692440033,-0.0993722528219223,-0.19005702435970306,-0.2028997391462326,0.12850238382816315,-0.29572397470474243,-0.18799002468585968,0.301363468170166,0.17126299440860748,-0.13559675216674805,0.3455299437046051,0.3570708930492401,-0.32717767357826233,0.20258404314517975,-0.05110820382833481,-0.08696144819259644,0.11306148022413254,-0.2605191171169281,0.2508160173892975,-0.055541958659887314,0.2006661742925644,-0.2292560487985611,-0.22776098549365997,-0.19345052540302277,-0.009940363466739655,-0.1906190812587738,0.28857824206352234,0.4996197819709778,0.16123118996620178,-0.13782347738742828,0.4007105529308319,0.1865912526845932,-0.1523650735616684,0.2900990843772888,-0.3055356442928314,0.26146048307418823,0.22727470099925995,-0.38979580998420715,0.2348305881023407,-0.20621737837791443,-0.37942957878112793,-0.23264458775520325,0.19855940341949463,0.1926250457763672,0.17590491473674774,0.17241938412189484,-0.2536238133907318,-0.14242008328437805,-0.10502491146326065,0.19502873718738556,-0.18347293138504028,-0.14720217883586884,-0.04858015850186348,-0.22824923694133759,0.4437907338142395,-0.3898719847202301,-0.24377627670764923,0.2487858235836029,-0.06228482723236084,0.16505011916160583,0.2225918024778366,0.18383748829364777,0.06326337903738022,-0.08821337670087814,-0.3895655870437622,0.12252116203308105,0.25001704692840576,0.20148342847824097,0.07849308103322983,-0.05637544021010399,0.208025261759758,-0.08581452071666718,0.21216082572937012,0.04194599762558937,-0.3599172830581665,0.24963532388210297,0.2868555188179016,-0.23647966980934143,-0.09757348150014877,-0.06403754651546478,-0.29449662566185,0.07352852076292038,0.5184710621833801,0.3280928134918213,0.27824002504348755,0.6282880306243896,-0.1496211141347885,-0.242031991481781,-0.41572827100753784,0.34089431166648865,-0.19286927580833435,-0.675079345703125,0.6806055903434753,-0.42351630330085754,0.3276025652885437,-0.30948105454444885,-0.01956893689930439,0.3530125319957733,-0.6757858991622925,0.45287948846817017,0.14988304674625397,0.49779391288757324,0.08863317966461182,0.10350165516138077,0.15797416865825653,0.10866592824459076,0.010706442408263683,0.012600013986229897,-0.1035671979188919,0.08484899252653122,-0.11591395735740662,-0.05148284137248993,0.16306576132774353,-0.1368197649717331,0.1351882964372635,-0.0673934817314148,-0.2503402829170227,0.13656659424304962,-0.15546879172325134,0.012045376934111118,-0.04959835857152939,0.13584744930267334,-0.1865440160036087,-0.2997255027294159,-0.0747302919626236,-0.2643465995788574,-0.02510274015367031,0.4000226557254791,0.3528684973716736,-0.27350589632987976,0.3278747498989105,0.24947163462638855,-0.30062881112098694,0.261218398809433,-0.1306176334619522,0.15713319182395935,0.13701632618904114,-0.28712591528892517,0.3132072985172272,-0.22533965110778809,-0.016609905287623405,-0.19164323806762695,0.11807657033205032,-0.17297767102718353,-0.15014412999153137,0.00841966550797224,0.04155927896499634,0.8571003079414368,-0.05136178433895111,0.10240417718887329,0.8011682629585266,-0.12351717054843903,0.16161151230335236,-0.011514165438711643,-1.1110848188400269,0.24400369822978973,0.4691251218318939,-0.6652591824531555,-0.13440805673599243,0.008511301130056381,-0.14588449895381927,0.04679194465279579,0.015757577493786812,0.14126554131507874,0.07640273123979568,0.08752407133579254,-0.21581780910491943,-0.32935601472854614,-0.18508021533489227,0.06901339441537857,-0.28653210401535034,0.019426478073000908,-0.14545518159866333,-0.1959046572446823,0.33584874868392944,0.06401608884334564,0.2745000422000885,0.3157583177089691,-0.012156061828136444,0.23101000487804413,0.3825720250606537,0.06862585991621017,-0.25879523158073425,-0.3128108084201813,-0.22145657241344452,-0.2614073157310486,0.13144005835056305,0.3119730055332184,0.20215517282485962,-0.3183073401451111,0.3001307249069214,0.28606778383255005,-0.3842936158180237,0.3038887679576874,-0.2801477015018463,0.1340709626674652,0.22841402888298035,-0.21528539061546326,0.3321045935153961,-0.3444586396217346,-0.17054633796215057,-0.34228602051734924]},"forgetBias":{"rows":20,"columns":1,"weights":[0,0,0,0,0,0,0,0,0,0,0,0,0,0,0,0,0,0,0,0]},"outputMatrix":{"rows":20,"columns":17,"weights":[-0.47602379322052,0.8028314113616943,-0.597408652305603,-0.5327610969543457,-0.37711265683174133,-0.4896143972873688,-0.40679726004600525,0.40704745054244995,-0.42065945267677307,-0.35312142968177795,-0.29393669962882996,-0.7157576680183411,0.47002559900283813,0.2788054645061493,0.5079371929168701,-0.7623334527015686,0.4132876694202423,-0.13588112592697144,0.4356795847415924,-0.3473283648490906,-0.3186538815498352,-0.29208725690841675,-0.322430819272995,-0.1545073240995407,0.3696897327899933,-0.22577285766601562,-0.2129961997270584,-0.0787147581577301,-0.3607221841812134,0.08200598508119583,0.06960804760456085,0.309070348739624,-0.4507446587085724,0.27459216117858887,0.5137073993682861,1.0884721279144287,0.23072175681591034,0.4686194956302643,0.5745400190353394,0.42159831523895264,0.060917261987924576,-0.857841968536377,0.6254928112030029,0.760914146900177,0.8776846528053284,-0.4016626477241516,0.4874677360057831,-0.5832501649856567,-0.6570042967796326,-1.1915473937988281,-0.7283357381820679,-0.20768535137176514,0.5313892960548401,-0.4123692810535431,-0.31062015891075134,-0.2537905275821686,-0.38958215713500977,-0.1607021689414978,0.3488334119319916,-0.2601350247859955,-0.3107326626777649,-0.11622395366430283,-0.39260202646255493,0.14807139337062836,0.11269887536764145,0.4140581488609314,-0.3878062069416046,0.2466423511505127,0.8892074823379517,-0.07367385178804398,0.4902554452419281,0.7059068083763123,0.7123746871948242,0.254493772983551,0.43153882026672363,0.21088363230228424,0.22318072617053986,0.04551488533616066,0.4249955713748932,-0.12519213557243347,-0.3954337239265442,-0.4322681128978729,-0.09050723165273666,0.18712157011032104,0.08728644251823425,-0.23542004823684692,0.4323899745941162,-0.7204805612564087,-0.7819702625274658,-0.5578203201293945,-0.5699543952941895,0.47249123454093933,-0.10446105152368546,-0.15536515414714813,0.06935953348875046,0.33390676975250244,-0.09319671988487244,-0.39359429478645325,-0.3249454200267792,0.21322371065616608,-0.4284898638725281,-0.15499147772789001,-0.5376235246658325,0.9882742762565613,-0.69295334815979,-0.3861192464828491,-0.2798956036567688,-0.5239500403404236,-0.6536308526992798,0.6549625396728516,-0.5246900916099548,-0.6800385117530823,-0.5444326996803284,-0.8622232675552368,0.786736786365509,0.5416098833084106,0.5100067257881165,-0.8659278154373169,0.6879903674125671,-0.300467312335968,0.8509108424186707,-0.5991727709770203,-0.3994317352771759,-0.21233613789081573,-0.471927285194397,-0.45632073283195496,0.5125672817230225,-0.3069729804992676,-0.39690887928009033,-0.37331268191337585,-0.7537779211997986,0.632700502872467,0.433580607175827,0.5447995066642761,-0.8012284636497498,0.5620592832565308,-0.3872443437576294,0.6174119710922241,-0.6755928993225098,-0.6321550011634827,-0.5556647181510925,-0.6710939407348633,-0.2412738800048828,0.5259953737258911,-0.5306335687637329,-0.4593052268028259,-0.3241528868675232,-0.4460575580596924,0.274821013212204,0.3816083073616028,0.5489344000816345,-0.6468169689178467,0.42330482602119446,-0.4014083743095398,0.30836620926856995,-0.5388970971107483,-0.46985629200935364,-0.3554002344608307,-0.6204132437705994,-0.2744307219982147,0.4532562494277954,-0.47492191195487976,-0.4433877170085907,-0.43288761377334595,-0.4505280554294586,0.244850292801857,0.43133699893951416,0.4271198809146881,-0.3222888708114624,0.5033137798309326,-0.17647874355316162,0.508338451385498,-0.3797864317893982,-0.12927615642547607,-0.1319013237953186,-0.3011239469051361,0.33245158195495605,0.34057876467704773,-0.23326417803764343,-0.2927488386631012,-0.18309633433818817,-0.515365481376648,-0.16742990911006927,0.325412392616272,0.3453407883644104,-0.27488961815834045,0.39338064193725586,0.03385225683450699,0.36524587869644165,-0.22309021651744843,-0.07750172913074493,-0.024190915748476982,-0.11121918261051178,-0.08665002882480621,0.1053803414106369,0.012065961956977844,-0.11189742386341095,0.07716096192598343,-0.17790193855762482,0.1347694993019104,0.05875295400619507,0.16210131347179413,-0.4304477870464325,0.08497393131256104,0.32004064321517944,0.634698748588562,0.31523391604423523,0.3680713176727295,0.3544398546218872,0.5434536933898926,-0.03524375334382057,-0.6577171087265015,0.5948047637939453,0.6975828409194946,1.0854936838150024,-0.24050016701221466,0.11526551097631454,-0.4205414950847626,-0.5034072399139404,-0.6498236656188965,-0.6384230256080627,0.10784661024808884,0.6998794674873352,0.44167622923851013,0.3225158452987671,0.4099378287792206,0.5024679899215698,-0.6342008709907532,-0.6190493106842041,0.5820404887199402,0.5717054009437561,0.4773108661174774,-0.42997637391090393,0.6022643446922302,-0.1028706356883049,-0.5646112561225891,-0.8204853534698486,-0.4140945374965668,-0.42431640625,0.7091145515441895,-0.7074927687644958,-0.44168636202812195,-0.4374147057533264,-0.5887324213981628,-0.4168526828289032,0.4534980058670044,-0.4056554138660431,-0.5404504537582397,-0.2818855941295624,-0.6185031533241272,0.4981952905654907,0.40772581100463867,0.5336828827857971,-0.7680538296699524,0.5059598088264465,-0.3812144696712494,0.5700563192367554,-0.8081474900245667,-1.063227653503418,-0.6938545107841492,-0.5926639437675476,0.46448126435279846,-0.17475523054599762,-0.18729382753372192,0.05614592507481575,0.3163016438484192,-0.12503470480442047,-0.3898015022277832,-0.3085069954395294,0.18597368896007538,-0.4914291203022003,-0.08330871164798737,-0.06405225396156311,0.4698461592197418,-0.38843485713005066,0.029706768691539764,-0.07598107308149338,-0.33601006865501404,0.019453139975667,0.383490651845932,-0.1798429936170578,-0.24420979619026184,-0.11687292158603668,-0.40432342886924744,0.21440216898918152,0.2716004550457001,0.2704086899757385,-0.4683365523815155,0.41323500871658325,0.21617616713047028,0.6841909289360046,0.07021903991699219,0.18078456819057465,0.2607076168060303,0.2272573560476303,-0.5082452297210693,-0.2531236410140991,0.18362991511821747,0.3020549416542053,0.3435523808002472,0.026007726788520813,0.6198921203613281,-0.3742271661758423,-0.187952920794487,-0.8595430254936218,-0.34384745359420776,-0.025418473407626152,0.3768189549446106,0.4065383970737457,0.5560348629951477,0.32181882858276367,0.37080901861190796,-0.615511417388916,-0.28992360830307007,0.36691850423812866,0.07971038669347763,-0.13494320213794708,-0.5153641700744629,0.7252331972122192,0.35352885723114014,-0.35130783915519714,-0.9773762822151184,0.150477796792984,0.09444151818752289,0.2055353969335556,-0.27117010951042175,-0.061240021139383316,0.027414346113801003,-0.1852867752313614,0.04695049673318863,0.209921732544899,0.01644645258784294,-0.17418263852596283,0.012180882506072521,-0.010876337066292763,0.027032902464270592,-0.12122667580842972,0.20741581916809082,-0.40694165229797363,0.051626551896333694]},"outputHidden":{"rows":20,"columns":20,"weights":[-0.5013960599899292,-0.6024778485298157,0.14488254487514496,-0.4166293442249298,-0.5484836101531982,0.5282906889915466,0.12312648445367813,-0.3349945843219757,0.7774381041526794,0.23731812834739685,-0.2910486161708832,0.522586464881897,-0.10721424967050552,-0.20548254251480103,0.6191689372062683,-0.2873116135597229,0.351375013589859,0.05144445598125458,0.41644376516342163,-0.5753428339958191,-0.6525955200195312,-0.5832116603851318,0.7344362735748291,-0.6154749393463135,-0.7474774718284607,0.06450700014829636,0.08350822329521179,-0.35176441073417664,0.4313826858997345,0.49404507875442505,-0.6331303119659424,0.7356919050216675,0.5806308388710022,-0.5859829783439636,-0.1120569184422493,0.10495426505804062,0.7912752032279968,0.31130164861679077,0.6985355019569397,-0.7160642743110657,-0.39280563592910767,-0.056432802230119705,0.8717777729034424,-0.13067293167114258,0.3536442816257477,-0.15108497440814972,0.19076713919639587,-0.34538698196411133,-0.1345832496881485,0.4254242181777954,-0.14368396997451782,-0.17553526163101196,0.23159325122833252,-0.3495851457118988,-0.6240716576576233,0.0798724815249443,0.41113168001174927,-0.11124387383460999,0.21747103333473206,-0.00624963128939271,-0.39507609605789185,-0.5043330192565918,0.31277933716773987,-0.41816890239715576,-0.48392075300216675,0.3114233911037445,0.16752247512340546,-0.292449414730072,0.5855667591094971,0.2779031991958618,-0.4251607358455658,0.43828219175338745,0.1349324733018875,-0.10965944081544876,0.35449519753456116,-0.254187673330307,0.43712297081947327,0.09082432091236115,0.45048952102661133,-0.5770605802536011,-0.9320488572120667,-0.9308162331581116,0.060030173510313034,-0.7388644218444824,-0.5520423054695129,0.5551436543464661,0.6641656756401062,-0.7565272450447083,0.8397062420845032,0.7631598711013794,-1.322056531906128,1.142546534538269,0.10847944021224976,-0.07457760721445084,0.8006853461265564,-0.4277378022670746,1.1968472003936768,-0.12115558981895447,0.38022300601005554,-1.096666693687439,-1.0157299041748047,-0.41222327947616577,0.6769728064537048,-0.3281044363975525,-0.08953005075454712,0.5436891317367554,0.6406364440917969,-0.984907865524292,0.7757449150085449,0.5727565288543701,-0.06238443776965141,-0.37217816710472107,0.021365797147154808,-0.20861665904521942,0.1428697109222412,-0.4508344233036041,0.5320929884910583,-0.45036184787750244,0.27846336364746094,0.18025067448616028,-0.549185574054718,-0.6232017278671265,0.04351791366934776,-0.5953604578971863,-0.3259490728378296,0.15336072444915771,0.3021228015422821,-0.4676976501941681,0.3317592740058899,0.5439367890357971,-0.44457539916038513,0.7083248496055603,-0.05582848936319351,-0.013837356120347977,0.204735666513443,-0.1238720715045929,0.44103357195854187,-0.24851688742637634,0.16754795610904694,-0.6315391063690186,-0.3296203315258026,-0.6239073276519775,0.2631177008152008,-0.44296666979789734,-0.06639297306537628,0.5849813222885132,0.18516705930233002,-0.3218725621700287,0.9222708344459534,0.2924313545227051,-0.3504941165447235,0.7968651056289673,-0.15055055916309357,0.03389047831296921,0.5352358818054199,-0.4664759933948517,0.2807844877243042,-0.19551172852516174,0.012829096987843513,-0.5694503784179688,-0.6585835218429565,-0.5069810152053833,0.3206508457660675,-0.6194804906845093,-0.5150729417800903,-0.06944914907217026,0.20792748034000397,-0.3992059826850891,0.14082776010036469,0.5756363272666931,-0.6463383436203003,0.6232951879501343,0.35277727246284485,-0.14950275421142578,0.1531510353088379,0.08182313293218613,0.620648205280304,0.006924944929778576,0.4253478944301605,-0.6497682332992554,-0.2783469557762146,-0.5148136615753174,0.11543581634759903,-0.36706042289733887,-0.17920927703380585,0.510879635810852,0.17676758766174316,-0.3029729425907135,0.5937370657920837,0.2215510606765747,-0.2522929906845093,0.4676106870174408,-0.20190095901489258,0.06049194559454918,0.3796226680278778,-0.5149210095405579,0.20470814406871796,-0.14053978025913239,0.009425388649106026,-0.3994908928871155,-0.2542368173599243,-0.4468432366847992,0.37502866983413696,-0.3718979060649872,-0.5093532204627991,0.49071189761161804,0.21377481520175934,-0.2898372411727905,0.5890961289405823,0.3921533226966858,-0.472147673368454,0.44911718368530273,0.2255917638540268,-0.22787214815616608,0.4023582339286804,-0.36271172761917114,0.3621770441532135,0.17021451890468597,0.45922762155532837,-0.3604050576686859,-0.5136232376098633,-0.5744947791099548,0.7992758750915527,-0.5558396577835083,-0.8884420394897461,0.11910571902990341,0.0918588638305664,-0.22006146609783173,0.6375742554664612,0.5059190392494202,-0.7140042185783386,0.7854527235031128,0.6510290503501892,-0.7256046533584595,0.10301614552736282,0.04006572440266609,0.7592337131500244,0.33940762281417847,0.9018014669418335,-0.7880359888076782,-0.9123302698135376,-0.43088439106941223,0.4339500367641449,-0.5805342197418213,-0.2564223110675812,0.5453173518180847,0.6813724040985107,-0.8435312509536743,0.533742368221283,0.7461740970611572,-0.4956967532634735,0.32853618264198303,0.3157033920288086,-0.0815293937921524,0.0341804213821888,-0.46338480710983276,0.7791363000869751,-0.4006907343864441,0.20059844851493835,-0.6545646786689758,-0.6266498565673828,-0.2700604200363159,0.12453711777925491,-0.1852225363254547,0.5928884148597717,0.20064955949783325,0.35349249839782715,-0.6252433061599731,0.3761819899082184,0.2413007766008377,0.0004099902289453894,-0.04281986877322197,-0.111904077231884,0.1366506665945053,0.02758738584816456,-0.2413835972547531,0.1842254251241684,-0.6358200907707214,-0.32932034134864807,-0.10298667103052139,-0.4096643924713135,-0.32403483986854553,0.48933178186416626,-0.44576120376586914,-0.609639585018158,-0.21055296063423157,0.04009518399834633,-0.11804886907339096,0.3831108510494232,0.3460283875465393,-0.400171160697937,0.6179639101028442,0.44012704491615295,-0.3619624078273773,0.6643298864364624,0.2354704588651657,0.48948872089385986,0.2394665628671646,0.6376054286956787,-0.5609866380691528,-0.6544376611709595,-0.007703826297074556,0.9206185936927795,-0.14212290942668915,0.18743209540843964,1.030157208442688,0.6214829087257385,-0.8093585968017578,1.0674370527267456,0.5637142658233643,-0.22352465987205505,-0.5814248323440552,0.11832978576421738,-0.11571695655584335,0.3407424986362457,-0.9363367557525635,0.6247470378875732,-0.4928148090839386,0.18837103247642517,0.2706533372402191,-0.448758602142334,-0.5318319797515869,0.2688561975955963,-0.477338582277298,-0.624618649482727,0.45471349358558655,0.3475355803966522,-0.31254690885543823,0.6022331714630127,0.3070650100708008,-0.5331110954284668,0.5167514681816101,-0.009405957534909248,-0.20359426736831665,0.3990449905395508,-0.4223178029060364,0.2918458580970764,0.0265713632106781,0.334194540977478,-0.4321843981742859,-0.4727049469947815,-0.027057437226176262,0.0518530011177063,-0.22135651111602783,0.6342191100120544,0.5805849432945251,0.5117219686508179,-0.49330469965934753,0.3307860493659973,0.29210469126701355,0.04712974652647972,-0.49705445766448975,-0.475053071975708,0.47392159700393677,-0.2289002388715744,-0.6683380007743835,0.23619501292705536,-0.7197299599647522,-0.5627613067626953,0.32917988300323486,-0.7958890795707703,-0.7777406573295593,-0.4707072675228119,-1.0945262908935547,0.22141088545322418,0.11539142578840256,0.5436730980873108,-0.5905672907829285,0.48371803760528564,0.9439722299575806,-1.001552939414978,1.2392897605895996,-0.013963239267468452,0.3064526915550232,0.6890056133270264,-0.1157190352678299,1.2184107303619385,-0.3611529469490051,-0.11367712169885635,-1.4136935472488403,-0.6503471732139587,-0.6264607906341553,0.6951004266738892,-0.7002516984939575,-0.9723246097564697,0.16955460608005524,0.17940938472747803,-0.3924028277397156,0.5123429298400879,0.7162667512893677,-0.8981640338897705,0.7373738884925842,0.472379207611084,-0.48646029829978943,0.3643172085285187,0.03510047122836113,0.7850764989852905,0.2161533087491989,0.8150530457496643,-0.7976319193840027]},"outputBias":{"rows":20,"columns":1,"weights":[-0.29497015476226807,-0.3018006980419159,1.378279209136963,-0.009719489142298698,0.9221256375312805,-0.4194108843803406,0.26878514885902405,0.26905691623687744,-0.43181338906288147,-0.14894437789916992,0.30629679560661316,-0.2640461325645447,0.7002089023590088,0.7419893145561218,-0.32111820578575134,-0.35755211114883423,0.24177365005016327,0.7226387858390808,0.8416197299957275,-0.2229039967060089]},"cellActivationMatrix":{"rows":20,"columns":17,"weights":[0.19542232155799866,-0.47648170590400696,0.3142995536327362,0.010303017683327198,-0.11893993616104126,0.18939341604709625,0.28803420066833496,-0.3246747553348541,0.16772420704364777,0.3191668391227722,0.17853990197181702,0.3850061297416687,-0.27127012610435486,-0.30346399545669556,-0.20114010572433472,0.5417172908782959,-0.22007673978805542,0.0588575042784214,-0.20952804386615753,0.394104927778244,-0.11057137697935104,0.08244945108890533,0.22732746601104736,0.143243208527565,-0.3949384391307831,0.10975593328475952,0.2614780068397522,0.27953264117240906,0.28014352917671204,-0.16268925368785858,-0.09889203310012817,-0.3027935326099396,0.3722081184387207,-0.2010633796453476,-0.14725418388843536,-0.2696143090724945,0.786845862865448,0.21418745815753937,0.6185225248336792,0.4946514964103699,-0.29820409417152405,-0.3013581931591034,-0.0949627161026001,0.3065609931945801,-0.16562910377979279,0.11934314668178558,0.19646874070167542,0.0878596380352974,-0.4831354022026062,0.24863062798976898,0.11508718132972717,-0.06356204301118851,-0.30988654494285583,0.2060593068599701,-0.16804736852645874,-0.34949320554733276,0.035330820828676224,0.12250382453203201,-0.533612072467804,0.043801870197057724,0.3365449607372284,0.1399063766002655,0.31651434302330017,-0.2423289716243744,-0.1752670556306839,-0.3317740857601166,0.3499810993671417,-0.35979002714157104,-0.5425411462783813,-0.03181220591068268,-0.1982867419719696,-0.8054367899894714,-1.3716914653778076,-0.25309333205223083,-0.06775439530611038,0.2440822422504425,-0.36604541540145874,-0.2736789286136627,-0.3723781406879425,0.05808660015463829,0.11039500683546066,0.016681769862771034,0.10820469260215759,0.3441454768180847,-0.014801145531237125,-0.7554006576538086,0.25593751668930054,-0.29253149032592773,-0.33399924635887146,-0.6434386372566223,-0.18292449414730072,-0.7379471659660339,0.3537316620349884,-0.45210495591163635,-0.3044712543487549,-0.7160974740982056,-0.4543750584125519,0.5473735332489014,0.6655009984970093,0.3298395276069641,-0.36348283290863037,0.3970690965652466,-0.07093165069818497,0.4038187265396118,-0.02922462671995163,0.3211023807525635,0.027210300788283348,0.28530266880989075,-0.7203130125999451,0.3716307282447815,0.13255883753299713,-0.5428401231765747,-0.6251177787780762,-0.6712741851806641,1.0493446588516235,0.8653585910797119,0.3071552515029907,-0.6495135426521301,0.45277348160743713,0.22106003761291504,-0.5091363787651062,0.47963947057724,0.11519534140825272,0.1333867758512497,0.2320251613855362,0.26344549655914307,-0.3806135654449463,0.04362187162041664,0.4115944802761078,0.2645280361175537,0.4409774839878082,-0.3001325726509094,-0.25365471839904785,-0.3349306583404541,0.5064646601676941,-0.2772825062274933,-0.6456568837165833,0.5089125037193298,-0.4311451315879822,-0.30443909764289856,-0.4763983190059662,-0.4028637409210205,-0.6259927749633789,0.3692481219768524,-0.5268683433532715,-0.41886454820632935,-0.5091264843940735,-0.6083015203475952,0.6701405048370361,0.5488073229789734,0.3710896074771881,-0.5906098484992981,0.4439232349395752,-0.001202567364089191,0.35886523127555847,0.18531133234500885,0.5778492093086243,0.6840188503265381,0.36086973547935486,-0.5163071155548096,-0.036450352519750595,0.401626855134964,-0.010873326100409031,-0.11788307130336761,-0.23426394164562225,0.4485568404197693,0.5156975388526917,-0.24977435171604156,-0.4154817759990692,0.07167873531579971,-0.04559185355901718,-0.49451741576194763,0.21998976171016693,-0.4231022596359253,-0.7195607423782349,0.0030541429296135902,-0.15012197196483612,-0.4979080557823181,-0.11345744878053665,0.4025821387767792,0.2238510251045227,0.4730497896671295,-0.13148969411849976,-0.30825087428092957,-0.30636122822761536,0.4162791669368744,-0.43566811084747314,-0.1825174242258072,0.27712777256965637,-0.5202930569648743,0.023026304319500923,0.028074728325009346,-0.3528570532798767,0.020162757486104965,0.45404326915740967,-0.11894454807043076,-0.31961706280708313,-0.15864400565624237,-0.24024361371994019,0.03867240250110626,0.11666656285524368,0.3371680676937103,-0.28278765082359314,0.1885966807603836,0.6817011833190918,-0.27661967277526855,0.3615552484989166,0.47862571477890015,0.7417850494384766,0.3939170837402344,0.6614881753921509,-0.4150235652923584,0.4020048975944519,0.5229784846305847,0.7944644689559937,0.44567251205444336,-0.6356693506240845,-0.7004002332687378,-0.36080804467201233,0.3579309582710266,-0.3108106255531311,-0.35339441895484924,0.10386451333761215,-0.36436960101127625,-0.3026786148548126,-0.47690075635910034,-0.4754640758037567,-0.26850080490112305,0.42124173045158386,-0.1628502458333969,-0.27174291014671326,-0.35899466276168823,-0.3007294237613678,0.3085745871067047,0.30396246910095215,0.5543199181556702,-0.19163675606250763,0.1531357616186142,-0.24373386800289154,0.5142064094543457,-0.39866453409194946,-0.11713378876447678,-0.22996512055397034,-0.365150511264801,-0.36668795347213745,0.27875465154647827,-0.1981968730688095,-0.3537510931491852,-0.30884864926338196,-0.564379870891571,0.5409665107727051,0.26265308260917664,0.26569461822509766,-0.555724024772644,0.2642671763896942,0.8008500337600708,-0.19841864705085754,0.46773603558540344,0.28929251432418823,0.6549413800239563,0.30405130982398987,0.6995528936386108,-0.4315851330757141,0.501133143901825,0.360292911529541,0.7757757902145386,0.3680335581302643,-0.48813724517822266,-0.6054304838180542,-0.4516848921775818,0.30329787731170654,-0.3138405680656433,0.047891195863485336,0.4152674674987793,-0.3300914168357849,0.19907598197460175,0.40687739849090576,-0.17425547540187836,0.03764081001281738,0.5515199899673462,-0.18170487880706787,-0.44712382555007935,-0.2802925109863281,-0.45461079478263855,0.16736449301242828,0.2508765161037445,0.35663220286369324,-0.34720996022224426,0.5339787602424622,0.267427921295166,-0.3883781433105469,0.6302778720855713,0.3840942680835724,0.3175853490829468,0.4543410539627075,-0.09973176568746567,-0.5575571656227112,0.3175828754901886,0.24737530946731567,0.1623404175043106,0.3736930191516876,0.04708532989025116,0.024666281417012215,-0.5903138518333435,0.32217124104499817,-0.2852393090724945,0.7164017558097839,-0.37821024656295776,0.6415913105010986,1.0296229124069214,1.0201536417007446,0.25427764654159546,-0.10171040147542953,0.13676099479198456,0.07979758828878403,-0.2751941680908203,-0.003961257170885801,0.28173384070396423,0.06476853787899017,0.059484273195266724,-0.12435819208621979,0.4926418960094452,0.24633626639842987,0.13436180353164673,-0.23667967319488525,0.39745885133743286,-0.07343660295009613,-0.02449631877243519,0.34514278173446655,-0.04737395420670509,-0.4992743730545044,0.17871715128421783,0.24321672320365906,0.2649892270565033,0.2894497215747833,-0.06580528616905212,-0.14614813029766083,-0.34878140687942505,0.28595611453056335,-0.24517446756362915]},"cellActivationHidden":{"rows":20,"columns":20,"weights":[0.18392319977283478,0.2787773907184601,-0.19584527611732483,0.17014048993587494,0.7845700979232788,-0.20993256568908691,0.02421671338379383,-0.004274241626262665,-0.27639222145080566,-0.047197312116622925,0.17947547137737274,-0.1427675187587738,-0.07565966993570328,0.13301068544387817,-0.1972522884607315,0.11328326910734177,-0.15389256179332733,-0.13450637459754944,-0.4791346788406372,0.24101316928863525,0.12347309291362762,0.17774906754493713,-0.689706563949585,0.0774756669998169,1.0480144023895264,-0.2568000555038452,0.07243704050779343,-0.13153521716594696,-0.42172324657440186,-0.14335888624191284,0.26615557074546814,-0.1876358985900879,-0.24442078173160553,0.431469202041626,-0.06952149420976639,0.06636117398738861,-0.12896274030208588,-0.22532451152801514,-0.7154896259307861,0.15262380242347717,-0.24905723333358765,-0.04181761294603348,-0.7991374731063843,0.06188209727406502,0.946750283241272,-0.4692494571208954,0.41264593601226807,-0.29945382475852966,-0.8803754448890686,-0.13822434842586517,0.34901174902915955,-0.09302516281604767,-0.3091372847557068,0.547940194606781,-0.8614155054092407,0.17120158672332764,-0.17976531386375427,-0.5640959739685059,-0.68806391954422,-0.1011548787355423,0.15423522889614105,0.154367595911026,-0.4782916307449341,0.3095410466194153,0.650152325630188,-0.27267882227897644,0.09608665108680725,0.10387767106294632,-0.24875794351100922,-0.15491701662540436,0.2199142724275589,-0.23923151195049286,-0.12358786165714264,0.1592583805322647,-0.10158154368400574,0.26593610644340515,-0.23813524842262268,-0.09690024703741074,-0.5365917086601257,0.2202804982662201,0.08639375120401382,0.0816408097743988,-0.1620020866394043,0.00021100093727000058,0.3149370551109314,0.17035257816314697,0.07892349362373352,0.019599396735429764,0.06881848722696304,0.03152557834982872,0.2583480179309845,-0.2584720551967621,-0.43016406893730164,0.640399694442749,1.027622938156128,-0.10041657835245132,-0.10158629715442657,-0.013876163400709629,-0.18432573974132538,0.2339150756597519,-0.055508922785520554,-0.12759406864643097,0.06063756346702576,-0.06511864811182022,-0.5064667463302612,-0.1756439357995987,-0.2548670172691345,0.052103105932474136,-0.2809719443321228,0.048364490270614624,0.19888043403625488,0.05434510484337807,0.028360851109027863,-0.04159688949584961,-0.6115944385528564,0.2780062258243561,-0.13380387425422668,0.07324793934822083,0.1433108001947403,-0.07163797318935394,0.1356905996799469,-0.3455696105957031,0.4041368365287781,-0.11619692295789719,-0.40526118874549866,0.909507155418396,-0.2741345763206482,0.22427718341350555,0.9500593543052673,-0.0314050056040287,0.04249335452914238,0.17639511823654175,-0.6558060050010681,0.15371988713741302,0.748081624507904,-0.6255476474761963,-0.15368494391441345,0.010552432388067245,0.23017486929893494,-0.009697877801954746,-0.07560721784830093,0.24576744437217712,-0.4094351530075073,0.10716871917247772,0.7256624698638916,-0.5234054327011108,0.15676133334636688,-0.13280047476291656,-0.6712474226951599,-0.02891048975288868,0.1208111122250557,-0.1881333291530609,0.15267866849899292,0.180606871843338,-0.3581000566482544,0.2581905126571655,0.08321546763181686,-0.20468592643737793,-0.47476711869239807,0.13077722489833832,-0.01507648080587387,-0.11215505748987198,0.34733572602272034,-0.1603824645280838,-0.7676261067390442,-0.019848156720399857,-0.09697364270687103,0.08163730055093765,-0.23155443370342255,0.034808337688446045,0.08572310209274292,0.1842430979013443,-0.03472784906625748,-0.3325350284576416,-1.0469979047775269,0.1526031345129013,-0.09079267084598541,-0.034506574273109436,0.2820811867713928,-0.07447223365306854,-0.09191899001598358,-0.03767268359661102,0.3213110566139221,-0.06300437450408936,-0.18343161046504974,0.16348807513713837,-0.23950012028217316,0.09961409121751785,0.08614958077669144,0.1282424032688141,-0.0659114345908165,-0.037020158022642136,-0.27351734042167664,0.004529982805252075,-0.2316911816596985,-0.16953057050704956,0.001375230378471315,-0.06158741936087608,0.14835375547409058,0.04567613825201988,0.1673218160867691,0.2867049276828766,-0.39240965247154236,0.22778308391571045,0.714016854763031,-0.29756051301956177,0.12077901512384415,0.05549114942550659,-0.26269659399986267,-0.15822449326515198,0.4018250107765198,-0.1856514811515808,-0.14725419878959656,0.1851055771112442,-0.1601097583770752,0.23673665523529053,-0.3473304212093353,-0.07863113284111023,-0.4929411709308624,0.25147122144699097,-0.1770506501197815,-0.30382201075553894,0.7356597781181335,-0.2994605302810669,-1.0245723724365234,0.10870020091533661,0.0026006672997027636,-0.06612745672464371,0.38081592321395874,0.3415985703468323,-0.3430582284927368,0.5049775838851929,0.3834603428840637,-0.5038338303565979,0.08467435836791992,-0.08506018668413162,0.3857938051223755,0.352899968624115,0.7089608311653137,-0.3851289749145508,0.0926063135266304,0.18082159757614136,-0.09537012875080109,0.09231667220592499,0.6118273138999939,0.24193884432315826,0.208151713013649,-0.00746241444721818,0.2736910283565521,0.06179427355527878,-0.1662934124469757,-0.1898449957370758,-0.10440359264612198,0.13202092051506042,0.4376010000705719,-0.46383166313171387,0.09030947834253311,-0.005526000168174505,-0.29055437445640564,0.21672867238521576,0.14469079673290253,0.11507505178451538,0.5825615525245667,0.2670411467552185,-0.2207186371088028,0.07571644335985184,-0.3884009122848511,0.08513401448726654,0.0007133534527383745,-0.27560997009277344,0.2900221049785614,-0.2580491900444031,-0.02662699855864048,-0.14328274130821228,-0.1144024208188057,0.1719476282596588,-0.3276377320289612,0.15285411477088928,0.2308986932039261,0.17334897816181183,0.14658498764038086,0.14322645962238312,0.5986441373825073,0.18693414330482483,-0.7870230674743652,-0.41588056087493896,-0.4068521559238434,0.353519469499588,-0.593338668346405,-0.30355584621429443,0.2014758139848709,-0.15088558197021484,0.3326561152935028,-0.34980008006095886,-0.8621450662612915,0.644825279712677,-0.21907630562782288,0.3790000379085541,0.6425811052322388,0.13089099526405334,-0.07579387724399567,-0.0680992603302002,-0.09636297076940536,0.05066004768013954,0.23319070041179657,-0.07786740362644196,0.2927815914154053,-0.18725727498531342,0.11312075704336166,0.0568496473133564,-0.19893182814121246,0.007480632979422808,0.19964228570461273,-0.07754869014024734,0.1881578415632248,-0.025635024532675743,0.1455419957637787,-0.024794669821858406,-0.02271287702023983,0.027491940185427666,-0.2630649209022522,-0.2807968556880951,0.41367074847221375,-0.2542494535446167,-0.7619157433509827,0.3718971908092499,-0.025603583082556725,-0.05264939367771149,0.2926890254020691,0.29438725113868713,-0.3804166615009308,0.3082255423069,0.11324549466371536,-0.240308940410614,0.20977264642715454,-0.18361997604370117,0.2979620099067688,0.05605009198188782,0.6235717535018921,-0.2627289593219757,0.06412553787231445,0.2423224151134491,-0.45578640699386597,0.1471600979566574,0.5684130191802979,-0.6515974402427673,0.13768094778060913,0.004796330817043781,-0.6144232153892517,0.0526115782558918,-0.06102430075407028,0.006457297131419182,0.2901987135410309,0.19796879589557648,-0.1352313756942749,0.6249892711639404,0.08270414173603058,-0.13481271266937256,-0.28580859303474426,-0.009088951162993908,0.15078893303871155,-0.03605548292398453,-0.24230040609836578,-0.03685259446501732,-0.2895715832710266,-0.3954802453517914,0.08227432519197464,0.11045947670936584,-0.30392342805862427,-0.1279522180557251,-0.36925169825553894,0.29960593581199646,0.508675754070282,-0.45851820707321167,-0.39183926582336426,0.36731579899787903,0.08098509907722473,0.18939395248889923,0.313254177570343,-0.2565391957759857,0.22894838452339172,0.189734548330307,-0.5895673632621765,0.3101784288883209,1.1540358066558838,-0.16662205755710602,0.03341665118932724,0.07628072798252106,-0.25627580285072327,-0.3155421316623688,0.34185436367988586,-0.3130705654621124,-0.45665836334228516,0.4527454972267151,0.00308085884898901,-0.00832486990839243,-0.4184022843837738,-0.036125555634498596,-0.6599082946777344,0.293300986289978]},"cellActivationBias":{"rows":20,"columns":1,"weights":[0.002503038151189685,0.07912425696849823,0.8247358798980713,0.18056076765060425,-0.6619121432304382,-0.001408282434567809,-0.27444279193878174,0.18185846507549286,0.0014583207666873932,0.004956910386681557,0.1369790881872177,-0.1737830638885498,0.2464764565229416,-0.48823171854019165,0.000044074749894207343,0.06779836118221283,-0.27437910437583923,0.47304579615592957,0.559345543384552,0.2420627325773239]}},{"inputMatrix":{"rows":20,"columns":20,"weights":[-1.2519900798797607,-1.38424551486969,-1.1292188167572021,-0.9630563259124756,-0.33886149525642395,0.474045991897583,1.1422666311264038,-1.4112378358840942,0.5239891409873962,0.771097719669342,-0.6296502351760864,1.196119785308838,-0.7300870418548584,0.7167608141899109,0.5615668296813965,-0.45264387130737305,0.7374866604804993,-1.365590214729309,-0.5001091957092285,-1.157656192779541,-0.6627791523933411,-0.6247990727424622,0.3919736444950104,-0.7639471292495728,-0.6729636788368225,0.20117612183094025,0.354711651802063,-0.5355814099311829,0.1612848937511444,0.5561088919639587,-0.7941123247146606,0.5816289186477661,0.1259428858757019,-0.04087686911225319,-0.1071697324514389,-0.17206889390945435,0.754753828048706,-0.44246599078178406,0.5920888781547546,-0.57719486951828,-0.8447876572608948,-0.8010980486869812,0.44083717465400696,-0.4716162383556366,-0.384452223777771,-0.7619702219963074,0.017318928614258766,-0.7848109006881714,0.5308805704116821,0.31817471981048584,-0.5960712432861328,0.7537843585014343,0.06168261915445328,-0.5192835927009583,0.4364190995693207,1.2782297134399414,0.5895349979400635,0.3748340904712677,0.8941944241523743,-0.7446975708007812,-1.0826157331466675,-1.0111085176467896,-0.8258063793182373,-0.4467467665672302,-0.0005336986505426466,0.598558783531189,0.5244835019111633,-0.8504277467727661,0.8012562990188599,0.3112584054470062,-0.20782731473445892,0.7299416661262512,-0.6812875866889954,0.6863508820533752,0.7590497136116028,-0.5363519787788391,0.37245410680770874,-0.7472758293151855,-0.4599916934967041,-0.6641703248023987,-0.5091567039489746,-0.827674150466919,-0.04375145956873894,-0.3323136270046234,-0.5919486284255981,0.09266594052314758,0.7318914532661438,-0.9388324618339539,0.40295669436454773,0.3505062758922577,-0.40877264738082886,0.32466310262680054,-0.29389941692352295,0.2141648232936859,-0.011914457194507122,-0.04472087323665619,0.3397909998893738,-0.8734990358352661,0.11373983323574066,-0.35246729850769043,-1.0102429389953613,-1.1209261417388916,-0.4973718523979187,-1.1465867757797241,-0.025549525395035744,0.6504657864570618,0.45804834365844727,-0.7987241148948669,0.8221032023429871,0.9023986458778381,-0.893028199672699,1.3602330684661865,-0.42975306510925293,0.3593697249889374,1.0829142332077026,-0.3800833225250244,1.1016255617141724,-0.6883501410484314,-0.044686172157526016,-1.492414116859436,-0.9979721307754517,-1.0521472692489624,0.2380428910255432,-0.809291422367096,-0.811133086681366,0.47423991560935974,0.3454814851284027,-0.7240092158317566,0.8138382434844971,0.7885517477989197,-0.7831889390945435,1.027894139289856,0.1124715656042099,-0.2611403465270996,1.005130410194397,-0.3194669485092163,0.8562971353530884,-0.13563010096549988,0.7787939310073853,-1.084394097328186,-0.36780592799186707,0.10030189156532288,-0.43523460626602173,-0.19626060128211975,0.09135889261960983,-0.5460484027862549,-0.32320091128349304,0.027319395914673805,-0.6099785566329956,0.27205929160118103,-0.469068706035614,0.42164310812950134,-0.2958213984966278,0.41917166113853455,-0.7790117859840393,0.3081189692020416,0.6738753318786621,-0.5202131867408752,-0.29628685116767883,-0.6959986090660095,-0.46635621786117554,0.20015011727809906,-0.2475174516439438,-0.5457297563552856,-1.5967050790786743,-1.2054390907287598,0.38249722123146057,-0.24042253196239471,-0.8824531435966492,0.6913929581642151,-0.7057163119316101,0.14977368712425232,2.2733633518218994,-0.4258953928947449,0.5662920475006104,1.2606736421585083,0.7708824276924133,0.05723772197961807,1.6284728050231934,-0.5161840319633484,-1.0000290870666504,-0.9772835373878479,-0.20627890527248383,-0.7665478587150574,-0.32645559310913086,0.5404186248779297,0.48742684721946716,-0.9944565296173096,0.7956408858299255,0.35232409834861755,-0.5634565949440002,0.8283466696739197,-0.28972870111465454,0.19936861097812653,0.8846192359924316,-0.3986072242259979,0.46205660700798035,-0.499994695186615,0.1833498775959015,-0.7180936336517334,-0.7534348964691162,0.30478888750076294,0.11302612721920013,0.2869423031806946,0.7201628684997559,1.0697120428085327,1.005599021911621,-0.775907576084137,1.343937873840332,-0.02195575088262558,0.39559343457221985,-0.4578123390674591,-1.0553758144378662,0.6233188509941101,0.3516760468482971,-0.9983109831809998,-0.27639615535736084,-0.39151790738105774,-0.6635931134223938,0.44789594411849976,-1.125538945198059,-0.32665392756462097,-0.10200532525777817,-1.0279723405838013,-0.2190963625907898,-0.00949889700859785,1.0895979404449463,-0.7216523885726929,-0.010511900298297405,1.0073754787445068,-0.8172977566719055,0.6621097922325134,-0.21504686772823334,0.3066440224647522,0.057034533470869064,0.0018356243381276727,1.1746413707733154,-0.3764615058898926,0.00044193051871843636,-0.8497021198272705,-0.083968885242939,0.07076915353536606,0.8510286808013916,-0.1403464823961258,-2.1758172512054443,0.043647851794958115,-0.4800443947315216,0.3347991108894348,0.5923756957054138,0.2838682234287262,-0.31356364488601685,0.26491546630859375,-0.38070088624954224,-0.6019335389137268,-0.5784740447998047,0.4014182686805725,0.3409116864204407,0.13630835711956024,0.5724285840988159,-0.408987820148468,-0.640144944190979,-0.33332359790802,-0.2128809094429016,-0.8487008810043335,-0.2958086133003235,0.4315577745437622,0.976899266242981,-0.5606672763824463,0.3336358368396759,0.9307252168655396,-0.6202175617218018,0.658913791179657,-0.4297689199447632,0.4283701479434967,0.03694723919034004,-0.44534626603126526,0.8461138010025024,-0.8058983683586121,0.08762514591217041,-0.6899895668029785,-0.9516270756721497,-0.9337946176528931,-1.8263638019561768,-0.6727868914604187,-0.10176568478345871,0.31249919533729553,0.09243134409189224,-0.7255949378013611,0.8372226357460022,0.30256396532058716,-0.36647629737854004,0.8469852805137634,-0.5309392213821411,0.7461130023002625,1.0343619585037231,-0.24629069864749908,0.507565438747406,-0.9923500418663025,-0.6226436495780945,-0.7781659364700317,-0.7048542499542236,-0.6476941704750061,-0.8659185767173767,-0.3460652828216553,0.15767857432365417,0.6552482843399048,0.7208418846130371,-0.8511111736297607,0.8116129040718079,0.07190312445163727,0.00234546372666955,0.578330397605896,-0.8466168642044067,0.6443840265274048,1.069544792175293,-0.4778296947479248,0.04557916149497032,-0.7581968307495117,-0.6237194538116455,-0.42592185735702515,-0.11849847435951233,0.04497417435050011,0.7996364831924438,-0.14719317853450775,-2.493934392929077,-0.8270760774612427,-0.024103078991174698,-0.014204086735844612,-0.32827961444854736,0.0756535530090332,-0.15543602406978607,0.16216157376766205,1.0731436014175415,-0.8791943192481995,-0.0013851337134838104,0.9865005016326904,0.3054940104484558,0.49671658873558044,2.6908984184265137,-0.23122142255306244,-0.6316344141960144,-0.5519359111785889,0.6704438924789429,-1.034520149230957,-1.3119399547576904,0.5990393757820129,0.8808425664901733,-0.4580053389072418,0.5324622392654419,1.056837558746338,-0.9866830706596375,0.7246846556663513,0.003901798278093338,-0.19169430434703827,0.3244556784629822,-0.4930007755756378,0.8388375639915466,-0.12463086098432541,0.7442765831947327,-0.7341976761817932,-0.9295681118965149,-1.1331214904785156,-2.014944314956665,-1.093492031097412,-0.48871517181396484,0.28165867924690247,1.7394236326217651,-1.2975229024887085,0.5149304866790771,1.0000426769256592,-0.47242265939712524,1.5968668460845947,-0.5299955010414124,1.1474056243896484,0.3592386245727539,-0.25337278842926025,0.8929648995399475,-1.4745765924453735,-1.3874049186706543,-1.3617571592330933,-0.6991193294525146,-0.9705826044082642,-2.1137754917144775,-0.8964082598686218,-0.030356038361787796,0.5828829407691956,0.4604417085647583,-0.64915931224823,0.8962925672531128,0.5139943361282349,-0.18752306699752808,1.6024774312973022,-1.1353569030761719,1.1796419620513916,1.101838231086731,-0.5724914073944092,0.5058795213699341,-0.42733389139175415,-0.8262569308280945,-1.5666711330413818]},"inputHidden":{"rows":20,"columns":20,"weights":[0.44985097646713257,-1.2050366401672363,0.27817296981811523,0.0029266071505844593,-0.10844949632883072,0.2888699769973755,-0.09496191889047623,-0.36099329590797424,-0.9917725324630737,-0.7077950239181519,-0.06588668376207352,-0.4409084916114807,0.7452161312103271,-0.907219648361206,0.08321093022823334,0.3277777433395386,-1.0660924911499023,-0.6294692158699036,0.34055355191230774,-0.191006138920784,-0.364835649728775,-0.22025789320468903,0.044198449701070786,1.0625032186508179,-0.6751266121864319,0.041287653148174286,-0.3317085802555084,0.7209988832473755,-0.31324389576911926,-0.13126888871192932,-0.768710196018219,-0.015602907165884972,-0.4571234881877899,-0.2287372201681137,0.5861054062843323,-1.3142818212509155,-0.30528777837753296,-0.5514330267906189,-0.0751417875289917,0.23377729952335358,0.22837622463703156,0.6256011724472046,-0.6890473961830139,-0.6058452725410461,0.2553597092628479,-0.3161398470401764,-0.6805440187454224,-0.14710107445716858,0.04953398555517197,1.0875895023345947,0.6479113698005676,0.5510002970695496,0.009150035679340363,0.28633084893226624,0.33571550250053406,0.6712931990623474,0.3667142689228058,-1.4348818063735962,0.5817527174949646,-0.8414361476898193,0.6891471147537231,-1.249395728111267,0.26582297682762146,-0.4208891987800598,-0.10079537332057953,-0.608639657497406,-1.4010213613510132,-0.3972465395927429,-0.39682888984680176,-0.9775295853614807,0.257625550031662,-0.3854915499687195,0.5633212924003601,-0.946457028388977,-0.2019452303647995,0.1628425270318985,-0.5662561655044556,-0.7867060303688049,0.9645808935165405,-1.0489344596862793,0.25240954756736755,-1.2853518724441528,0.7427564263343811,0.2725870907306671,0.6604055166244507,0.9855226874351501,0.7601677775382996,-0.2835657298564911,-1.5780037641525269,-0.8490924835205078,-0.3439081609249115,-0.49249187111854553,0.17316454648971558,-1.295370101928711,0.20570732653141022,-0.07806053012609482,-0.8434886336326599,0.23801669478416443,0.12004832923412323,0.15273456275463104,-0.1195685863494873,0.24254657328128815,-0.5001136660575867,-0.0006780644180253148,-0.5265730619430542,-0.20156195759773254,-1.0372909307479858,-0.08144872635602951,-0.46133264899253845,0.5886732339859009,0.1634557545185089,-0.13932280242443085,0.4375998079776764,0.38650834560394287,0.14523427188396454,0.20492573082447052,-0.5324060916900635,-2.332993268966675,0.033655744045972824,-0.190291166305542,-0.0946105420589447,0.4215361475944519,-0.7332916855812073,0.020501382648944855,-0.36265262961387634,-0.4490928649902344,-1.309154987335205,-0.08308040350675583,-0.16000361740589142,0.46890655159950256,0.002091239206492901,-0.06629146635532379,0.2523511052131653,0.4356265366077423,0.2134251445531845,0.07069187611341476,-0.237594872713089,-1.7854098081588745,0.21797238290309906,-0.359517365694046,-0.09944292902946472,-0.7257456183433533,1.0494459867477417,0.517069935798645,-0.31837040185928345,1.5421096086502075,2.0232138633728027,-1.3026987314224243,-1.429036021232605,0.005500513594597578,-0.46573933959007263,-1.2539924383163452,1.352778673171997,-0.9803205728530884,0.6975629329681396,0.5082101821899414,-1.3816940784454346,-0.29385778307914734,0.2039288729429245,0.3422375023365021,0.17264965176582336,-0.15515917539596558,-0.07958270609378815,0.9108326435089111,-0.31684982776641846,-0.3319045603275299,-0.15027062594890594,0.2949836850166321,-1.4521170854568481,0.21796348690986633,0.31004419922828674,0.09289442002773285,1.0236554145812988,-0.03985533118247986,-0.8576335906982422,-0.7825750112533569,-0.819198489189148,-0.6892610788345337,0.051737722009420395,-0.2644452750682831,0.24572840332984924,-0.431140273809433,0.19555604457855225,0.08829204738140106,-0.17791806161403656,-0.36042502522468567,-0.8174141645431519,-0.014678939245641232,-0.49723249673843384,-0.2406625747680664,-0.08679258078336716,-0.13087405264377594,0.2523657977581024,-0.32496896386146545,0.032375529408454895,-0.3178287446498871,-0.39188075065612793,-0.7241464257240295,0.4402410387992859,-0.4007909595966339,0.4807021915912628,-0.20936219394207,-0.17060768604278564,0.22780315577983856,0.942271888256073,1.233832597732544,0.9802531599998474,0.2849779725074768,0.06918998807668686,-0.095427006483078,-0.061485860496759415,0.09470275044441223,-0.1456223428249359,-0.2776477634906769,0.06927011907100677,-0.18093112111091614,0.04515968635678291,1.1729168891906738,0.9581833481788635,-0.554230809211731,-0.3186928331851959,-1.0789257287979126,1.372424602508545,1.0618791580200195,-0.40248408913612366,1.279998540878296,1.005142331123352,0.037031520158052444,-0.5931078195571899,-1.1828737258911133,-0.9099473357200623,0.11850141733884811,0.5960779786109924,-0.8008671998977661,0.962182879447937,-0.9578195810317993,-0.6908267736434937,0.2625540494918823,0.11430986225605011,0.7452911734580994,-0.4962643086910248,-0.3260791003704071,0.24868175387382507,0.20052140951156616,-0.3390120565891266,1.1206412315368652,1.038291335105896,-0.41022875905036926,-3.3303489685058594,0.12386306375265121,0.34816044569015503,-0.35586419701576233,2.1653523445129395,-0.630689263343811,-1.3014408349990845,0.5029719471931458,-0.6429365873336792,-0.682062566280365,-0.22558926045894623,0.868396520614624,-0.3570690155029297,-0.7540538311004639,0.8621073365211487,0.5876523852348328,-0.8718157410621643,0.7158522009849548,0.3658393621444702,0.45999202132225037,0.008866571821272373,-0.6555383205413818,-0.5234410166740417,0.6292728781700134,0.006054423749446869,-0.16450978815555573,0.5698403120040894,-0.6150444746017456,-0.2048710286617279,-0.6498526334762573,-0.09469009935855865,0.37400853633880615,0.9458799362182617,-0.6474247574806213,0.2681504786014557,-0.431291788816452,0.2931000590324402,-0.31377238035202026,-0.5811136364936829,-0.25225630402565,-0.3849180042743683,-0.49147021770477295,0.2890125513076782,-0.38472679257392883,0.42264336347579956,-0.5541288256645203,-0.6270444989204407,0.3923158049583435,-0.5881291031837463,-0.37156224250793457,0.8134166598320007,-0.8816539645195007,0.46581047773361206,-0.5447427034378052,0.9199035167694092,-1.2547966241836548,0.8527363538742065,-1.0100376605987549,-1.952280879020691,-0.37626874446868896,-0.4950120449066162,-0.8287094831466675,0.7836949825286865,-0.6523451805114746,0.3327856957912445,-0.4900652766227722,-0.7804521918296814,0.7421252727508545,-0.7037726044654846,-1.6096688508987427,-0.23398549854755402,-0.8414470553398132,-0.02873135171830654,-0.3206166923046112,0.09055936336517334,0.4971027672290802,-0.20537269115447998,-0.4805395305156708,-0.527160108089447,0.26349112391471863,-0.5417802929878235,-0.18636703491210938,-0.4006894528865814,0.18934206664562225,0.15422388911247253,-0.06626231223344803,-0.005160969216376543,-0.4488396644592285,-0.5071733593940735,-1.0153838396072388,-0.37246689200401306,0.004271753132343292,-0.6908301711082458,-0.10456535220146179,0.3052283227443695,0.5203826427459717,-1.085636854171753,0.18354874849319458,-0.2600148916244507,0.30289754271507263,-0.17488832771778107,0.15525996685028076,-0.39433813095092773,0.39370304346084595,0.02438105270266533,0.1193218007683754,0.48456284403800964,-0.5776250958442688,-0.4108615517616272,-1.0385303497314453,-0.25136762857437134,0.5243527889251709,-0.21981537342071533,-0.2146032601594925,0.5503632426261902,-0.7343178391456604,0.15504632890224457,0.22159850597381592,-0.05192157253623009,-0.794417142868042,-1.5400315523147583,0.143181711435318,0.3548732399940491,-0.693293035030365,0.7894959449768066,-0.09834175556898117,-0.24606016278266907,0.9480716586112976,-1.6275732517242432,-0.41551724076271057,-0.29524335265159607,0.5302911400794983,0.9905089735984802,-0.6872289180755615,0.07948755472898483,-0.5454718470573425,0.8635686635971069,0.04149540141224861,0.10282609611749649,-0.28943079710006714,0.051614634692668915,-0.9380590319633484,0.44139087200164795,-0.2569461464881897,0.22858905792236328,-0.7590935230255127,-0.4562075436115265,0.5249417424201965,-0.25690531730651855,0.8272964358329773,0.7570680975914001,-0.8429102897644043]},"inputBias":{"rows":20,"columns":1,"weights":[-0.3660465180873871,0.8432143330574036,0.4537728428840637,-0.36840128898620605,-0.13339874148368835,0.44536781311035156,0.9854618906974792,-0.17243123054504395,0.40001770853996277,0.4565807580947876,-0.08672089129686356,0.3639252781867981,0.24481865763664246,0.18305696547031403,-0.3297865092754364,-0.2914262115955353,0.5468955039978027,1.3543052673339844,-0.085353784263134,-0.2657695710659027]},"forgetMatrix":{"rows":20,"columns":20,"weights":[-0.51221764087677,-0.6417371034622192,-1.0386899709701538,-0.6025840640068054,-0.1547539383172989,0.3352509140968323,1.6270393133163452,-1.2257270812988281,-0.018966179341077805,0.5990330576896667,-0.41159218549728394,0.7076488137245178,-0.2701578140258789,0.7064375877380371,-0.4123646020889282,-0.40009793639183044,0.31967636942863464,-1.7088769674301147,-0.5977630615234375,-0.43178802728652954,-0.7979683876037598,-0.5366060137748718,0.04135613888502121,-0.6553272604942322,-1.114937424659729,0.24657313525676727,0.38600435853004456,-0.4854905903339386,0.3261025547981262,0.7720698714256287,-1.0198895931243896,0.6177735328674316,0.02800942398607731,-0.04731232672929764,0.10893716663122177,-0.29794609546661377,0.881779670715332,-0.6022080779075623,0.9786495566368103,-0.7492870688438416,-0.5058113932609558,-0.32987523078918457,-1.1425915956497192,-0.38981640338897705,0.23509201407432556,0.24957816302776337,0.0688815489411354,-0.30855172872543335,-0.20088180899620056,0.702632486820221,-0.6604233384132385,0.6357157826423645,-0.20610608160495758,0.8011749982833862,0.8671696782112122,-0.4802754819393158,0.6252962350845337,-0.5709383487701416,-1.5350514650344849,-0.5725207328796387,-0.18600042164325714,0.18599474430084229,-0.219911590218544,-0.008030581288039684,0.07544682919979095,0.36225369572639465,1.2503080368041992,-0.8326531648635864,-0.16956856846809387,0.33254504203796387,-0.36213812232017517,-0.1862618327140808,0.11526884883642197,0.03633342683315277,-0.645609438419342,-0.6603321433067322,0.12359128147363663,-0.9464170932769775,-0.26747289299964905,0.16845591366291046,-0.3691760003566742,-0.6252797842025757,0.6500239968299866,-0.008070053532719612,-1.4646233320236206,-0.2974187731742859,0.4130924940109253,-0.5142154693603516,0.3189093768596649,-0.0854187160730362,-0.06230363994836807,0.03229587897658348,0.2942570447921753,-0.428552508354187,0.19453008472919464,0.49472367763519287,0.16837574541568756,-0.5447165966033936,1.0342940092086792,0.020025618374347687,-0.6613917946815491,-0.7841693758964539,-0.6140046119689941,-0.4294375479221344,1.9540681838989258,1.1195834875106812,-0.06081145629286766,-0.45189550518989563,1.238054871559143,0.08614757657051086,-0.04315783455967903,0.1111241951584816,-1.5542985200881958,0.9456861019134521,0.8779552578926086,-1.3870928287506104,0.14957495033740997,-0.5368624925613403,-1.6301040649414062,-0.21490363776683807,-0.36517104506492615,-0.4326512813568115,-0.9215742945671082,-0.13663725554943085,2.18695330619812,0.8120183348655701,0.6051778197288513,-0.6815280914306641,0.5579478144645691,0.16967517137527466,0.055888280272483826,0.08677990734577179,-0.9574542045593262,0.9147748351097107,0.0723148062825203,-1.064530611038208,-0.032658711075782776,-0.8668011426925659,-1.7084367275238037,-0.02866010181605816,-0.30870285630226135,0.24828752875328064,2.260491371154785,0.7209457755088806,-0.17181219160556793,-0.385092169046402,-0.787363588809967,-0.011140248738229275,-0.03153824433684349,-0.5333741903305054,0.3305514454841614,-0.6296605467796326,1.1448580026626587,-1.9318927526474,-0.6385787129402161,0.40095412731170654,-0.34103724360466003,0.14738935232162476,0.9793787002563477,0.42129287123680115,0.15239639580249786,0.20552073419094086,0.498883992433548,-0.049781955778598785,-1.6599106788635254,-1.6700693368911743,-0.41891708970069885,0.15075120329856873,-1.5203557014465332,-0.06525607407093048,-0.14255966246128082,-0.027423936873674393,1.6981347799301147,-1.490953803062439,-0.6454913020133972,1.9436520338058472,0.16224585473537445,0.6031732559204102,1.159848928451538,-0.10348069667816162,-0.11400825530290604,-0.15670600533485413,-0.49857473373413086,-0.04522896930575371,-2.150435447692871,-0.49446380138397217,0.23159076273441315,-0.1813616156578064,-0.21141165494918823,-0.0037413372192531824,-0.11501296609640121,0.22296032309532166,0.5433064699172974,-0.017516210675239563,0.796637237071991,0.5595424175262451,0.044305939227342606,0.04218428581953049,1.1447502374649048,-0.08578811585903168,-0.30365294218063354,-0.32413148880004883,-0.28483834862709045,-0.24695855379104614,-0.25638750195503235,0.6297547817230225,0.37278711795806885,-0.3505499064922333,0.49653422832489014,0.28593388199806213,-0.36820346117019653,0.2638477683067322,-0.46645230054855347,0.4117244780063629,0.2618316113948822,-0.7003731727600098,0.22905129194259644,-0.2750368118286133,-0.1311447024345398,-0.31506067514419556,-0.06939274072647095,0.2692500054836273,0.00765081774443388,-0.08691030740737915,-0.21009981632232666,-0.21845881640911102,-0.312000036239624,0.1048562079668045,-0.3862892985343933,0.07020572572946548,-0.36583471298217773,-0.15773773193359375,0.4122265875339508,-0.22237956523895264,-0.540529191493988,0.0014195694820955396,0.37560343742370605,-0.006883285939693451,-0.5770679116249084,0.034467194229364395,0.022822163999080658,0.32443973422050476,1.0739504098892212,0.21031467616558075,-2.3575360774993896,-1.638818621635437,-0.6153163313865662,0.24808090925216675,-1.1693062782287598,-0.18470336496829987,-0.10177476704120636,0.03541171923279762,2.0047340393066406,-1.753217101097107,-0.7626453638076782,1.853001356124878,0.08119072020053864,0.6715590357780457,1.9972984790802002,-0.18702569603919983,-0.27804553508758545,-0.06350374221801758,0.8395481109619141,-0.21174971759319305,-0.4472675621509552,-0.009822406806051731,0.21996194124221802,-0.08995088934898376,-0.06435632705688477,0.36484238505363464,-0.4594976603984833,0.3282688558101654,0.1937662810087204,-0.6722175478935242,-0.6207561492919922,-0.03472024202346802,0.38065528869628906,0.05372723564505577,0.7932280898094177,-0.3007796108722687,-0.023344818502664566,-0.08331628143787384,-0.7002421617507935,0.005082838237285614,-0.054678499698638916,0.5188490152359009,0.800081729888916,-0.637168824672699,0.37355276942253113,-0.10619928687810898,-0.037065163254737854,0.234495148062706,-0.5473154783248901,0.7331007122993469,0.16541482508182526,-0.8172081708908081,0.021096253767609596,-0.4449335038661957,-0.40127432346343994,-0.1927090436220169,-0.0774516686797142,0.005405413452535868,-0.2136300653219223,0.09945423901081085,-0.09720934927463531,0.488117516040802,0.7674515247344971,-0.5141491889953613,0.40661874413490295,-0.018714996054768562,-0.10116463154554367,-0.027528828009963036,-0.2784792482852936,0.38334575295448303,0.42234769463539124,-0.45472943782806396,-0.15687067806720734,-0.4651716947555542,-0.21556790173053741,0.10752318799495697,-0.40978628396987915,-0.06417296826839447,-0.37463030219078064,-0.18769007921218872,-1.1308364868164062,-0.9115899801254272,1.1413244009017944,-0.5118817090988159,-0.8870295286178589,0.23883412778377533,-0.14763884246349335,0.2486264407634735,1.153186559677124,-0.8562096953392029,-0.8534311652183533,0.8420348167419434,0.34565067291259766,-0.28806743025779724,0.6096775531768799,-0.2641908824443817,0.8680655360221863,1.0662764310836792,0.2578226923942566,0.8282276391983032,0.4275434911251068,-0.635373055934906,-1.216113567352295,1.0249950885772705,-0.46111950278282166,-0.5965108871459961,0.951276957988739,-0.7994354367256165,0.19970573484897614,-0.20297130942344666,-0.3103783428668976,0.6809125542640686,-0.6933600306510925,0.9287832975387573,-0.33393263816833496,0.8763401508331299,0.10078577697277069,-0.08431200683116913,-0.23553581535816193,-0.03959544748067856,0.2828403115272522,0.5774245858192444,0.26184165477752686,-0.04863544553518295,0.7739936709403992,-0.17227642238140106,0.07152102142572403,0.19239823520183563,-0.5928746461868286,0.5725476145744324,1.1927660703659058,-0.42787742614746094,-0.0713190957903862,-0.15705925226211548,-0.39436542987823486,0.08865423500537872,-0.4112228453159332,-0.409657746553421,-1.4421342611312866,-0.24085497856140137,0.31823039054870605,0.6376545429229736,1.1634150743484497,-0.8738425970077515,0.33974146842956543,0.40678730607032776,-0.2165643721818924,0.3797861337661743,-0.6018348336219788,1.0556535720825195,-0.04444368928670883,-0.6739612817764282,0.22870320081710815,-0.9709096550941467,-0.7662253975868225,-0.2604880630970001]},"forgetHidden":{"rows":20,"columns":20,"weights":[-0.1505475640296936,0.20178066194057465,0.40847712755203247,0.013957977294921875,0.7288652062416077,0.12484011799097061,0.27775901556015015,-0.29139477014541626,-1.5701292753219604,0.3059343099594116,0.0059199100360274315,-0.29476770758628845,0.5268324017524719,0.1483602523803711,-0.16516630351543427,0.2716383635997772,-1.485416054725647,0.03763922303915024,-0.18491382896900177,0.20760785043239594,-0.3393407464027405,-0.05629865825176239,0.04825814440846443,0.8181335926055908,-0.7123715877532959,0.24588622152805328,-0.6620705127716064,0.6591488122940063,-0.25894275307655334,-0.1396968811750412,-0.4604436457157135,0.1311396062374115,-0.1911599487066269,-0.08639314770698547,0.6609118580818176,-0.7004421949386597,-0.41147246956825256,-1.1285878419876099,-0.12218044698238373,0.30783477425575256,-0.41959136724472046,-0.44929641485214233,-0.4959808886051178,-0.30177003145217896,-0.5669370293617249,-0.43131157755851746,-0.5753360986709595,-0.5473361015319824,-0.09784706681966782,0.39704328775405884,-1.2037818431854248,0.5145500302314758,-0.035653047263622284,0.3530510663986206,1.3952406644821167,0.4507368206977844,-0.2948589026927948,-0.9240108132362366,-0.3004964590072632,0.3469591736793518,0.4134439527988434,0.10221578180789948,0.615627646446228,0.020524969324469566,1.0052213668823242,-0.1655639410018921,0.22540594637393951,-0.5709046125411987,-0.8702837824821472,0.05506952852010727,0.5293667912483215,-0.7149180769920349,0.5848121643066406,-0.23651975393295288,-0.5609728693962097,-0.1538017839193344,-0.8562667369842529,0.462658166885376,0.7314726114273071,-0.6069539189338684,-0.27715566754341125,-0.6838086843490601,1.2530919313430786,-0.6759280562400818,-0.4934346377849579,0.6375921964645386,0.1572907269001007,-0.22828830778598785,-0.7164554595947266,-1.1578561067581177,0.06486473232507706,-1.4104063510894775,-0.288448691368103,-0.6139307022094727,-0.2276167869567871,1.2139986753463745,-1.8873069286346436,0.11043739318847656,-0.522318422794342,0.8079397082328796,0.3856790065765381,0.022782808169722557,-0.5441007614135742,-0.2843236029148102,-0.2984626293182373,-0.8073492646217346,-1.0468274354934692,-0.15187814831733704,1.4931765794754028,-0.2641434073448181,-0.02701323665678501,0.5417198538780212,-0.44652259349823,-0.0010480876080691814,0.30997607111930847,0.29536172747612,1.6859965324401855,0.10626327991485596,0.6039645075798035,-0.43476223945617676,0.4261266887187958,1.1287952661514282,0.23993422091007233,0.30961140990257263,0.4782175123691559,-1.2315752506256104,-0.2895415723323822,-0.6753973960876465,0.43600162863731384,0.9659715890884399,0.5626509785652161,-0.07867562770843506,-0.26693353056907654,0.8897550106048584,-0.0565512590110302,0.013074377551674843,0.49334830045700073,-0.31300973892211914,0.4457705616950989,-0.5784600377082825,0.8165022134780884,0.014330093748867512,-0.9121285080909729,0.19603222608566284,0.9505778551101685,0.8258179426193237,1.1247286796569824,0.011189613491296768,-0.06343597173690796,0.47942060232162476,-0.9293314218521118,-0.6924538612365723,-0.4756367802619934,-0.4972509443759918,1.7291837930679321,0.21217067539691925,-0.6974708437919617,1.17967689037323,1.0037314891815186,-0.34760504961013794,-0.10524003952741623,0.18561877310276031,-0.29319849610328674,-0.20900210738182068,-0.14142534136772156,-0.9057902097702026,-0.5161991715431213,-0.020060382783412933,-0.13356705009937286,0.11006572842597961,0.09875474125146866,0.20589885115623474,-0.12219984084367752,0.24366408586502075,0.415025919675827,0.5899198055267334,-0.16690760850906372,-1.1153970956802368,-1.0407134294509888,0.21623705327510834,-0.06891423463821411,-0.3565048277378082,-0.2952382564544678,0.44346383213996887,-0.41420379281044006,-0.3415530025959015,0.02409212850034237,-0.6266580820083618,-1.6427218914031982,0.568149983882904,-0.1041942909359932,0.3426256775856018,2.1244149208068848,0.4730280339717865,-0.7686232924461365,-0.10218435525894165,-0.6338525414466858,-0.6038252711296082,-0.2240966111421585,0.1602117270231247,0.6160824298858643,-0.5559030175209045,0.2824394404888153,-0.12262844294309616,0.33690145611763,0.4040316045284271,0.26633936166763306,-0.25917720794677734,-0.34378254413604736,-0.6262000799179077,0.11479467898607254,-0.24329745769500732,0.28887540102005005,-0.7259767651557922,-0.2321012169122696,0.010243079625070095,-0.43140777945518494,0.5205639004707336,0.8649458885192871,-0.5299388766288757,-0.1381673514842987,-0.969800591468811,0.08513768017292023,0.31633761525154114,-0.2765032649040222,0.44086894392967224,0.24527521431446075,-0.3611786961555481,-0.5087348818778992,-0.2851807177066803,-2.026876449584961,0.13736745715141296,-0.8005977869033813,-0.8273656964302063,2.4116430282592773,-0.055143341422080994,-0.7681924104690552,0.05276970937848091,-0.19272521138191223,0.8607348203659058,0.6983977556228638,0.01237226091325283,-0.2387547343969345,-0.5094698667526245,0.8776292204856873,1.001714825630188,0.7310466766357422,-0.38695165514945984,-0.592947781085968,-0.1958877146244049,0.6640647649765015,-0.04560735449194908,0.6797765493392944,-0.06758689880371094,-0.3791060447692871,0.9127589464187622,-0.4466836452484131,-0.3017319440841675,0.566785991191864,-0.5710744261741638,-0.5649797320365906,-0.17285017669200897,0.12208494544029236,0.3256628215312958,-1.8521809577941895,-0.44463178515434265,-0.9294155836105347,0.05452226847410202,1.1436989307403564,-0.7032386064529419,-1.251304268836975,0.1447731852531433,-1.2875293493270874,0.24354247748851776,1.8060903549194336,-0.32658323645591736,-0.9231377840042114,-1.0947116613388062,-0.27885252237319946,0.9350521564483643,0.31940555572509766,-0.4604046940803528,0.332659512758255,-0.4657588601112366,0.6613954901695251,0.06406908482313156,0.07443474978208542,-0.34297969937324524,-0.38754552602767944,-0.32606637477874756,0.6517218947410583,-0.3329945206642151,0.20806634426116943,-0.45129650831222534,0.09850659966468811,0.2866048812866211,-0.4235665500164032,0.6496309638023376,0.4957007169723511,-0.3248310089111328,0.8769180178642273,-0.4739508032798767,0.8726062178611755,-0.39677631855010986,1.5107903480529785,-0.23826336860656738,-0.33110255002975464,-0.44519364833831787,-0.6300888657569885,-0.6488175988197327,0.7333173155784607,-0.6802315711975098,0.4827996790409088,-0.5464267730712891,-0.7992162704467773,0.2879980504512787,-0.7052768468856812,-0.10311774909496307,0.27339932322502136,-1.0288456678390503,-0.5834018588066101,0.03943752497434616,-0.40325039625167847,0.4401535093784332,-0.008780268020927906,-1.6548124551773071,-1.524728775024414,-1.0325578451156616,-0.002379760378971696,0.38939931988716125,-0.6988185048103333,0.5375064015388489,-0.5917429327964783,0.21822090446949005,1.3916932344436646,-0.3619402348995209,-0.06651803851127625,-2.2117080688476562,-0.5899851322174072,0.4326111674308777,-0.5171740651130676,1.0939964056015015,-0.2762005925178528,-0.10070803016424179,0.405349999666214,-0.035875800997018814,0.2187606245279312,0.26488223671913147,1.3059687614440918,0.2759341299533844,-0.016417641192674637,0.4595619738101959,-0.8475373983383179,0.860511839389801,0.0593818835914135,0.18931548297405243,1.4853742122650146,0.0473853163421154,-0.897943913936615,0.24275889992713928,0.6145305037498474,-0.025950800627470016,0.9186103343963623,