{"type":"LSTM","options":{"inputSize":17,"inputRange":17,"hiddenLayers":[20,20],"outputSize":17,"decayRate":0.999,"smoothEps":1e-8,"regc":0.000001,"clipval":5,"maxPredictionLength":100,"dataFormatter":{"indexTable":{"1":4,"2":12,"H":0,"a":1,"l":2,"o":3,"e":5,"y":6,"T":7,"s":8,"c":9,"h":10,"u":11,"B":13,"stop-input":14,"start-output":15,"unrecognized":16},"characterTable":{"0":"H","1":"a","2":"l","3":"o","4":"1","5":"e","6":"y","7":"T","8":"s","9":"c","10":"h","11":"u","12":"2","13":"B","14":null,"15":null,"16":null},"values":[{"input":"Hallo","output":"1"},{"input":"Hey","output":"1"},{"input":"Hallo","output":"1"},{"input":"Tschau","output":"2"},{"input":"Bye","output":"2"},{"input":"Haylo","output":"1"}],"characters":["H","a","l","o","1","e","y","T","s","c","h","u","2","B","stop-input","start-output","unrecognized"],"specialIndexes":[14,15,16]},"activation":"leaky-relu"},"trainOpts":{"iterations":10000,"errorThresh":0.001,"log":true,"logPeriod":5,"learningRate":0.001,"callbackPeriod":100,"timeout":"Infinity","momentum":0.1},"input":{"rows":18,"columns":17,"weights":[-0.2781781852245331,0.690662145614624,0.41083651781082153,0.39047616720199585,0.454542875289917,-0.7723255157470703,-0.8702102899551392,0.010394306853413582,0.7200967073440552,0.17751604318618774,0.5355732440948486,-0.11227049678564072,0.7027782201766968,0.7366206049919128,-0.5287027359008789,0.08721207082271576,0.5484236478805542,-1.2123736143112183,0.677560031414032,-0.09415360540151596,1.304746150970459,-0.6527995467185974,1.156324863433838,-0.16723571717739105,0.6435696482658386,-1.2634385824203491,0.2891775667667389,0.9209035634994507,3.141645669937134,-1.553350567817688,0.31483373045921326,1.0596290826797485,-2.047119140625,-0.5582670569419861,-1.3538600206375122,1.87989342212677,-0.09903889894485474,1.7707642316818237,0.3825381100177765,-3.1807639598846436,-1.284704327583313,0.9839003086090088,0.4997200071811676,0.8892188668251038,-0.3715594708919525,3.702784776687622,0.6580809354782104,0.3459221124649048,-3.0660672187805176,-1.7285789251327515,1.0577788352966309,-0.4831239581108093,0.6854393482208252,-0.03155212104320526,0.41821104288101196,-0.16827969253063202,-0.00899086520075798,-0.17808684706687927,-0.1901635229587555,0.029182875528931618,-0.04630376771092415,0.3566385805606842,0.32146358489990234,0.3844652771949768,0.11917643249034882,-0.4443289637565613,-0.38096359372138977,0.03440256416797638,-1.0772559642791748,-0.9982323050498962,-0.668034017086029,-1.00593900680542,-0.7100725173950195,-1.3490636348724365,0.8608748912811279,0.9325886964797974,1.430648684501648,-0.8692060708999634,-0.8578660488128662,-1.4126334190368652,1.1017799377441406,-0.9013082981109619,0.7645825743675232,0.8685619235038757,-0.6915538907051086,-0.7040207386016846,-0.04213430732488632,-0.26286691427230835,0.06404565274715424,-0.18493375182151794,-0.41306862235069275,0.29738649725914,-0.2757081985473633,0.4320201277732849,-0.26391714811325073,-0.08037742972373962,0.04677721858024597,0.6778421401977539,-0.31248459219932556,-0.746756374835968,-0.14222092926502228,-0.3239624798297882,-1.230441927909851,-1.4705901145935059,-0.6986135244369507,-1.9348076581954956,0.05613120272755623,-2.0956876277923584,1.9452426433563232,1.7010717391967773,1.8354769945144653,-1.0375216007232666,-1.0034700632095337,-1.022844910621643,1.2511625289916992,-1.3539530038833618,-1.165351390838623,0.5933860540390015,-0.391178160905838,-0.23255692422389984,0.8695650696754456,0.07732945680618286,0.09836841374635696,-0.2665988504886627,-0.9440600275993347,-0.48900362849235535,0.7309736013412476,0.6403532028198242,0.13266025483608246,0.11742864549160004,0.37274280190467834,0.30814677476882935,0.04315783455967903,-1.4140455722808838,-0.6626443266868591,0.37356284260749817,-4.207333087921143,1.919446349143982,0.054736800491809845,2.765486717224121,0.8594411611557007,-0.13049554824829102,-1.0094308853149414,-1.633001446723938,0.3365549147129059,0.06649786233901978,-0.4198261499404907,0.02160787768661976,0.8770862221717834,0.4594343602657318,-2.828164577484131,-0.7399489283561707,1.6206164360046387,-0.5244688391685486,1.786657452583313,1.0247209072113037,0.7229329347610474,1.3630986213684082,-1.7008562088012695,-1.3753058910369873,-0.40416836738586426,1.2259750366210938,1.3142378330230713,0.3651513457298279,1.3483848571777344,1.0811213254928589,1.1357074975967407,-1.5606852769851685,-0.0030651181004941463,1.3077164888381958,-0.2855033874511719,1.2301183938980103,0.7126997709274292,1.1903823614120483,-0.15243712067604065,-1.6242172718048096,-0.6501259207725525,-0.4817311763763428,1.2410081624984741,0.35150545835494995,0.14865021407604218,0.7535159587860107,0.7746610045433044,-0.1452147662639618,-3.548665761947632,-1.1699254512786865,0.8547207117080688,1.1667962074279785,1.390370488166809,-1.6468499898910522,0.1313353031873703,-2.405724048614502,0.556845486164093,-1.257286548614502,-0.0798758789896965,-0.09207595884799957,-1.5544880628585815,-0.6727320551872253,-0.09775476902723312,1.6824181079864502,0.26638463139533997,2.7884786128997803,1.3397239446640015,-1.458561897277832,-0.9011452198028564,-2.0299723148345947,-1.541574239730835,-0.6770748496055603,-1.2183773517608643,1.562151551246643,1.7170206308364868,0.91864413022995,-1.4550793170928955,-1.8972105979919434,-1.241722822189331,-0.10733667761087418,-0.8507369756698608,-1.128166913986206,1.8398985862731934,0.8430829644203186,-1.8208781480789185,-0.03249736130237579,-0.4318324029445648,-0.7031145691871643,-0.05321135371923447,-0.6059514880180359,-0.16024693846702576,0.9539061784744263,-0.9460698962211609,0.27448686957359314,-0.6742071509361267,-0.20003607869148254,0.1979585736989975,1.2889994382858276,-0.7190396785736084,-0.4664191007614136,-0.2034144103527069,-0.7362890243530273,-2.6009411811828613,-0.806488037109375,-1.7037197351455688,-1.49152672290802,-1.9313303232192993,-3.6134283542633057,2.3198888301849365,1.7596458196640015,3.626487970352173,-2.4082889556884766,-0.9249904751777649,-3.067509174346924,3.053699016571045,-1.7508126497268677,1.8992679119110107,1.3272665739059448,-1.6776024103164673,-0.3919436037540436,-0.5593311786651611,-0.36557936668395996,-0.4663711488246918,-0.4617537558078766,-0.251013845205307,0.4455811083316803,0.19475559890270233,0.4129321277141571,-0.2957078516483307,-0.47012418508529663,-0.7810692191123962,0.3414328098297119,-0.49832671880722046,0.881277859210968,0.6277932524681091,-0.5305883288383484,0.22062483429908752,0.9353345036506653,-0.23997199535369873,-0.3004196882247925,-0.04091198369860649,-0.48367276787757874,-0.374593049287796,0.5426194667816162,0.682772159576416,0.01020115241408348,0.39981406927108765,0.2325938194990158,0.24890686571598053,0.11840556561946869,-0.7890517115592957,-0.20551717281341553,0.069550521671772,-0.06336602568626404,0.048536982387304306,0.008241617120802402,0.010988783091306686,-0.0041449544951319695,-0.05912454426288605,-0.06675413250923157,0.06252238899469376,-0.056813206523656845,-0.03359368070960045,0.02114293910562992,0.02332506887614727,-0.04097761586308479,-0.029019663110375404,0.047242067754268646,0.06677927076816559,0.0020820586942136288]},"hiddenLayers":[{"inputMatrix":{"rows":20,"columns":17,"weights":[-0.847220242023468,-0.013371401466429234,-0.4672500193119049,-0.1939651370048523,-0.7184668183326721,-0.4730490446090698,0.4695449471473694,0.7795536518096924,0.3732045888900757,-0.29134097695350647,-0.4963856041431427,0.2141040712594986,-0.1363084763288498,-0.517096996307373,0.3052438199520111,-0.010233694687485695,-0.4645797312259674,-0.9631003141403198,0.4301593601703644,0.1475237011909485,0.009404882788658142,0.18301115930080414,-1.1089802980422974,-0.1168382540345192,0.6849398016929626,0.7791762351989746,0.300970196723938,0.10257621854543686,0.2669629454612732,0.3768700063228607,0.08979629725217819,-0.09625735878944397,-0.20472876727581024,0.2981732189655304,-0.08679419755935669,-0.3101505637168884,-0.311402827501297,-0.41518303751945496,-0.38259851932525635,-0.15234416723251343,0.43059998750686646,0.4758506119251251,0.11813502013683319,-0.2945023477077484,-0.3209235668182373,-0.23222926259040833,-0.02412993460893631,-0.4625582993030548,0.3070485293865204,0.3912146985530853,-0.45084935426712036,-0.47075629234313965,0.28421202301979065,-0.04002925753593445,0.07354007661342621,0.07737423479557037,-0.846951961517334,-0.1534682661294937,0.47006353735923767,0.5327734351158142,0.0422983355820179,0.1213301494717598,0.2097902148962021,0.41248640418052673,0.11253858357667923,-0.018193960189819336,-0.09405141323804855,0.11509295552968979,-0.9705215692520142,-0.0727679654955864,-0.1074346974492073,-0.039289020001888275,-0.20437975227832794,-0.9908918738365173,0.004015747457742691,0.67805415391922,0.9513871669769287,-0.026003388687968254,-0.0861738920211792,0.13213008642196655,0.7730783224105835,-0.05663055181503296,-0.03237192705273628,0.0870824083685875,-0.10657837986946106,-0.6879555583000183,0.02564665675163269,-0.5881856679916382,-0.25580185651779175,-0.7325160503387451,-0.608771026134491,0.5249524712562561,0.7334580421447754,0.45634931325912476,-0.27432236075401306,-0.4521638751029968,0.2840707302093506,0.014795597642660141,-0.3959512710571289,0.4955999553203583,-0.042578939348459244,-0.4588519334793091,-0.15883979201316833,0.05515744537115097,-0.06246588006615639,-0.22322911024093628,-0.03172915056347847,-0.4574020802974701,0.1314556896686554,0.519230306148529,0.3621419370174408,-0.14179159700870514,-0.13604792952537537,0.07814667373895645,0.3171480894088745,-0.11311783641576767,0.10669757425785065,-0.0036299927160143852,0.00874121580272913,-0.698466420173645,-0.12318751215934753,-0.6655392050743103,-0.3620751202106476,-0.7685842514038086,-0.622002899646759,0.538421630859375,1.0272666215896606,0.4581206738948822,-0.41378921270370483,-0.5204508900642395,0.006135975942015648,0.027805296704173088,-0.6257966756820679,0.30712029337882996,-0.022084666416049004,-0.4951092302799225,-0.6356950998306274,-0.20096264779567719,-0.5245193839073181,-0.29491743445396423,-0.5668241381645203,-0.3548222482204437,0.4671729505062103,0.7886731028556824,0.21052074432373047,-0.3236597180366516,-0.5026577711105347,0.3173201084136963,-0.1165955513715744,-0.5290119051933289,0.5534258484840393,0.043948009610176086,-0.5142613053321838,-0.712154746055603,0.3592780828475952,0.25240224599838257,0.05194563791155815,0.41561949253082275,-1.4600389003753662,-0.18765826523303986,0.3115323781967163,0.9411256909370422,0.2857458293437958,0.44170787930488586,0.04427076876163483,0.6518780589103699,0.14557313919067383,-1.140479326248169,-0.4504314064979553,0.6327807903289795,-0.13830634951591492,-0.06933519244194031,-0.44286078214645386,-0.23699238896369934,-0.46204426884651184,-0.43208879232406616,0.46228188276290894,0.519863486289978,0.07641289383172989,-0.3597802519798279,-0.34879153966903687,0.041532088071107864,-0.10679322481155396,-0.5037485957145691,0.08285239338874817,0.11972066760063171,-0.5321711301803589,-0.5758354067802429,-0.07900595664978027,-0.6734761595726013,-0.29836490750312805,-0.6099164485931396,-0.6195785403251648,0.4322928190231323,1.028360366821289,0.26340168714523315,-0.5242767930030823,-0.45960700511932373,0.30417415499687195,-0.04069596156477928,-0.36778855323791504,0.2149740755558014,-0.00012270061415620148,-0.4175291955471039,-0.8477782011032104,0.10269123315811157,-0.35181325674057007,-0.5152425765991211,-0.37812379002571106,-0.608927845954895,0.31604307889938354,1.0245100259780884,0.6292294859886169,-0.366201788187027,-0.1279972642660141,0.44454893469810486,0.25786086916923523,-0.2813771367073059,0.16824454069137573,-0.05760335922241211,-0.42328524589538574,-0.1480182558298111,0.2667206823825836,-0.16606810688972473,-0.03134988620877266,-0.3006879389286041,-0.47025319933891296,0.019396638497710228,0.17409515380859375,0.5880519151687622,-0.22496263682842255,-0.018284650519490242,-0.419377863407135,0.39610791206359863,-0.041639216244220734,0.06451795995235443,0.3137577474117279,-0.10367754846811295,-0.6588470935821533,0.5925165414810181,0.21229860186576843,0.3071226477622986,0.24134936928749084,-0.8147817850112915,-0.38435766100883484,0.2573602795600891,0.668734610080719,0.2722802460193634,0.24370074272155762,0.38595452904701233,0.6451438665390015,0.3316003382205963,-0.09753263741731644,-0.07768448442220688,0.2681761085987091,-0.7799476385116577,0.14075252413749695,-0.5536789298057556,-0.23347337543964386,-0.7195303440093994,-0.5686867833137512,0.5095247626304626,0.7696642279624939,0.40493157505989075,-0.2629908323287964,-0.46484753489494324,0.20112138986587524,0.007491129916161299,-0.543157696723938,0.2501838505268097,-0.12302596122026443,-0.4365677833557129,-1.5089071989059448,0.3521077334880829,-0.16254526376724243,0.09212993085384369,-0.2693333029747009,-1.2241345643997192,-0.15119116008281708,0.8869653344154358,1.1653711795806885,-0.11604880541563034,0.11458487808704376,0.04404129460453987,1.0144480466842651,0.07740411907434464,0.29468849301338196,-0.10865312814712524,-0.028880251571536064,-0.8861960172653198,0.5362788438796997,-0.06354622542858124,0.0512627512216568,-0.20396138727664948,-0.9289750456809998,-0.11257300525903702,0.8510939478874207,0.7616372108459473,0.02235366590321064,-0.036917105317115784,0.18267521262168884,0.45041534304618835,0.1377638876438141,0.06930377334356308,-0.15802741050720215,0.08809395879507065,-0.914014995098114,0.4782816469669342,0.17436665296554565,0.041158776730298996,0.3048178553581238,-1.3123667240142822,-0.10107501596212387,0.6837195754051208,0.8520958423614502,0.37153521180152893,0.33390742540359497,0.3008876442909241,0.19215621054172516,0.11187617480754852,-0.2996237576007843,-0.3562467098236084,0.45259252190589905,-0.7980544567108154,0.09808468818664551,0.14926958084106445,0.09108120203018188,0.0468796081840992,-0.9247623085975647,-0.26865410804748535,0.3592623174190521,0.73941570520401,0.08880343288183212,0.162095308303833,0.07756136357784271,0.7953221797943115,0.1359531581401825,-0.022344570606946945,-0.034855253994464874,0.08359833061695099]},"inputHidden":{"rows":20,"columns":20,"weights":[-0.36505573987960815,0.26894330978393555,0.4740900695323944,0.6467868089675903,0.050814516842365265,0.2857944071292877,-0.5755061507225037,-0.16625908017158508,0.4369690418243408,-0.6734780669212341,0.5798951387405396,0.12632158398628235,-0.5010430812835693,-0.47864294052124023,0.10815092921257019,0.32308274507522583,-0.03625877946615219,0.00450538843870163,-0.644611120223999,0.029658112674951553,-0.23449045419692993,-0.14282771944999695,0.608470618724823,0.02371910959482193,-0.17563870549201965,0.08505299687385559,0.09361936897039413,0.09965639561414719,0.20957116782665253,-0.3208417594432831,0.48100611567497253,0.14912787079811096,-0.32245033979415894,-0.46154868602752686,-0.11171776801347733,0.07241667807102203,0.24506418406963348,-0.04626806080341339,-0.16356845200061798,-0.279946506023407,-0.27161309123039246,-0.23795489966869354,0.2649877369403839,-0.014144567772746086,0.2702102065086365,0.30032801628112793,-0.03676111623644829,-0.241265669465065,0.271722674369812,0.004126579966396093,0.2926861047744751,0.13015012443065643,-0.4670332074165344,-0.29119470715522766,0.4290943741798401,0.2477302849292755,-0.22309981286525726,-0.29702702164649963,0.11559456586837769,0.3013269901275635,-0.7073453664779663,0.5601035356521606,1.0160714387893677,0.41870251297950745,0.13539977371692657,0.38172537088394165,-0.30223438143730164,-0.2669629454612732,0.5934107899665833,-0.4014703333377838,0.8294304609298706,0.5520688891410828,-0.5695289373397827,-0.38729602098464966,-0.05105815827846527,0.5373859405517578,-0.16700898110866547,0.43548473715782166,-0.5614340901374817,0.053561482578516006,-0.4728427529335022,0.5315867066383362,0.47709453105926514,0.9418501853942871,-0.32061299681663513,-0.009781647473573685,-0.9667888879776001,-0.3829111158847809,0.20756812393665314,-0.7937304377555847,0.5198864936828613,-0.5795480608940125,-0.26222965121269226,-0.017696382477879524,0.07450548559427261,0.30995142459869385,-0.2970273792743683,0.11156703531742096,-0.9647515416145325,-0.5093175768852234,-0.5686590075492859,0.21456381678581238,0.5198169946670532,0.5073785781860352,0.07723233848810196,0.33587825298309326,-0.5513453483581543,0.011221390217542648,0.3675555884838104,-0.519517719745636,0.521960973739624,-0.186144158244133,-0.4311410188674927,-0.2493438720703125,0.2091982364654541,0.48972705006599426,-0.1745772808790207,-0.09341778606176376,-0.47749063372612,0.02483145147562027,-0.4837445914745331,0.416052907705307,0.7915533781051636,0.7029989361763,0.10749118030071259,0.3906376361846924,-0.6959741115570068,-0.432176411151886,0.5606751441955566,-0.4538913667201996,0.7483649253845215,0.3561874330043793,-0.49608105421066284,-0.30278053879737854,-0.04799005389213562,0.4397500455379486,-0.07931729406118393,0.27420562505722046,-0.40902966260910034,-0.07353245466947556,-0.3593662679195404,0.2943871021270752,0.5457349419593811,0.6832460165023804,0.13477426767349243,0.3643444776535034,-0.7630268335342407,-0.2245989292860031,0.3883644640445709,-0.8885001540184021,0.5718374848365784,0.13573025166988373,-0.45585817098617554,0.24319739639759064,0.04449514299631119,0.3310040533542633,-0.24057994782924652,0.13591960072517395,-0.6856707334518433,0.05178187042474747,-0.4623219668865204,0.150551900267601,0.5433751344680786,0.44008374214172363,0.09084443002939224,0.24434585869312286,-0.4898914694786072,0.005949439946562052,0.409371554851532,-0.5445299744606018,0.6753057241439819,0.07095523178577423,-0.551336407661438,-0.5458178520202637,0.20590899884700775,0.3639519512653351,-0.09008925408124924,-0.07177019864320755,-0.4236796498298645,0.005078540183603764,-0.18608252704143524,0.25085902214050293,0.5161144137382507,-0.10626725107431412,-0.003067153040319681,0.052874431014060974,0.12824426591396332,0.026915419846773148,0.18503078818321228,0.4545111358165741,0.5256665945053101,0.05523402616381645,-0.640483021736145,-0.5378202199935913,0.0012225648388266563,0.16509222984313965,-0.026584848761558533,0.5270368456840515,0.3216201663017273,-0.03796654939651489,-0.4450165629386902,-0.229221373796463,0.3610472083091736,0.13948698341846466,0.4556901454925537,0.33921366930007935,-0.21260705590248108,-0.3525632619857788,0.43946120142936707,-0.14713196456432343,0.415919691324234,0.32002726197242737,-0.5177620649337769,-0.32151463627815247,0.3856191337108612,0.3588753640651703,-0.34570181369781494,-0.31932705640792847,-0.10100754350423813,0.45583418011665344,0.10254092514514923,0.2822425365447998,-0.12181360274553299,0.47226691246032715,-0.22475293278694153,-0.22712431848049164,-0.8575536608695984,0.548409104347229,-0.16711078584194183,-0.9450734257698059,-0.18104669451713562,-0.8473817110061646,0.09513362497091293,0.24494339525699615,-0.20196495950222015,-0.16147421300411224,0.07839897274971008,-0.010142892599105835,-0.6477196216583252,-0.25672680139541626,-0.44939985871315,0.550559401512146,0.4527718424797058,0.46203386783599854,0.1937987357378006,0.3028119206428528,-0.4334234595298767,-0.27238982915878296,0.3447374105453491,-0.5772711634635925,0.5918136835098267,0.2771714925765991,-0.47057047486305237,-0.25017237663269043,0.1797996610403061,0.2781859040260315,0.09644253551959991,0.37402722239494324,-0.5580600500106812,-0.07768832892179489,-0.48043009638786316,-0.9387564659118652,0.11117492616176605,-0.45953571796417236,0.583290696144104,0.5471606254577637,0.20560523867607117,-0.45794886350631714,0.48603883385658264,0.4589748680591583,0.4648931324481964,0.5723796486854553,-0.5736517310142517,-0.04670281708240509,0.7808886170387268,0.5509564280509949,-0.623056948184967,-1.0310697555541992,0.5366621017456055,0.7482119798660278,-0.6471936106681824,0.4912714958190918,0.7695171236991882,0.5889458060264587,0.0682399794459343,0.3255540430545807,-0.5914628505706787,-0.18409261107444763,0.5570205450057983,-0.7579526305198669,0.6664977073669434,0.22199197113513947,-0.4385205805301666,-0.4830551743507385,0.19662275910377502,0.5406140089035034,0.07942213118076324,0.14764250814914703,-0.7042213082313538,-0.0815119743347168,-0.4231923818588257,0.37617895007133484,0.5012714266777039,0.684661328792572,0.08376838266849518,0.1832038313150406,-0.6110285520553589,0.014380021952092648,0.3143196702003479,-0.5876255631446838,0.5940300822257996,-0.048052120953798294,-0.5425105690956116,-0.40292757749557495,-0.012688709422945976,0.2503710389137268,-0.1454135924577713,0.047715600579977036,-0.6289307475090027,-0.030001483857631683,-0.7705212831497192,0.4781952202320099,0.8388983011245728,0.7115936875343323,0.21037879586219788,0.49678707122802734,-0.7061265707015991,-0.06981135904788971,0.635998547077179,-0.7355913519859314,0.7833070755004883,0.06347732245922089,-0.5068858861923218,-0.32954490184783936,0.09936747699975967,0.6528177857398987,-0.4164104163646698,0.17268453538417816,-0.6176945567131042,-0.05043894052505493,-0.40404701232910156,0.05463618412613869,0.6270941495895386,0.4082905054092407,-0.07097733020782471,0.15256579220294952,-0.3090060353279114,-0.09546342492103577,0.3124525547027588,-0.48726052045822144,0.6582582592964172,0.2303694188594818,-0.5560683608055115,-0.5403239130973816,-0.05858739838004112,0.3161262273788452,0.19972041249275208,-0.161763995885849,-0.4434761106967926,-0.07839248329401016,-0.3475988209247589,0.40285900235176086,0.6725692749023438,-0.014955875463783741,-0.19510656595230103,0.06493940949440002,-0.04301512613892555,0.007963317446410656,0.3777230978012085,0.11217328906059265,0.6042155027389526,0.14758680760860443,-0.5459848642349243,-0.22311478853225708,-0.23097291588783264,0.2484285682439804,0.15683822333812714,0.9987292289733887,0.07456089556217194,-0.22562670707702637,-0.4993368685245514,0.37324532866477966,0.46706175804138184,0.8136578798294067,-0.37674036622047424,-0.16310608386993408,-0.7803391218185425,-0.4318457841873169,0.18105542659759521,-0.6867384910583496,0.4426657259464264,-0.36570635437965393,-0.351211279630661,0.1298699975013733,0.015103789046406746,0.1432870775461197,-0.14384599030017853,-0.03708122298121452,-0.8706215620040894,-0.39621320366859436]},"inputBias":{"rows":20,"columns":1,"weights":[-0.5270785689353943,0.7248531579971313,-0.08871887624263763,0.8191420435905457,0.06027146056294441,-0.4571067690849304,0.8726609945297241,-0.45733481645584106,-0.24517802894115448,1.3777235746383667,-0.23468206822872162,-0.35307735204696655,-0.520720362663269,0.3466207981109619,0.06663265079259872,-0.5099360942840576,0.30264419317245483,0.4411773979663849,0.9540055394172668,0.4898376762866974]},"forgetMatrix":{"rows":20,"columns":17,"weights":[-0.20986159145832062,-0.05055617168545723,-0.14677469432353973,-0.3741922676563263,-0.1520863175392151,-0.598293125629425,0.11769675463438034,0.3643028140068054,0.47904863953590393,-0.1395239681005478,-0.18491175770759583,-0.3376719057559967,0.36331769824028015,-0.14321167767047882,-0.0174022875726223,0.1587979793548584,-0.09369464218616486,-0.7844994068145752,-1.1649169921875,-0.2663520276546478,-0.4512381851673126,-0.13904929161071777,-0.13876566290855408,0.4536266624927521,-0.3309744596481323,0.3977391719818115,-0.8832715749740601,-0.8615496158599854,-1.559007167816162,0.8513511419296265,-0.5608325004577637,0.3581535816192627,0.8516889214515686,-0.4024779498577118,-0.009645165875554085,-0.17718857526779175,-0.009880070574581623,-0.2541712820529938,-0.08330054581165314,-0.21933495998382568,0.3132861256599426,0.32551977038383484,0.19356092810630798,-0.07720694690942764,-0.17952027916908264,-0.3518197238445282,-0.06574904918670654,-0.05270960554480553,0.4551597833633423,0.3295257091522217,-0.17750351130962372,-1.6214590072631836,-0.4390871226787567,-0.7037136554718018,-0.3301492929458618,-0.8105106353759766,-1.2213929891586304,0.38754409551620483,0.7616596817970276,1.024273157119751,-0.5377553701400757,-0.6348182559013367,-0.4553245007991791,0.6814339756965637,-0.540502667427063,0.5879026055335999,0.32734647393226624,-0.5886052250862122,-0.11410151422023773,-0.24340088665485382,-0.08989321440458298,-0.18685844540596008,-0.15096378326416016,-0.29890161752700806,0.14598079025745392,0.31706702709198,0.108639657497406,-0.08922841399908066,-0.22142672538757324,-0.19883856177330017,0.04174186289310455,-0.13694779574871063,0.03151830658316612,0.2317916303873062,-0.10185734182596207,-0.1822078824043274,-0.04860859364271164,-0.11648572236299515,-0.20729053020477295,-0.10734601318836212,-0.3815625011920929,0.25390625,0.29215818643569946,0.2085614949464798,-0.14419713616371155,-0.1673162430524826,-0.2558031380176544,0.08309026062488556,-0.1453479826450348,0.24704694747924805,0.22489230334758759,-0.15515069663524628,-1.2162901163101196,-0.509036660194397,-0.5967744588851929,-0.6679369211196899,-0.8963797092437744,-1.2804310321807861,0.633155107498169,1.0735546350479126,0.8862175345420837,-0.5144555568695068,-0.8701285123825073,-0.6115174293518066,0.8307350873947144,-0.6595216989517212,0.5397929549217224,0.597922146320343,-0.6875665783882141,-0.1133238673210144,-0.2015341818332672,-0.10409312695264816,-0.2744739055633545,-0.153425931930542,-0.220247283577919,0.1786535680294037,0.2995542585849762,0.21250684559345245,-0.3021896779537201,-0.23415502905845642,-0.3439694046974182,0.14447316527366638,-0.1679961383342743,0.3122904300689697,0.303490549325943,-0.23971834778785706,-0.2039601057767868,-0.07332531362771988,-0.1344917118549347,-0.2758597135543823,-0.13246436417102814,-0.43159839510917664,0.11481276899576187,0.42074915766716003,0.32913604378700256,-0.18837201595306396,-0.2220408022403717,-0.2237127423286438,0.17183543741703033,-0.19677786529064178,0.08037670701742172,0.2790645956993103,-0.19400650262832642,0.35625576972961426,0.6422804594039917,0.1522863656282425,0.4432385563850403,-0.024366222321987152,-0.04073093831539154,-1.2020092010498047,-0.07671099901199341,-0.14880838990211487,0.34388962388038635,0.03296943008899689,0.28173837065696716,-0.12878265976905823,0.5546861886978149,0.46578168869018555,0.4242115318775177,0.2635989189147949,-0.020274365320801735,-0.10030584782361984,-0.09585489332675934,-0.3550677001476288,-0.10101285576820374,-0.13634933531284332,0.23414936661720276,0.320282518863678,0.18578729033470154,-0.229766845703125,-0.1700015813112259,-0.18352952599525452,0.0059370924718678,-0.15751142799854279,0.3851184546947479,0.2720499634742737,-0.21653437614440918,-0.023792216554284096,-0.217563658952713,0.08863475918769836,-0.4502939283847809,0.08083579689264297,-0.24925382435321808,0.3148864507675171,0.39109382033348083,0.3809380531311035,-0.10010100156068802,-0.12233523279428482,-0.573133111000061,0.08260870724916458,-0.18427394330501556,0.1989523470401764,0.22237056493759155,-0.1137838363647461,-0.18068183958530426,-0.23000884056091309,-0.06661582738161087,-0.2905319631099701,-0.10679492354393005,-0.09020911902189255,0.03632020577788353,0.29303884506225586,-0.02927781268954277,-0.14544077217578888,-0.21548449993133545,-0.1484028846025467,0.02102895826101303,-0.18764793872833252,0.25080981850624084,0.1850641667842865,-0.08363912254571915,0.09228154271841049,-0.3123207688331604,-0.05189068242907524,-0.1410311609506607,0.0017297712620347738,0.14526420831680298,0.20010215044021606,0.09187974035739899,0.10742989927530289,-0.20118243992328644,-0.12825600802898407,-0.40903034806251526,0.010454702191054821,-0.17520757019519806,0.6733863353729248,0.4307524859905243,-0.15319032967090607,-0.06290966272354126,-0.5668110251426697,-0.16530293226242065,-0.26002955436706543,-0.07161279022693634,-0.010002859868109226,0.159821555018425,0.12581732869148254,0.10668665170669556,-0.18014974892139435,-0.17755413055419922,-0.5283970236778259,-0.0003807939647231251,-0.1766531765460968,0.3704378604888916,0.28658995032310486,-0.27845412492752075,-0.38499489426612854,-0.09421462565660477,-0.1638386994600296,-0.34225383400917053,-0.08514538407325745,-0.4556537866592407,0.22449597716331482,0.43975549936294556,0.4073483347892761,-0.20326387882232666,-0.15397004783153534,-0.3643450140953064,0.27677014470100403,-0.15325389802455902,0.0224019642919302,0.11804315447807312,-0.15502604842185974,-0.2625933885574341,-0.7755730748176575,-0.1463644951581955,-0.19954420626163483,-0.29614943265914917,0.1867339164018631,0.4382035732269287,0.035535044968128204,-0.21044498682022095,-0.4695627987384796,-0.4381433427333832,-0.4785451889038086,0.18845011293888092,-0.38555410504341125,0.425185889005661,0.2490030974149704,-0.3281933665275574,-1.108632206916809,-1.019907832145691,-0.262511670589447,-0.2541619539260864,-0.14049382507801056,0.1587093621492386,0.5455427169799805,-0.41756442189216614,0.10904870182275772,-0.8339986205101013,-0.7749807834625244,-1.190041184425354,0.6414875388145447,-0.43778687715530396,0.43862149119377136,0.7140467762947083,-0.28679829835891724,-1.3457450866699219,-0.3198744058609009,-0.5771841406822205,-0.25161588191986084,-0.6823385953903198,-0.8183680772781372,0.25824302434921265,0.3994404673576355,0.982150137424469,-0.5898765325546265,-0.7179275751113892,-0.9449991583824158,0.82867431640625,-0.49094176292419434,0.8564803600311279,0.4131796360015869,-0.4360498785972595,0.11567351967096329,-0.23218369483947754,0.06581346690654755,-0.12181267142295837,0.2547779083251953,0.08423726260662079,-0.06236838176846504,0.013957569375634193,-0.07645456492900848,0.22589647769927979,-0.025958335027098656,-0.047997307032346725,-0.12976069748401642,0.0008615002734586596,-0.14950212836265564,0.07405015081167221,0.07134220749139786]},"forgetHidden":{"rows":20,"columns":20,"weights":[-0.4500574469566345,-0.08979135751724243,0.3495911657810211,-0.0447506457567215,0.29267099499702454,0.43447980284690857,0.11152403056621552,-0.2950208783149719,0.35966426134109497,0.15039941668510437,0.346504271030426,0.4269719421863556,-0.3955748975276947,-0.2542141377925873,0.3718550205230713,0.4231683313846588,-0.2738252282142639,-0.24725450575351715,0.03772502765059471,0.30082425475120544,-0.11459217965602875,-0.055905867367982864,0.1037353053689003,-0.14473018050193787,0.2277829796075821,0.22498568892478943,-0.05641225725412369,-0.24651174247264862,0.24218711256980896,-0.3502402603626251,0.27265453338623047,0.06718572974205017,-0.2195652723312378,0.8688045144081116,0.2672138214111328,0.1983305662870407,-0.17767709493637085,-0.3336355984210968,0.056707095354795456,0.4308204650878906,-0.2129816859960556,-0.37721338868141174,0.18250352144241333,-0.3639025390148163,0.34471940994262695,0.32294178009033203,0.19920110702514648,-0.23890502750873566,0.2601492702960968,0.2606052756309509,0.2670806646347046,0.2720183730125427,-0.2515086233615875,-0.09723110496997833,0.4166527986526489,0.3469845950603485,-0.3768543601036072,-0.43563368916511536,0.3415084779262543,0.30609360337257385,-0.12369335442781448,0.3465874195098877,0.21779295802116394,0.8139798641204834,0.02058466710150242,0.2411692589521408,-0.7955611944198608,-0.14769425988197327,0.2234889566898346,-0.514401376247406,0.1843617707490921,0.2268058955669403,-0.16154885292053223,0.46831372380256653,-0.1031084880232811,0.22351990640163422,0.10635481774806976,0.27217552065849304,-0.6642997860908508,-0.010612327605485916,-0.350104421377182,-0.36874404549598694,0.19234780967235565,-0.12344074249267578,0.4662627875804901,0.4649488031864166,0.1259842962026596,-0.35555538535118103,0.5330018401145935,0.4211985468864441,0.34153619408607483,0.5687784552574158,-0.39020904898643494,-0.18492214381694794,0.5008851885795593,0.49410778284072876,-0.38020092248916626,-0.34146490693092346,0.24910330772399902,0.5431143641471863,-0.34981080889701843,-0.23881594836711884,0.21534986793994904,-0.02080271951854229,0.3611971139907837,0.463673859834671,0.01658458635210991,-0.3911445438861847,0.5518360137939453,0.08763180673122406,0.31653323769569397,0.5669411420822144,-0.31472817063331604,-0.18371792137622833,0.4375339448451996,0.45152682065963745,-0.34896448254585266,-0.3691188395023346,0.10738542675971985,0.3924406170845032,-0.10790478438138962,0.3743898272514343,0.02448565512895584,0.9745108485221863,-0.0739898756146431,-0.050483230501413345,-0.7369629740715027,0.02458587847650051,0.07526182383298874,-0.37826552987098694,-0.06008802726864815,0.27602359652519226,0.04878094419836998,-0.33778175711631775,-0.17974399030208588,0.025942472741007805,0.21133621037006378,0.41768935322761536,-0.5563516020774841,-0.15884611010551453,0.114959716796875,0.2834985852241516,-0.13043616712093353,0.04416980221867561,-0.16550244390964508,-0.18115411698818207,0.18225719034671783,-0.051436372101306915,-0.0806087851524353,-0.12725429236888885,-0.19888481497764587,-0.019251016899943352,0.36866295337677,-0.37052422761917114,-0.08614176511764526,-0.16746921837329865,0.12790502607822418,0.1280091404914856,-0.20387621223926544,-0.23702041804790497,-0.24265523254871368,-0.1949765980243683,0.26429668068885803,0.0537414513528347,0.4485333561897278,0.478999525308609,-0.04350557178258896,-0.38702312111854553,0.38908296823501587,0.11339011043310165,0.3460606336593628,0.48012101650238037,-0.27863946557044983,-0.27394425868988037,0.2725396454334259,0.4293510615825653,-0.2507431209087372,-0.19409899413585663,0.06433092802762985,0.3104611933231354,0.2640584707260132,0.09546689689159393,-0.8453308939933777,0.40969619154930115,-0.07965993136167526,-0.1356741338968277,-0.23248063027858734,-0.2745174169540405,-0.09810982644557953,-0.3273349106311798,-0.854345440864563,0.2583838701248169,0.8595162630081177,0.8078368902206421,-0.2939106523990631,-0.11229094862937927,0.2555408775806427,0.1726509928703308,-0.6079685688018799,-0.22432449460029602,-0.32446199655532837,-0.2107665240764618,0.28706979751586914,-0.10488642752170563,0.33634689450263977,0.43517276644706726,0.09111372381448746,-0.2978450059890747,0.42574071884155273,0.21073323488235474,0.30803319811820984,0.27953073382377625,-0.3395318388938904,-0.23050616681575775,0.43035900592803955,0.3109336495399475,-0.4626522660255432,-0.2842053174972534,0.17693480849266052,0.4214383065700531,-0.2858825623989105,-0.19920708239078522,0.4429508447647095,-0.3882559537887573,0.10498347133398056,0.13777519762516022,0.48191002011299133,-0.05749717727303505,0.2967483103275299,0.41573116183280945,0.4150203764438629,0.15315620601177216,-0.22523222863674164,-0.46617311239242554,0.16642305254936218,0.22485044598579407,-0.09148549288511276,-0.36035528779029846,0.24408380687236786,0.1789977103471756,-0.29588812589645386,-0.23459962010383606,0.12863567471504211,-0.21789014339447021,0.378196120262146,0.5051166415214539,0.18488717079162598,-0.2914881408214569,0.38268670439720154,0.36411553621292114,0.1345817595720291,0.5046678185462952,-0.21233277022838593,-0.1822725534439087,0.36076512932777405,0.3904481530189514,-0.37148821353912354,-0.2745680809020996,0.3837069869041443,0.4754071533679962,0.4634837806224823,-0.12348967790603638,-0.3103009760379791,-0.13989226520061493,-0.33816275000572205,-0.39386284351348877,0.21073994040489197,0.4028850197792053,-0.3188585937023163,0.15118353068828583,-0.4139391779899597,-0.37899789214134216,0.3034036159515381,-0.5600508451461792,-0.14784863591194153,-0.2721255421638489,0.16091646254062653,-0.08381626754999161,0.27329862117767334,-0.25422680377960205,-0.265083909034729,-0.3607390820980072,0.15455324947834015,-0.09340255707502365,0.44980481266975403,0.4882937967777252,0.16874302923679352,-0.40328481793403625,0.49909013509750366,0.17922545969486237,0.06758735328912735,0.6646091938018799,-0.07161065191030502,-0.05216681957244873,0.4599679410457611,0.3708728849887848,-0.3567613363265991,-0.4365024268627167,0.10188665241003036,0.5904112458229065,-0.34466052055358887,-0.17298579216003418,0.39252522587776184,-0.10111237317323685,0.25779515504837036,0.4042966961860657,0.01596856489777565,-0.23811863362789154,0.3504033386707306,0.1266358643770218,0.40605804324150085,0.38012632727622986,-0.3115445375442505,-0.2841757535934448,0.29352545738220215,0.43249842524528503,-0.2673982083797455,-0.23387785255908966,0.11533315479755402,0.3433822691440582,-0.009815766476094723,-0.3339117169380188,-0.18248003721237183,-0.28093764185905457,0.8737822771072388,0.6304271221160889,0.06884705275297165,-0.4539724290370941,0.4028417766094208,0.4779146611690521,-0.03237270936369896,1.092103123664856,-0.04355260729789734,0.001036544214002788,0.32320329546928406,0.338594526052475,-0.38822996616363525,-0.23898136615753174,0.256727933883667,0.893539547920227,-0.21630802750587463,-0.09881950169801712,0.11962815374135971,-0.03358167037367821,0.3933625817298889,0.4360009431838989,-0.11859435588121414,-0.353210985660553,0.3872986137866974,-0.017659030854701996,0.27355799078941345,0.3274206519126892,-0.2246210128068924,0.5023239254951477,0.4445055425167084,0.3908669650554657,-0.32825779914855957,-0.17540284991264343,0.11691103875637054,0.47083473205566406,0.30963796377182007,0.41519516706466675,-0.39136314392089844,0.3941819369792938,-0.3450395166873932,-0.27995845675468445,-0.22537311911582947,0.09956099838018417,-0.28433898091316223,-0.9430345892906189,-0.34774109721183777,-0.11850669234991074,0.3859957754611969,0.6605632901191711,-0.557046115398407,-0.2929910123348236,0.4762699604034424,0.21790198981761932,-0.6047684550285339,-0.4886775612831116,-0.27407389879226685,-0.4565994143486023,0.08690731972455978,-0.1952643245458603,0.39756128191947937,0.36715781688690186,0.20394466817378998,-0.3762800097465515,0.3719196021556854,0.2875892221927643,0.10322590172290802,0.6861916780471802,-0.27045750617980957,-0.06785917282104492,0.4948538839817047,0.2700578272342682,-0.3653245270252228,-0.3947351574897766,0.0927869975566864,0.4302785098552704]},"forgetBias":{"rows":20,"columns":1,"weights":[0,0,0,0,0,0,0,0,0,0,0,0,0,0,0,0,0,0,0,0]},"outputMatrix":{"rows":20,"columns":17,"weights":[-0.9920411109924316,0.17096155881881714,-0.4832006096839905,-0.20442549884319305,-0.6495518684387207,-0.6315839290618896,0.5032231211662292,0.8671355247497559,0.4682687520980835,-0.36515218019485474,-0.5060437321662903,0.33214613795280457,-0.03520236909389496,-0.4908800423145294,0.35988306999206543,-0.07192935049533844,-0.4619290828704834,-0.8088675141334534,0.5340384244918823,-0.00919603742659092,0.09998881816864014,-0.032158005982637405,-0.9905009865760803,-0.21668802201747894,0.46665599942207336,0.8458903431892395,0.1432771235704422,0.051208969205617905,0.27479884028434753,0.6309097409248352,0.15655045211315155,-0.05642945319414139,-0.12478375434875488,0.17577002942562103,-0.09577306360006332,-0.3762091398239136,-0.38070064783096313,-0.4913976788520813,-0.3352295756340027,-0.16277705132961273,0.5262665152549744,0.3419588804244995,0.15939010679721832,-0.34796902537345886,-0.30552008748054504,-0.3158217966556549,-0.08175478875637054,-0.3706967830657959,0.45846331119537354,0.3512652516365051,-0.5192137360572815,-0.5800228118896484,0.498644083738327,0.10208982974290848,0.2910592555999756,0.07035087049007416,-1.0059410333633423,-0.22373338043689728,0.22932641208171844,0.7262739539146423,0.3132224678993225,0.1983225792646408,0.3660971522331238,0.4654044508934021,0.2715412378311157,0.0010582710383459926,-0.24580572545528412,0.2967185378074646,-1.1925748586654663,0.1595790535211563,-0.14500512182712555,0.033874351531267166,-0.26705947518348694,-1.096454381942749,-0.13969650864601135,0.9938904047012329,1.1007442474365234,-0.07288090139627457,-0.05001195892691612,0.343318372964859,0.7837548851966858,-0.020403213798999786,0.020865583792328835,0.0009500262676738203,-0.1106036901473999,-0.7323787808418274,0.08800450712442398,-0.48915228247642517,-0.07129538804292679,-0.7428572773933411,-0.7092350721359253,0.48812413215637207,0.7863813042640686,0.4921163320541382,-0.2422308474779129,-0.34014686942100525,0.407268762588501,-0.09513868391513824,-0.5050981044769287,0.3995513319969177,-0.05296904966235161,-0.4277208745479584,-0.520308792591095,0.26115450263023376,-0.1559622436761856,0.03848586231470108,-0.10690813511610031,-0.7112559676170349,-0.019100679084658623,0.4353942275047302,0.601874589920044,-0.03319390118122101,-0.04329024627804756,0.26531270146369934,0.5433586239814758,-0.07013261318206787,0.2343866527080536,-0.11127018928527832,-0.00451485812664032,-0.8578402400016785,0.00001619205613678787,-0.6006122827529907,-0.289795845746994,-0.9618954658508301,-0.712346613407135,0.4536975026130676,1.1478780508041382,0.5881748795509338,-0.3464600741863251,-0.4889523684978485,-0.09095921367406845,0.08137761056423187,-0.5773802995681763,0.25434696674346924,-0.06612079590559006,-0.4813910126686096,-0.9109333753585815,-0.11486013233661652,-0.5617172718048096,-0.34183311462402344,-0.6428514719009399,-0.47023820877075195,0.5759040713310242,0.9089753031730652,0.2189868837594986,-0.34114035964012146,-0.5195717215538025,0.27820631861686707,-0.16984795033931732,-0.4409855306148529,0.6059959530830383,0.09309901297092438,-0.592536449432373,-0.6431844830513,1.1267974376678467,-0.0001341579045401886,0.2541593909263611,-0.07084911316633224,-1.3649051189422607,-0.6999855637550354,0.5547332763671875,0.7715872526168823,0.2922104299068451,0.39012452960014343,0.39321470260620117,0.7502320408821106,0.4264509379863739,-0.1933562159538269,-0.2797621786594391,0.37184831500053406,-0.0629957988858223,-0.18628063797950745,-0.45967215299606323,-0.31418657302856445,-0.4711557626724243,-0.4510281980037689,0.43075594305992126,0.5750210285186768,0.15068592131137848,-0.32572662830352783,-0.26701271533966064,0.04762839153409004,0.004633405711501837,-0.4286614656448364,0.09408846497535706,0.2155734747648239,-0.4371817708015442,-0.6115845441818237,0.1438061147928238,-0.5276064872741699,-0.5138525366783142,-0.8490110039710999,-0.8581146597862244,0.46145132184028625,1.4508966207504272,0.5292623043060303,-0.1323043555021286,-0.30065566301345825,0.43782132863998413,-0.15930750966072083,-0.4451538026332855,0.6421515345573425,-0.057574380189180374,-0.4659958779811859,-1.176584005355835,0.15483319759368896,-0.41525623202323914,-0.459378719329834,-0.43763646483421326,-0.731161892414093,0.33428171277046204,1.085352897644043,0.6446473598480225,-0.3366769552230835,-0.025025388225913048,0.5987671613693237,0.40471145510673523,-0.35706692934036255,0.12423784285783768,-0.13490916788578033,-0.4070890545845032,-0.07398111373186111,0.10691085457801819,-0.22747260332107544,-0.023952223360538483,-0.30602166056632996,-0.6061171293258667,-0.0617862306535244,0.23417139053344727,0.5356926321983337,-0.32790520787239075,-0.0782865360379219,-0.44852760434150696,0.44118332862854004,-0.040578681975603104,0.0666501373052597,0.3952879011631012,-0.267488956451416,-0.8607949614524841,0.6527441143989563,0.20874658226966858,0.2683968245983124,0.1846442073583603,-0.9923936724662781,-0.49398118257522583,0.2718569040298462,0.7498019933700562,0.3273581564426422,0.23123516142368317,0.5006464123725891,0.5559318661689758,0.3248791992664337,-0.10049545764923096,-0.10345839709043503,0.3304629921913147,-1.0670350790023804,0.16652144491672516,-0.5707240104675293,-0.24294379353523254,-0.6999533772468567,-0.7320985198020935,0.5903836488723755,0.8722842931747437,0.5119278430938721,-0.33300694823265076,-0.5108041167259216,0.23644211888313293,-0.06791051477193832,-0.5899010896682739,0.22554834187030792,-0.132177472114563,-0.423915833234787,-1.781957983970642,0.2802073657512665,-0.19483822584152222,0.06571411341428757,-0.22670814394950867,-1.3042806386947632,-0.03203219175338745,0.9732099175453186,1.2579469680786133,-0.09405854344367981,0.05661439150571823,0.07809532433748245,1.1147832870483398,0.032051146030426025,0.16773638129234314,-0.05003617703914642,-0.049254514276981354,-1.1225022077560425,0.4313735067844391,-0.08926434814929962,-0.06806310266256332,-0.1030816063284874,-0.8567083477973938,-0.04993628337979317,0.7447473406791687,0.7566556930541992,-0.038802411407232285,-0.09801097214221954,0.10172901302576065,0.40094947814941406,-0.06704452633857727,0.0027759361546486616,-0.14467795193195343,0.0009523274493403733,-0.5937232971191406,0.7829607725143433,0.008806781843304634,0.3604390025138855,-0.06490575522184372,-1.1495575904846191,-0.576403021812439,0.46662771701812744,0.7813060879707336,0.30828168988227844,0.17795781791210175,0.2739622890949249,0.5516065359115601,0.3858155608177185,-0.009888420812785625,-0.24480971693992615,0.3512246906757355,-0.9771748781204224,0.364552766084671,0.03335249423980713,0.13711993396282196,0.0019350172951817513,-0.9509779214859009,-0.25668954849243164,0.5621214509010315,0.8822709918022156,0.03566272556781769,0.17743268609046936,0.22053106129169464,0.7105042934417725,0.17975261807441711,0.04743093624711037,-0.11332552880048752,0.17548738420009613]},"outputHidden":{"rows":20,"columns":20,"weights":[-0.6039915084838867,0.41909337043762207,0.7204670906066895,0.6537857055664062,0.3531457483768463,0.48421552777290344,-0.5549030900001526,-0.31389161944389343,0.563518226146698,-0.7317730784416199,0.7578062415122986,0.5074382424354553,-0.6904129385948181,-0.5436655879020691,0.1420404314994812,0.5747681260108948,-0.05235256999731064,0.11003683507442474,-0.5493992567062378,0.14137044548988342,-0.42919307947158813,-0.0351569727063179,0.6762134432792664,0.032195091247558594,-0.08705341070890427,0.2505340874195099,0.061734993010759354,-0.1233953908085823,0.348528653383255,-1.0757393836975098,0.6369749307632446,0.22419941425323486,-0.5435802340507507,-0.6066220998764038,-0.07524295896291733,0.29918983578681946,0.20096565783023834,-0.23427943885326385,-0.41324785351753235,-0.07684822380542755,-0.27976110577583313,-0.2782515585422516,0.16642804443836212,-0.18624892830848694,0.33489444851875305,0.338571161031723,0.11355552822351456,-0.25656580924987793,0.3426268696784973,0.04492590203881264,0.2641473710536957,0.2121087610721588,-0.4057406187057495,-0.2572271525859833,0.6258460879325867,0.3271324932575226,-0.3380572199821472,-0.30397143959999084,0.3108808100223541,0.3170109987258911,-0.5683419108390808,0.5092693567276001,0.8000553846359253,0.8304145336151123,0.06347516924142838,0.3709340989589691,-0.5814103484153748,-0.3189195990562439,0.5413544774055481,-0.5764796733856201,0.7525011301040649,0.4663160443305969,-0.6928869485855103,-0.5739369988441467,-0.015449177473783493,0.4900551736354828,-0.1276206225156784,0.3677824139595032,-0.6547766327857971,-0.03358647972345352,-0.8208644986152649,0.6507310271263123,0.7953640818595886,0.854376494884491,0.2601495385169983,0.6708282232284546,-0.8018759489059448,-0.2505125403404236,0.7294937968254089,-0.9116600751876831,0.7854446172714233,0.403958797454834,-0.6316013932228088,-0.453628808259964,0.24006372690200806,0.6550207138061523,-0.3621003031730652,0.24896210432052612,-0.8940644860267639,0.10303141176700592,-0.664560854434967,0.26023170351982117,0.759799063205719,0.6448351144790649,0.3084051012992859,0.4452545940876007,-0.48024076223373413,-0.2971923351287842,0.6156928539276123,-0.6581636667251587,0.7104306221008301,0.4330504536628723,-0.5923395156860352,-0.5303906202316284,0.26557281613349915,0.6093839406967163,-0.16978831589221954,-0.16054533421993256,-0.548860490322113,0.1744629442691803,-0.5316841006278992,0.3707159459590912,0.6042093634605408,0.6110309362411499,0.19872768223285675,0.4327450096607208,-0.5404478311538696,-0.46837317943573,0.5302667021751404,-0.3945317268371582,0.5397900342941284,0.5181984305381775,-0.4409341514110565,-0.005060895811766386,-0.06813373416662216,0.5061454772949219,-0.10109603404998779,0.3512963056564331,-0.4328458309173584,0.04123649746179581,-0.29043662548065186,0.4253639578819275,0.42437446117401123,0.5570217967033386,0.06715314090251923,0.27287277579307556,-0.5864571928977966,-0.31387877464294434,0.4021497070789337,-0.901750922203064,0.3714108467102051,0.19858764111995697,-0.38668888807296753,0.11591950058937073,-0.14444321393966675,0.3468179702758789,-0.17586076259613037,0.161127969622612,-0.7489632368087769,-0.011501515284180641,-0.6477170586585999,0.28080183267593384,0.7057822346687317,0.5462779998779297,0.3327159583568573,0.4860171675682068,-0.593989908695221,-0.22579891979694366,0.492336243391037,-0.5467174053192139,0.6563947200775146,0.439586341381073,-0.6568925976753235,-0.4794614911079407,0.27941054105758667,0.5036440491676331,-0.227874755859375,0.11276011914014816,-0.477114737033844,0.1981153041124344,-0.47972407937049866,0.3137354254722595,0.6135546565055847,0.33975276350975037,0.19611425697803497,0.32270729541778564,-0.2450011670589447,-0.33385080099105835,0.44193801283836365,-0.7065659761428833,0.6779475212097168,0.46805432438850403,-0.5606309771537781,-0.41001981496810913,0.05806148797273636,0.5298510193824768,-0.20727266371250153,-0.045083239674568176,-0.5813195109367371,0.1510903537273407,-0.5794841051101685,-0.26209574937820435,0.3791745603084564,-0.024671480059623718,0.5793583393096924,0.483320951461792,-0.06017126888036728,-0.4494265615940094,0.5766456127166748,-0.018575387075543404,0.42892616987228394,0.4503145217895508,-0.5890612006187439,-0.27159249782562256,0.6163550019264221,0.5799602270126343,-0.4528524577617645,-0.48617449402809143,0.022736454382538795,0.6593331098556519,-0.43045076727867126,0.30811044573783875,0.6601786613464355,0.5276291966438293,0.04864058271050453,0.2231517732143402,-0.3861772418022156,-0.08351122587919235,0.28557324409484863,-0.5695666670799255,0.6660808324813843,0.1416471153497696,-0.46448859572410583,-0.6128447651863098,-0.024385549128055573,0.3548921048641205,-0.15374386310577393,-0.07795445621013641,-0.45749032497406006,-0.05203988775610924,-0.4545978307723999,0.5582739114761353,0.5470623970031738,0.46479862928390503,0.36845988035202026,0.4748551845550537,-0.3586905896663666,-0.2956497371196747,0.44913551211357117,-0.47696658968925476,0.5675601363182068,0.49840259552001953,-0.3786744773387909,-0.18372423946857452,0.28107714653015137,0.45963001251220703,0.023892877623438835,0.32648763060569763,-0.524034857749939,0.11036191880702972,-0.5321072936058044,-0.9309499263763428,0.10563185065984726,-0.41877180337905884,0.6690792441368103,0.520606279373169,0.34417176246643066,-0.5559474229812622,0.46595874428749084,0.47443774342536926,0.34272733330726624,0.49396270513534546,-0.47910112142562866,-0.018543902784585953,0.9624281525611877,0.49745312333106995,-0.809381365776062,-0.9553727507591248,0.5364646315574646,0.8457534313201904,-0.564834475517273,0.39715656638145447,0.699118971824646,0.6085155606269836,0.06476465612649918,0.3555772304534912,-0.5008787512779236,-0.24093714356422424,0.4186285436153412,-0.8040950894355774,0.6860556602478027,0.3775721490383148,-0.4010965824127197,-0.4792455732822418,0.14871957898139954,0.45854172110557556,-0.023302508518099785,-0.07047519832849503,-0.6846233606338501,-0.023907840251922607,-0.6257466673851013,0.3838232755661011,0.7105409502983093,0.6676613092422485,0.17720721662044525,0.4856746792793274,-0.6736838817596436,-0.14634504914283752,0.6345195770263672,-0.712963879108429,0.8255028128623962,0.4579584300518036,-0.6062992215156555,-0.5577658414840698,-0.007703485433012247,0.43410760164260864,-0.023405877873301506,0.06848522275686264,-0.7290710806846619,0.15903536975383759,-0.8877401947975159,0.5588012933731079,0.808870255947113,0.8555352091789246,0.36788785457611084,0.7765232920646667,-0.8638353943824768,-0.3249956965446472,0.7408120036125183,-0.7766648530960083,0.8241598010063171,0.4313073456287384,-0.5588526129722595,-0.38999971747398376,0.2446364313364029,0.8865976333618164,-0.28195449709892273,0.34063631296157837,-0.7187127470970154,0.007756044622510672,-0.44098809361457825,0.10448266565799713,0.7982907295227051,0.3777093291282654,0.04821348562836647,0.39018458127975464,-0.2709384858608246,-0.15221165120601654,0.4981389343738556,-1.2294676303863525,0.844418466091156,0.34029626846313477,-0.5734903216362,-0.5518901348114014,0.04352041333913803,0.3804011046886444,0.07761243730783463,-0.19719809293746948,-0.7017921209335327,-0.0684681162238121,-0.42852795124053955,0.42000120878219604,0.7517455816268921,0.27460551261901855,-0.023242611438035965,0.24854964017868042,-0.12415794283151627,-0.16217035055160522,0.39527127146720886,-0.9841683506965637,0.7663218975067139,0.3647800087928772,-0.5925920605659485,-0.5348118543624878,-0.10598227381706238,0.21380087733268738,0.09727086871862411,0.1401568204164505,-0.7856239080429077,-0.21790604293346405,-0.75347900390625,0.3504539132118225,0.6405647993087769,0.6338109970092773,0.1417151391506195,0.4991745352745056,-0.6164383888244629,-0.2832604944705963,0.6598590612411499,-0.7001922726631165,0.7429568767547607,0.20313255488872528,-0.6090271472930908,-0.3121553659439087,0.19831188023090363,0.5854033827781677,-0.28067126870155334,-0.009036942385137081,-0.6389141082763672,-0.0012720638187602162]},"outputBias":{"rows":20,"columns":1,"weights":[-0.5127092003822327,0.7155553698539734,-0.0851922333240509,0.835232675075531,0.0638989731669426,-0.46214351058006287,0.8806575536727905,-0.4571802020072937,-0.243880957365036,1.5047342777252197,-0.23675750195980072,-0.3234651982784271,-0.5145394206047058,0.33393344283103943,0.1062370240688324,-0.5088496208190918,0.3125046491622925,0.4236796200275421,1.002144455909729,0.5002078413963318]},"cellActivationMatrix":{"rows":20,"columns":17,"weights":[0.47327446937561035,-0.12485341727733612,0.28822433948516846,0.2595546543598175,0.35448166728019714,0.3063938617706299,0.008511051535606384,-0.5486013293266296,-0.15346410870552063,0.3008121848106384,0.21613049507141113,-0.35781824588775635,-0.0857270359992981,0.2121429145336151,0.17724016308784485,-0.06095022335648537,0.16121353209018707,0.406674861907959,0.22461587190628052,0.5687653422355652,0.7992280721664429,0.6483067870140076,0.49241119623184204,-0.4543560743331909,-1.0756075382232666,-0.37263038754463196,0.2927215099334717,0.571183443069458,0.14230403304100037,0.0014489194145426154,0.41818860173225403,-0.64096999168396,-0.20094706118106842,0.5444378852844238,-0.00950860045850277,0.10047218203544617,-0.09358058869838715,-0.29735034704208374,-0.10923430323600769,-0.2854703664779663,0.00497939670458436,0.2712995707988739,0.2077075093984604,-0.20456860959529877,-0.06652022153139114,-0.2645246088504791,0.21598149836063385,-0.15520477294921875,-0.24456414580345154,0.245466947555542,-0.0501355417072773,-0.008395343087613583,0.5824022889137268,0.34145215153694153,0.2014176994562149,0.38698214292526245,0.15477979183197021,-0.5067726373672485,-0.40636807680130005,0.037344906479120255,0.26041731238365173,0.5391404032707214,0.05450707674026489,0.18867045640945435,0.45974037051200867,-0.5630580186843872,-0.27244478464126587,0.3741481900215149,-0.7874906659126282,-0.3979058265686035,-0.6313019394874573,-0.1850101798772812,-0.7906566262245178,-0.2732427418231964,0.5451114773750305,0.5681135654449463,0.22182005643844604,-0.5931023359298706,-0.613854169845581,0.15312395989894867,0.06232993304729462,-0.6793872117996216,0.09320943802595139,0.16114363074302673,-0.4440942704677582,-0.16988471150398254,0.06205664947628975,-0.39806342124938965,-0.1262405663728714,-0.3302510976791382,-0.09688824415206909,0.16435372829437256,0.37261393666267395,0.09725348651409149,-0.20709659159183502,-0.2544102668762207,0.32643428444862366,-0.004755579400807619,-0.2523156702518463,-0.1399015486240387,-0.020281583070755005,-0.22464841604232788,-0.34997114539146423,-0.7892077565193176,-0.11281045526266098,-0.2567340135574341,-0.10015247762203217,-0.22331607341766357,0.7138997912406921,0.434295654296875,0.08149507641792297,-0.13660569489002228,-0.4748621881008148,-0.05255992338061333,-0.25607234239578247,-0.4045465886592865,0.24444836378097534,0.0675790011882782,-0.18399877846240997,0.28327545523643494,0.13645249605178833,0.23251166939735413,0.05531013756990433,0.1494152545928955,0.2899304926395416,-0.05965447798371315,-0.354414701461792,-0.1158386766910553,0.15310028195381165,0.18685588240623474,-0.04843970388174057,0.04669716954231262,0.18542887270450592,0.17190741002559662,-0.040434226393699646,0.17843323945999146,-0.14836059510707855,0.20706941187381744,-0.3196660280227661,-0.0911860242486,-0.2562289535999298,-0.24602922797203064,-0.07470102608203888,0.278096079826355,0.04124123975634575,-0.2478736937046051,-0.13598957657814026,0.2963072955608368,0.07901298999786377,-0.0786585584282875,-0.32553303241729736,0.04184024780988693,-0.08132682740688324,-0.3753901422023773,-1.1873801946640015,-0.5030950307846069,-0.6741610765457153,-0.41169223189353943,0.17568117380142212,1.137275218963623,-0.034603457897901535,-0.004823012743145227,-0.8120332956314087,-0.5642395615577698,-0.5959284901618958,0.2483513057231903,-0.7248349189758301,0.42811739444732666,0.6636848449707031,-0.9063631296157837,0.005655048415064812,0.03115617297589779,-0.14822018146514893,-0.21665804088115692,-0.14667664468288422,-0.16745099425315857,0.048066094517707825,0.3177955150604248,0.2113291621208191,-0.20369379222393036,-0.07154257595539093,-0.18224041163921356,0.16460011899471283,-0.11572222411632538,-0.3462411165237427,0.23507234454154968,-0.09499262273311615,-0.40338170528411865,-0.15041981637477875,-0.08324441313743591,-0.3681715726852417,-0.13582877814769745,-0.11381059885025024,0.1818169355392456,0.33315780758857727,0.09997481852769852,-0.043124955147504807,-0.22087103128433228,-0.2934894859790802,-0.16650117933750153,-0.3024812638759613,-0.13837476074695587,0.020885929465293884,-0.13976095616817474,0.3732118606567383,0.09088277071714401,0.35515108704566956,0.32720521092414856,0.37759819626808167,0.25142109394073486,-0.14469245076179504,-1.068454623222351,-0.24557185173034668,0.2523345947265625,0.18968233466148376,-0.2415848821401596,-0.06324052810668945,0.2813803255558014,-0.03834134712815285,-0.12914036214351654,0.27355751395225525,-0.35892239212989807,0.6051715016365051,0.1122032180428505,0.46614864468574524,-0.23640978336334229,-0.19541406631469727,-0.5710299611091614,-0.1446608006954193,0.4068802297115326,0.12835922837257385,0.47952741384506226,-0.29284733533859253,0.5194375514984131,0.47464248538017273,0.4929697811603546,-0.08078788965940475,0.12186593562364578,-1.2120072841644287,-0.2171815186738968,-0.7210879325866699,-0.27321431040763855,-0.7729730010032654,-0.2237880378961563,0.5122694373130798,0.8634036183357239,0.1316257268190384,-0.47332969307899475,-0.5997397303581238,-0.050408028066158295,-0.06981447339057922,-0.6731889843940735,0.10758743435144424,0.12249342352151871,-0.4679335355758667,-0.42107701301574707,0.002932213945314288,-0.4051782190799713,-0.19885404407978058,-0.42728400230407715,-0.16972720623016357,0.08145935088396072,0.49907246232032776,0.17082838714122772,-0.2842264175415039,-0.15711002051830292,0.37305116653442383,0.12534679472446442,-0.2579765021800995,-0.29917705059051514,0.0430317223072052,-0.2720434367656708,0.6865441799163818,0.47485193610191345,0.8236647844314575,0.4836815595626831,1.061739206314087,0.7845010757446289,-0.7425377368927002,-1.3057419061660767,-0.5835216641426086,0.5293418169021606,0.5409621596336365,-0.48562538623809814,-0.19427618384361267,0.8656358122825623,-0.5387961864471436,-0.049993228167295456,0.8133228421211243,0.1751156449317932,0.12524013221263885,0.3763006031513214,0.8791810274124146,0.8250936269760132,0.4786362946033478,-0.37836015224456787,-0.823814868927002,-0.41922739148139954,0.26405274868011475,0.449199914932251,0.027345173060894012,-0.08151550590991974,0.4730207026004791,-0.23346203565597534,0.06399010866880417,0.48608148097991943,0.02205052599310875,-0.6582105159759521,-0.49110060930252075,-0.5109447240829468,-0.27276110649108887,-0.1987101435661316,0.34525254368782043,0.6495015621185303,-0.043395113199949265,-0.33601436018943787,-0.2619224488735199,-0.03285102918744087,-0.009858980774879456,-0.4477826952934265,0.24538660049438477,0.12328639626502991,-0.47766977548599243,-0.7708558440208435,-0.4445492625236511,-0.6470159888267517,-0.17115630209445953,-0.6311107873916626,-0.35438522696495056,0.5294496417045593,0.4444173574447632,0.18558737635612488,-0.4590684771537781,-0.7601048946380615,0.11939253658056259,0.17071260511875153,-0.5733328461647034,0.27131614089012146,0.3153354823589325,-0.4837583601474762]},"cellActivationHidden":{"rows":20,"columns":20,"weights":[0.2566571831703186,-0.2616906464099884,-0.2595238983631134,-0.5730120539665222,-0.1604817807674408,-0.3059394657611847,0.5856094360351562,0.06173470616340637,-0.2424537092447281,0.4984765648841858,-0.25951406359672546,-0.19939540326595306,0.24926400184631348,0.20798802375793457,-0.01861470565199852,-0.24613718688488007,-0.038360219448804855,-0.08390853554010391,0.42258358001708984,-0.05503441393375397,0.0335245244204998,-0.4832947850227356,-0.5569010972976685,0.017466533929109573,0.050694942474365234,-0.3450404107570648,0.25652873516082764,0.32391881942749023,-0.33276844024658203,0.46561381220817566,-0.6564957499504089,-0.0717659518122673,-0.0626930519938469,-2.8416173458099365,0.5221986770629883,-0.15830335021018982,-0.2086428701877594,0.08661655336618423,0.6299792528152466,0.7467396855354309,-0.21364685893058777,-0.24671629071235657,0.3440083861351013,-0.0068809338845312595,0.15314917266368866,0.15317301452159882,-0.06990423053503036,-0.17080152034759521,0.21744142472743988,-0.05810633301734924,0.46495115756988525,0.051716163754463196,-0.6057785153388977,-0.3844299912452698,0.3021530508995056,0.16009999811649323,-0.1425381451845169,-0.2745203375816345,0.14501513540744781,0.15663272142410278,0.17922097444534302,0.9329382181167603,-0.2203933149576187,1.1422828435897827,-0.293732613325119,-0.2924138009548187,-0.05708078294992447,0.49869927763938904,-0.11753306537866592,0.31266283988952637,-0.25870081782341003,0.03811118006706238,0.31751278042793274,-2.1370270252227783,-0.5760635137557983,-0.1516166776418686,0.3470531404018402,1.6516859531402588,0.1466434746980667,-0.49594971537590027,-0.17610673606395721,0.48242706060409546,0.09270468354225159,0.9450670480728149,0.025939922779798508,0.16730642318725586,-0.6563072204589844,-0.8620783686637878,0.21280790865421295,-0.5986950397491455,-0.014185566455125809,0.7679920196533203,0.014596095308661461,0.3136337697505951,-0.034127239137887955,0.14540939033031464,-0.06138412654399872,0.3397941589355469,-0.5874946713447571,-0.10961048305034637,-0.15723100304603577,0.375238299369812,0.1981898844242096,0.5953589677810669,0.25305163860321045,0.3692644536495209,-0.5117800235748291,-0.5592119097709656,0.5391122102737427,-0.5720486044883728,0.13606376945972443,0.9280722737312317,-0.09441186487674713,-0.06158694624900818,0.07069339603185654,0.23012730479240417,0.02674269489943981,0.20726805925369263,-0.4070241153240204,0.06967377662658691,-0.26244640350341797,-0.7052223682403564,0.4861401319503784,-1.1813870668411255,-0.05314255878329277,0.11100513488054276,0.46204686164855957,-0.52351975440979,-0.13670319318771362,-0.1853824257850647,0.6065760850906372,-0.24449701607227325,-0.6088581085205078,1.9130779504776,0.5174626708030701,0.14538352191448212,-0.22987151145935059,-1.2271018028259277,0.04096827656030655,0.0010025835363194346,-0.24331270158290863,0.012287446297705173,0.32582995295524597,-0.6610997319221497,0.28416314721107483,0.13886550068855286,0.36055535078048706,0.04471101239323616,0.25133180618286133,1.0534614324569702,0.5759299993515015,-0.3483968675136566,-0.4943739175796509,0.5893242955207825,0.31849929690361023,0.22797828912734985,-0.31558260321617126,-0.17549069225788116,0.8477492332458496,0.36631739139556885,0.017621010541915894,0.3310040533542633,0.14407853782176971,0.6000320911407471,0.20139086246490479,0.3763417601585388,-0.5104892253875732,-0.5028707385063171,0.32974568009376526,-0.49625977873802185,0.059480492025613785,1.37943434715271,-0.06845054030418396,-0.04279998317360878,-0.11784547567367554,0.17090915143489838,0.1129358783364296,0.3739466965198517,-0.5005922317504883,0.0798371434211731,-0.19566285610198975,0.07748693227767944,-0.2366655319929123,-0.2629830539226532,0.4082672595977783,0.22824932634830475,-0.3320436179637909,-0.7885795831680298,0.17984546720981598,-0.3150519132614136,0.01633557491004467,0.0472133606672287,-0.1392604559659958,2.433917760848999,0.6182687878608704,0.13131994009017944,-0.529784083366394,-0.7085192799568176,-0.20776472985744476,0.5461587905883789,-0.32595670223236084,-0.09899284690618515,0.36510834097862244,0.04200476408004761,0.27782711386680603,0.18660615384578705,-0.23172514140605927,-0.20312489569187164,0.28298434615135193,-0.09191691130399704,0.39340534806251526,0.3205387592315674,-0.5140466094017029,-0.36259937286376953,0.25608304142951965,0.21963904798030853,-0.23554527759552002,-0.2550915777683258,-0.0211104154586792,0.1812407225370407,0.5055628418922424,0.43561291694641113,-0.17320477962493896,0.2994769215583801,-0.48459872603416443,-0.2798648774623871,-0.2430744618177414,0.32041487097740173,-0.28402552008628845,-0.5151547789573669,-0.2214183658361435,-0.2657409906387329,0.5123412013053894,0.0003120390174444765,-0.589590847492218,-0.3850898742675781,0.6571682095527649,0.5447906851768494,-0.756796658039093,-0.7274803519248962,0.38132715225219727,-0.4154198169708252,-0.3741890490055084,-0.5909650325775146,-0.3088667392730713,-0.5659639835357666,0.606101930141449,0.25939083099365234,-0.387073814868927,0.6085085272789001,-0.35900285840034485,-0.358894944190979,0.26335409283638,0.13235260546207428,-0.09369447082281113,-0.40593481063842773,0.0502537302672863,-0.27311909198760986,0.5801303386688232,-0.13480739295482635,0.15639014542102814,0.40418198704719543,-0.40993332862854004,0.8212457895278931,-0.09488681703805923,-0.2033662050962448,-0.43614625930786133,-0.024126138538122177,-0.10948328673839569,-0.6472792625427246,-0.5975930690765381,0.08307954668998718,1.2583659887313843,-0.2465176284313202,-0.3424051105976105,-0.18680547177791595,0.14898265898227692,0.48752978444099426,-0.5868651270866394,-0.2369113564491272,-0.46793803572654724,0.3875029385089874,0.4891054332256317,0.8728179931640625,0.33890920877456665,0.5446628332138062,-0.6534752249717712,0.04102756455540657,0.6683486104011536,-0.9417024254798889,0.5036423206329346,0.44820860028266907,-0.2995286285877228,-0.10153991729021072,-0.04204786568880081,0.5212946534156799,-0.16883035004138947,0.07642410695552826,-0.7163907885551453,0.12402021884918213,-0.2861914038658142,0.36708083748817444,0.3680851459503174,0.5261620283126831,0.16365809738636017,0.29646334052085876,-0.5526980757713318,-0.23119087517261505,0.3472370505332947,-0.5463586449623108,0.3171069622039795,0.6787028908729553,-0.2541520893573761,-0.2009551078081131,-0.0010284384479746222,0.2907205820083618,0.01127943117171526,0.21443672478199005,-0.42657238245010376,-0.04081756994128227,0.21088269352912903,-0.47778844833374023,-0.2401532530784607,-0.6298707127571106,-0.5593582391738892,-0.6755669713020325,0.8412092328071594,0.2804441452026367,-0.6498978734016418,0.6421604752540588,-0.25960978865623474,-0.8588373064994812,0.14649070799350739,0.008798718452453613,-0.01753658801317215,-0.5363446474075317,0.06372296810150146,-0.2504095137119293,0.53690105676651,-0.4521329998970032,-0.0663624182343483,-0.42904892563819885,-0.7278857231140137,0.2364163100719452,0.49150770902633667,-0.0426299013197422,-0.020922556519508362,0.29216039180755615,-0.11459027975797653,0.41717204451560974,-0.6137211918830872,-0.23859210312366486,-0.14675384759902954,-2.157636880874634,0.8733420372009277,0.14737260341644287,-0.9204277992248535,0.33500736951828003,0.8784235715866089,0.6329038143157959,-0.3711521327495575,-0.7511508464813232,-0.39420104026794434,0.17525897920131683,0.6314800977706909,0.4208093285560608,-0.24797751009464264,-1.2878237962722778,0.27969247102737427,-0.44804897904396057,-0.4236835837364197,1.0396301746368408,-0.10117212682962418,1.612748622894287,0.9723814129829407,0.4483497738838196,-0.5472051501274109,-1.6528578996658325,-0.4905865490436554,0.6697953343391418,-0.09541178494691849,0.595025360584259,-0.20470601320266724,1.3056796789169312,0.04868559166789055,0.056815773248672485,-0.9680439829826355,-0.8914879560470581,0.08175330609083176,-1.0607694387435913,-0.2086838185787201,0.7050522565841675,0.2513777017593384,-0.1101532131433487,-0.020338501781225204,0.1771089732646942,0.09207145124673843,0.3050122559070587,-1.0434057712554932,-0.10216449201107025]},"cellActivationBias":{"rows":20,"columns":1,"weights":[-0.008542323485016823,0.672197163105011,0.20585760474205017,0.5814489126205444,-0.4138539433479309,-0.12576161324977875,-0.7600939869880676,0.07169148325920105,0.05603251978754997,-0.5248584747314453,0.19381216168403625,-0.022735020145773888,0.06426350772380829,0.5371969938278198,-0.5048271417617798,-0.04656341299414635,0.4452209770679474,0.5455005764961243,-0.6513864994049072,-0.5981937646865845]}},{"inputMatrix":{"rows":20,"columns":20,"weights":[-0.46909859776496887,1.8100507259368896,0.3170725405216217,1.8547104597091675,0.4014023542404175,0.4024360179901123,-1.8555285930633545,-0.34011659026145935,0.5405279994010925,-1.871066927909851,0.36512768268585205,-0.058578141033649445,-0.48494574427604675,2.546447992324829,0.1434556543827057,0.5664442181587219,-0.35763561725616455,1.400998592376709,-0.9158219695091248,0.3839060664176941,-0.7082705497741699,-0.2736348509788513,0.5404210686683655,0.2143966108560562,1.1358803510665894,1.083735466003418,-0.583723783493042,-0.7513298988342285,0.8863617181777954,0.12785834074020386,0.6226672530174255,1.0158571004867554,-0.6655540466308594,-0.6533297896385193,1.1199705600738525,0.8756743669509888,-1.1022827625274658,-0.32243239879608154,0.10636407881975174,0.8795667886734009,-0.725174605846405,-1.292911410331726,0.6558737754821777,-0.00008222547330660746,0.7824413776397705,0.6586837768554688,-0.02238645777106285,-0.6353963017463684,0.6110131144523621,0.5754373669624329,0.683203399181366,0.672766923904419,-1.1547324657440186,-0.8822141885757446,0.7569612264633179,0.6528868079185486,-1.411309838294983,-1.7149848937988281,0.4398873448371887,1.0651050806045532,0.036674343049526215,0.2603081464767456,0.21985113620758057,0.8073920011520386,0.7575633525848389,0.6920403838157654,-1.0917242765426636,-0.5104803442955017,1.0877965688705444,-0.3815055787563324,0.09230457991361618,0.9811139106750488,-0.07669901847839355,0.2121805101633072,0.46274566650390625,0.4179140329360962,-0.4391118884086609,0.03631458431482315,-0.2743294835090637,0.7130184173583984,-0.6625520586967468,0.732004702091217,0.5356543660163879,1.9513543844223022,0.3075233995914459,0.31542518734931946,-1.336843490600586,-1.7556676864624023,0.4017746150493622,-0.47966209053993225,0.5916662812232971,0.6688392758369446,-0.4903765916824341,0.3120180070400238,-0.03709941357374191,0.5100907683372498,-0.19374404847621918,0.5077226758003235,-1.3580504655838013,0.4733281135559082,-0.8040277361869812,-0.24337749183177948,0.6336309313774109,-0.10692398250102997,0.7929815649986267,0.6432963609695435,-0.16622664034366608,-0.6135736703872681,0.5127485990524292,0.2805593013763428,0.8238627910614014,0.5659457445144653,-1.2946094274520874,-0.7612000703811646,0.6860369443893433,0.8225756287574768,-0.4441612660884857,-0.29824092984199524,0.28140464425086975,0.5363118648529053,-0.6115425229072571,0.20584829151630402,0.46953099966049194,0.9229046702384949,0.5411878824234009,0.4900551438331604,-1.4914965629577637,-1.0444200038909912,0.6625947952270508,-0.5245270729064941,0.5574826002120972,0.6552538871765137,-0.6725906729698181,-0.02878202311694622,0.20933349430561066,0.6288828253746033,-0.6116922497749329,-0.14772261679172516,-0.8014417290687561,0.4409139156341553,-0.6335838437080383,-0.5145182013511658,0.2254597693681717,0.03986993804574013,0.7434036731719971,0.660827100276947,-0.3465684652328491,-0.798530101776123,0.5708096027374268,0.5900015234947205,0.21239890158176422,0.46684587001800537,0.03335126116871834,-0.07079735398292542,0.6721087694168091,0.6433388590812683,-0.67264324426651,-0.4771091341972351,0.36797794699668884,0.803794264793396,-0.12317711114883423,-0.4894998371601105,-0.05669800192117691,-0.13603787124156952,0.789888858795166,0.4057755470275879,-0.1538337767124176,-0.695497453212738,0.08496962487697601,0.2904490828514099,-0.12578409910202026,0.2827608287334442,-0.4623194932937622,-0.242374449968338,0.8461124897003174,0.33085858821868896,-0.7948911786079407,-0.427467405796051,0.33107703924179077,0.860194981098175,-0.3301718235015869,-0.5761375427246094,0.08092527091503143,-0.36879175901412964,0.8057843446731567,0.5031846761703491,0.15553034842014313,-0.30762359499931335,0.258095920085907,0.3229893445968628,0.16795261204242706,0.3045487701892853,-0.6530929803848267,-0.5064065456390381,0.7041648626327515,0.39801445603370667,-0.7577390074729919,-0.7316513061523438,0.31408193707466125,0.7508947849273682,-0.6679756045341492,-0.04851428046822548,0.3979324996471405,0.5444363951683044,0.8990321755409241,0.6374478340148926,-0.6309014558792114,-0.8743820786476135,0.5462527871131897,0.0563165582716465,0.5092700123786926,0.097035713493824,-0.36558911204338074,0.06442303210496902,0.7589681148529053,0.6897504329681396,-0.6770232915878296,-0.048837266862392426,0.11565175652503967,0.9618489742279053,-0.22914938628673553,-0.6835606098175049,0.14143133163452148,-0.2165033370256424,1.1047015190124512,0.8041228652000427,-0.1484241485595703,-0.18718691170215607,0.6570813655853271,0.430724173784256,0.1652977168560028,0.5639902353286743,-0.8603728413581848,-0.2506164014339447,1.6366512775421143,0.6094165444374084,-1.401094913482666,-0.6076164245605469,0.46726930141448975,1.2635539770126343,-0.8971729278564453,-0.450886607170105,0.5581628084182739,-0.25406530499458313,1.0875941514968872,0.7559697031974792,0.03350888937711716,-0.7214834690093994,0.48956355452537537,0.35863760113716125,0.6874731183052063,0.444963663816452,-0.9552794098854065,-0.5062105059623718,1.3213279247283936,0.797414243221283,-0.9067770838737488,-0.40790560841560364,0.5582237839698792,1.0409421920776367,-0.7675102353096008,-0.8855094909667969,0.2628549337387085,-0.4403667747974396,1.1566954851150513,0.6900585293769836,0.16324347257614136,-0.6927018165588379,0.5324081778526306,0.9303126931190491,0.43928515911102295,0.5003156065940857,-0.5683506727218628,-0.24039819836616516,1.858742117881775,0.7747420072555542,-0.7251932621002197,-0.9198551177978516,0.8175207376480103,1.1531528234481812,-0.6175591945648193,0.4327223002910614,0.6827770471572876,0.8343145251274109,0.25256624817848206,0.3181047737598419,-0.8308205604553223,-0.31531500816345215,0.32756152749061584,-0.6273385286331177,0.7452186942100525,0.20650431513786316,-0.5407396554946899,-0.62544846534729,0.15920871496200562,0.4684954583644867,-0.20819565653800964,0.2334015965461731,-0.5241773128509521,0.16250231862068176,-0.7619121670722961,-0.6337671279907227,0.3430447578430176,-0.6112141609191895,1.2034138441085815,0.9995673298835754,0.10220873355865479,-0.7112894654273987,0.7501264214515686,0.46714597940444946,0.3273453116416931,0.5493204593658447,-0.41716447472572327,-0.15008413791656494,1.1892385482788086,0.8973062038421631,-0.9766907095909119,-0.7439462542533875,0.7472272515296936,1.1584900617599487,0.31554290652275085,1.795374870300293,-0.13413135707378387,0.5821017026901245,-0.41455671191215515,-0.28043606877326965,-1.0818766355514526,0.6001128554344177,-0.2922292649745941,-0.7038399577140808,0.18608960509300232,-1.1997145414352417,0.46763861179351807,1.4787228107452393,-0.4831201434135437,-0.38273707032203674,0.5647174715995789,1.642749547958374,0.4842664897441864,-0.364446759223938,-0.4868347942829132,0.18655669689178467,-1.4098803997039795,0.9326208829879761,0.42769768834114075,0.2505737543106079,-0.8768073916435242,-0.30992549657821655,0.24497544765472412,-0.6092433333396912,-0.13286776840686798,0.22997123003005981,-0.2887060344219208,-3.487752676010132,0.4561938941478729,0.36890026926994324,-0.45830395817756653,0.2474239617586136,-0.12619401514530182,0.26718467473983765,-0.7493024468421936,0.18135638535022736,0.6849164962768555,1.0176373720169067,0.2624937891960144,0.2776213586330414,-1.3357115983963013,-1.073663353919983,0.4578975439071655,-0.6869613528251648,0.6653311848640442,0.46660593152046204,-0.6737287640571594,-0.02254471369087696,0.012115370482206345,0.6840760707855225,-0.1623874455690384,-0.05644872412085533,-1.0156782865524292,0.23156484961509705,-0.7381914854049683,-0.49446746706962585,0.49719518423080444,-0.09911828488111496,0.8294519186019897,0.5899531245231628,0.04520878568291664,-0.5813362002372742,0.4981572926044464,0.21669092774391174,0.5886605978012085,0.48646122217178345,-0.8666146993637085,-0.4090879559516907,1.1624155044555664,0.7109658122062683,-0.9792407751083374,-0.5113120675086975,0.24803641438484192,0.9567882418632507]},"inputHidden":{"rows":20,"columns":20,"weights":[-0.0022291617933660746,-0.07890411466360092,0.9616471529006958,-0.5943262577056885,1.2761117219924927,0.8429250717163086,0.0016079609049484134,-0.39060813188552856,-0.46767979860305786,-0.6122136116027832,1.486730933189392,0.21162991225719452,0.37943950295448303,-0.5917400121688843,-0.8705632090568542,-0.2647567093372345,-1.2934234142303467,0.002889280905947089,0.793861448764801,0.06707952916622162,0.251056432723999,0.21373961865901947,-0.037960316985845566,-0.18699920177459717,0.38826826214790344,-0.22651039063930511,-0.21344977617263794,-0.12574605643749237,0.21779987215995789,0.0479891337454319,-0.08640751242637634,-0.04277624562382698,0.4323318600654602,-0.567747175693512,-0.0433398075401783,-0.23200003802776337,-0.7470356225967407,0.049489352852106094,0.24748872220516205,0.14139364659786224,0.22665758430957794,0.46862709522247314,0.24167519807815552,0.24380668997764587,0.22584061324596405,0.05445924773812294,-0.2774888873100281,-0.7061910033226013,-0.016536762937903404,0.22905360162258148,0.084976926445961,-0.17333294451236725,0.16511337459087372,-1.4365371465682983,0.4417412579059601,-0.6767012476921082,0.02883000485599041,-0.1743578016757965,0.3181506395339966,0.06942369788885117,0.48583337664604187,0.5605608820915222,0.02275468036532402,-0.40159153938293457,-0.045438215136528015,-0.5935022830963135,0.16237333416938782,-0.5579420924186707,0.1975141316652298,0.4175577163696289,-0.31562408804893494,0.0245050135999918,0.6725823879241943,-0.45282039046287537,-0.5251939296722412,-0.5667710304260254,-1.1365166902542114,0.20377424359321594,-0.03913172334432602,0.08846168965101242,0.6320551633834839,-0.018133804202079773,0.41238856315612793,0.6926336288452148,1.0764458179473877,-0.25903356075286865,-0.8710278272628784,-0.4609055817127228,-0.656389057636261,1.15420663356781,0.20769119262695312,0.46080848574638367,-0.21223418414592743,0.44182974100112915,-0.6022509932518005,0.340239554643631,-1.2745399475097656,-0.49420860409736633,1.99161958694458,0.6294549107551575,0.6747221946716309,-0.5402510762214661,-0.16167160868644714,-0.896456778049469,-0.4407247006893158,-0.2761189639568329,-0.3006664216518402,-0.0027076289989054203,0.45700058341026306,0.15163759887218475,-0.40045076608657837,-0.48737412691116333,0.4554695785045624,0.1790907382965088,-0.07736901193857193,0.08559161424636841,-0.5049978494644165,-0.14091499149799347,0.39026814699172974,0.09235110878944397,0.8548740148544312,-0.06347320228815079,-1.549344778060913,-0.626780092716217,0.9888585209846497,0.23231446743011475,-2.8028149604797363,-0.3164640963077545,-0.3365694582462311,0.533900260925293,-0.28525230288505554,0.4033152461051941,-0.2250429093837738,0.028717875480651855,-0.6783955097198486,0.30082038044929504,0.07354878634214401,0.10570193082094193,2.519528865814209,1.2390204668045044,0.37038931250572205,1.3384754657745361,-0.474812775850296,0.7165590524673462,-0.08954903483390808,-0.810056746006012,-0.08560880273580551,-1.8474292755126953,-0.5077427625656128,0.9957197308540344,-0.4697727560997009,1.123727560043335,0.7124036550521851,-0.5916982293128967,-1.6789848804473877,-0.8089346289634705,-1.1296660900115967,1.2035636901855469,0.00992198009043932,1.4502946138381958,0.9178537726402283,0.5341783761978149,-0.5074946880340576,0.15777139365673065,0.16513270139694214,-0.6989856958389282,-0.20668239891529083,-0.8169147372245789,-0.16503207385540009,0.6704044938087463,-0.7779731154441833,0.10431680083274841,1.5097732543945312,-1.0048187971115112,-0.14319585263729095,-1.2062486410140991,-0.8818541169166565,0.9444586038589478,0.38967475295066833,1.3890767097473145,0.7929718494415283,0.35930898785591125,-0.3706670105457306,-0.3429949879646301,-0.15951548516750336,1.4832271337509155,-0.9231985211372375,-0.751986563205719,0.4026275873184204,-0.4045146405696869,-1.331061840057373,-0.06025421619415283,0.8628240823745728,-0.5868368148803711,-0.41059058904647827,-0.3554624021053314,-1.3058464527130127,0.6146387457847595,0.6658601760864258,-0.8438885807991028,-0.055681630969047546,-0.38989686965942383,-1.1569867134094238,-0.9139999151229858,0.3504689931869507,1.5399529933929443,-1.781397819519043,0.20315879583358765,0.021722160279750824,-0.8107476830482483,0.8892963528633118,-0.15055082738399506,-0.590936541557312,-1.6425566673278809,0.5431647300720215,0.408482164144516,0.6263879537582397,-0.4839417338371277,1.558220386505127,1.349482536315918,0.35824352502822876,-0.1415320634841919,0.1236613467335701,-1.6028327941894531,0.2250353842973709,-0.04154914245009422,-0.47856324911117554,-0.1843833178281784,0.12198613584041595,0.13554692268371582,0.20339557528495789,0.20749317109584808,0.44588544964790344,-0.7066652774810791,-0.3797120451927185,-0.27157941460609436,-0.7535463571548462,0.2685519754886627,0.39746373891830444,-0.1720479428768158,0.7723717093467712,-0.9907183647155762,-0.01725504919886589,-0.6721007823944092,0.5396715998649597,0.14232702553272247,-0.602503776550293,0.22037090361118317,0.11268821358680725,0.3232354521751404,0.008485039696097374,-0.2989354729652405,-0.2287091165781021,0.48802030086517334,0.6990683078765869,0.47170937061309814,-0.15896998345851898,0.001466275891289115,0.6652188301086426,-0.2730821371078491,0.5276706218719482,0.06700129061937332,-0.2821003198623657,-0.3444923758506775,0.7321563363075256,-0.3878655731678009,-0.7125949263572693,-0.5032390356063843,-0.04147012531757355,0.41913169622421265,-0.399537593126297,0.6274736523628235,0.9066634178161621,-1.6567785739898682,-1.3400471210479736,-0.6531843543052673,-1.6340404748916626,0.8433002829551697,0.7258166074752808,0.5882768034934998,0.6332997679710388,-0.08376038074493408,0.6039791107177734,0.10543912649154663,0.4663363993167877,0.19658707082271576,-0.4895155727863312,-0.18098396062850952,-0.05957166105508804,0.43726646900177,0.17111384868621826,-0.19666032493114471,0.1687818467617035,-0.09934146702289581,0.1703091263771057,0.06029212102293968,-0.7528022527694702,-0.0602683499455452,0.2848066985607147,-0.34184208512306213,1.122984528541565,-0.6492735147476196,-0.17527122795581818,-1.222245216369629,0.8658973574638367,-0.977275550365448,-0.6375019550323486,0.18629026412963867,-0.256563663482666,0.6839558482170105,-0.2492981255054474,0.25958916544914246,-0.25863683223724365,0.16178224980831146,-0.5696932673454285,-0.041405294090509415,-1.306424617767334,0.2806064188480377,0.6176659464836121,-0.3118410110473633,-1.2219977378845215,1.0603725910186768,0.03603628650307655,1.5392203330993652,-0.8653508424758911,0.572527289390564,0.1336359679698944,-0.5301356315612793,0.1842581331729889,-0.6448935270309448,0.8546842336654663,-0.3725973963737488,0.11905129998922348,-0.9474491477012634,2.2843031883239746,-0.5255331993103027,1.3008744716644287,-1.0667898654937744,-0.5559965372085571,0.4312140643596649,0.15862397849559784,-0.2893284559249878,0.6451092958450317,-0.13553181290626526,0.2125805914402008,0.10976770520210266,-0.04895320162177086,-0.006097276229411364,0.7478201389312744,0.34853270649909973,0.3352137804031372,-0.8614175319671631,-0.027600493282079697,0.4280301630496979,0.14945361018180847,0.2798740267753601,-0.5721762180328369,-0.620509147644043,0.02256862074136734,-0.4837518334388733,1.1642855405807495,-0.33390378952026367,-1.303784966468811,-0.6008658409118652,1.1741315126419067,0.21108506619930267,-2.913074254989624,-0.17159859836101532,-0.12091374397277832,0.41528820991516113,-0.3030071258544922,0.045510172843933105,-0.3627314269542694,0.2094724327325821,-0.38393300771713257,0.5718339085578918,0.3564508259296417,0.06232306361198425,2.8397388458251953,1.35885488986969,0.7689135074615479,-0.4454329013824463,-0.054524119943380356,-0.5198925733566284,0.16363894939422607,0.11973702907562256,-0.883359432220459,-0.0038464537356048822,0.22915692627429962,0.5543606281280518,0.012605862691998482,-0.406753808259964,0.06212012842297554,-0.17867378890514374,0.18917275965213776,-0.0013483254006132483,-0.24142009019851685,-0.08016054332256317,0.8046302795410156,-0.023836933076381683]},"inputBias":{"rows":20,"columns":1,"weights":[0.844598650932312,0.3208843767642975,0.8867681622505188,1.0790960788726807,0.3077094852924347,0.39341726899147034,0.3707880675792694,0.16143301129341125,0.026116883382201195,0.24103230237960815,0.6761398315429688,-0.13401027023792267,0.23580515384674072,-0.617295503616333,1.2659010887145996,-0.05583293363451958,1.5163049697875977,0.24586932361125946,0.7283803820610046,0.11826471984386444]},"forgetMatrix":{"rows":20,"columns":20,"weights":[-0.4789848029613495,0.23975397646427155,0.5694203972816467,1.0443568229675293,0.3822798430919647,0.6389455199241638,-0.8037449717521667,-1.0007363557815552,0.7377920150756836,-0.4808924198150635,0.48777297139167786,1.1499168872833252,-0.6562917232513428,-0.05023966729640961,0.44785019755363464,0.5534791350364685,-0.46380242705345154,-0.03824083134531975,-0.2475244402885437,0.17035189270973206,0.3711688220500946,-0.4577237665653229,0.12715351581573486,-1.5885881185531616,-0.25389808416366577,0.003272276371717453,1.4683704376220703,0.5606432557106018,-0.055516354739665985,1.459938883781433,0.05862226337194443,0.13812288641929626,-0.4146116077899933,1.2086113691329956,-0.41251546144485474,-0.2518492639064789,-0.13665655255317688,-0.13726475834846497,1.3105391263961792,-0.410591185092926,0.10380521416664124,-0.6154071092605591,0.36920639872550964,-0.9474087953567505,-0.16381099820137024,-0.2559264004230499,0.5540927052497864,0.8160947561264038,-0.28168797492980957,-0.4971197247505188,0.15662874281406403,-0.4164874851703644,-0.10089488327503204,0.3935950994491577,-0.2373027354478836,-0.08417916297912598,0.11080138385295868,-0.5934581756591797,-0.18889039754867554,-0.2768058776855469,0.2611370384693146,-0.20021480321884155,0.8702320456504822,-1.3010783195495605,-0.3121521770954132,-0.11523475497961044,1.3482627868652344,0.10838235914707184,-0.12806881964206696,1.875780701637268,0.7861417531967163,-0.14425791800022125,-0.06201813369989395,2.1563539505004883,-0.35344886779785156,-0.242017462849617,0.1837826669216156,0.05839703977108002,1.499696135520935,-0.1601509004831314,0.7176830172538757,1.0665693283081055,-0.22690576314926147,0.740171492099762,-0.797826886177063,-0.68436598777771,-0.5343740582466125,0.9362281560897827,-0.4302813410758972,-0.22308160364627838,-0.32979124784469604,-0.6757587194442749,0.2963883578777313,-0.527469277381897,-0.9697138071060181,-0.5577500462532043,0.8222702741622925,1.606268286705017,-0.7448689937591553,-0.8740133047103882,-0.39025020599365234,0.11633804440498352,0.2034444957971573,0.7977107167243958,0.31528905034065247,0.3408697247505188,-0.9685800075531006,-1.65796959400177,0.2878749668598175,-0.7102450132369995,0.30367550253868103,0.42538753151893616,-0.37328892946243286,0.3933442533016205,0.25880083441734314,0.4941054880619049,-0.2865304946899414,-0.4166458547115326,-0.7047320604324341,0.4607338011264801,0.39450299739837646,0.47106093168258667,-0.5447535514831543,1.7132916450500488,-0.36581185460090637,-0.40810367465019226,-2.1669363975524902,-0.1463688760995865,-0.27082356810569763,-1.8814423084259033,-0.5591173768043518,-0.23583316802978516,0.5816417336463928,0.580797553062439,-0.4749346971511841,-0.19969898462295532,0.2107246220111847,-0.09967967867851257,-2.891390323638916,-0.4823679029941559,-0.15480487048625946,-0.35691019892692566,-0.021162550896406174,0.14184977114200592,0.1932203322649002,0.2130552977323532,-0.2970343828201294,-0.29072099924087524,0.14935730397701263,1.3343151807785034,0.12751109898090363,0.1118670180439949,-0.17514392733573914,0.10292886942625046,0.12367147952318192,0.2247726321220398,-0.27415332198143005,-0.36019521951675415,0.5494877696037292,0.24163520336151123,0.09591298550367355,1.628753900527954,-0.17808158695697784,0.8110994100570679,-0.25994205474853516,-0.03808996081352234,-0.021122153848409653,0.3290453851222992,-0.03990287706255913,-1.265882134437561,-0.3019333481788635,-0.4270574450492859,0.5846781134605408,-0.33833202719688416,-0.22228218615055084,0.003548055188730359,0.5682527422904968,1.5390446186065674,-0.7870364785194397,-0.535668671131134,-0.20940987765789032,0.4146077632904053,-0.044495925307273865,1.0366125106811523,0.61690354347229,0.18560922145843506,-0.929154098033905,-1.4219526052474976,0.2669674754142761,0.12115093320608139,-0.02549859695136547,0.2902427911758423,-0.08649610728025436,1.0898869037628174,0.36726537346839905,0.32380446791648865,-0.31205812096595764,0.21754644811153412,-0.611914336681366,0.9247633218765259,0.29794031381607056,-0.1780041605234146,-0.05097750946879387,-1.102454662322998,-0.49013784527778625,-0.39022883772850037,1.5609807968139648,0.28703269362449646,-0.36759674549102783,-0.263104647397995,-0.2470596432685852,-0.3529030382633209,0.309423565864563,-0.29445576667785645,-0.4679109752178192,-0.41998401284217834,0.5624895691871643,0.19336247444152832,0.7841506600379944,-0.34855568408966064,-0.28530949354171753,0.3276658058166504,0.1688746064901352,-0.1711917668581009,-0.4480517506599426,-0.8279140591621399,0.7089226245880127,0.5712755918502808,-1.0883830785751343,-0.432275652885437,0.039015546441078186,-1.1161439418792725,0.3788597881793976,-0.9107616543769836,-0.19279861450195312,-0.25161945819854736,0.5599589347839355,0.12883740663528442,-0.5262280702590942,-0.671134889125824,-1.0040168762207031,0.08623581379652023,0.7910563349723816,0.17968618869781494,0.6469433903694153,0.8056668639183044,-0.30561667680740356,-0.7589907050132751,0.8174853324890137,0.017194315791130066,0.7803706526756287,0.6223351955413818,-0.6959397196769714,-0.5600599646568298,0.7058590054512024,0.9075137972831726,-0.5712886452674866,0.09481669217348099,-0.08775173872709274,0.601973295211792,-0.1033475250005722,-0.0059829032979905605,0.019959786906838417,0.3586421310901642,0.579531729221344,0.40773940086364746,-0.441442608833313,-0.7090247869491577,0.2655452787876129,0.07669354975223541,0.004454985726624727,0.3404221832752228,-0.06475704908370972,0.06188360974192619,0.30991318821907043,0.30299293994903564,-0.4248015284538269,-0.03012371063232422,0.06699789315462112,0.5690276026725769,0.1456087827682495,-0.39138200879096985,0.14607343077659607,-1.788119912147522,-0.1027224063873291,-0.1413821280002594,1.8974303007125854,0.02489977516233921,-0.1448945552110672,1.744841456413269,0.019383221864700317,0.019049465656280518,0.5205317735671997,2.426820755004883,0.17784281075000763,-0.06159075349569321,-0.03894008323550224,-0.3687973618507385,1.2735568284988403,-0.1178705170750618,-0.5098221898078918,-0.3618239760398865,0.3858477771282196,-0.0513448603451252,1.03494131565094,1.0811671018600464,-0.26878592371940613,-0.41373521089553833,1.2720215320587158,0.4362350106239319,0.4332423508167267,0.9888036847114563,-0.6450936794281006,-0.4564780592918396,0.5748584270477295,0.8779422044754028,-1.2100942134857178,-0.4388774037361145,0.2622152864933014,0.9401978254318237,-0.9672747254371643,-0.6128512620925903,0.3356088697910309,-0.22503934800624847,1.3837449550628662,1.1299186944961548,0.034152913838624954,-1.4897058010101318,0.8065009117126465,0.48892441391944885,0.2759297490119934,1.0464720726013184,-0.2322479635477066,0.19793303310871124,1.567175269126892,0.9810961484909058,-1.3183847665786743,-0.9908556938171387,1.2002302408218384,1.3761169910430908,0.11210005730390549,-0.22943973541259766,0.2819713354110718,-1.0880494117736816,0.05205467715859413,-0.10878763347864151,1.055734395980835,-0.09933417290449142,-0.24320575594902039,0.909042477607727,0.005346250720322132,-0.09741614013910294,0.3376821279525757,1.763780117034912,0.023538174107670784,-0.22238723933696747,-0.017572136595845222,-0.40676310658454895,1.0347784757614136,0.08197714388370514,0.40963929891586304,0.8310825228691101,-0.7083818316459656,2.102506399154663,-0.2746618986129761,-0.43057000637054443,-1.9242852926254272,0.19596245884895325,-0.24619115889072418,-2.0594725608825684,-0.886154055595398,0.048821549862623215,0.589905321598053,-0.23140211403369904,-0.5045000314712524,-0.19600820541381836,0.08430581539869308,0.48988622426986694,-2.9433140754699707,-0.40362998843193054,0.350647896528244,-0.34838801622390747,-0.26648378372192383,-0.4346497654914856,-0.22382955253124237,-0.31972599029541016,0.26271867752075195,1.0839256048202515,-0.2586282193660736,0.6505293846130371,-0.2311241179704666,-0.4445234537124634,0.15112030506134033,-0.17661738395690918,-0.28098204731941223,-0.20917588472366333,0.14629854261875153,0.07866322994232178,0.03805997595191002,-0.4012989401817322]},"forgetHidden":{"rows":20,"columns":20,"weights":[0.5959579944610596,0.08933646231889725,-0.6660507321357727,-0.0933879017829895,-1.2131327390670776,-1.3728784322738647,0.1433182805776596,-0.4251609742641449,-0.0772596225142479,1.4500669240951538,-0.9503102898597717,0.33944249153137207,0.4560975134372711,-0.13384753465652466,-0.9740254878997803,-0.3917776644229889,-1.52730131149292,0.9979181289672852,-0.412233829498291,0.45737308263778687,0.3212086260318756,-0.5531193614006042,0.7001960873603821,-0.6140363216400146,0.2756320536136627,-0.15323826670646667,0.46166566014289856,0.9570131301879883,-0.07828494906425476,1.010002613067627,-0.21863016486167908,-0.24367615580558777,-1.0362399816513062,2.2296535968780518,0.10643701255321503,1.193720817565918,1.151519775390625,-0.014741170220077038,-0.43426233530044556,-0.67014080286026,-0.19871583580970764,0.876603901386261,0.27378225326538086,-0.3390461802482605,-0.031435176730155945,0.6475198268890381,0.39012062549591064,-0.5274363160133362,-1.388947606086731,-0.2725055515766144,1.3278396129608154,0.7263380289077759,-0.13961169123649597,-0.8018251657485962,2.0004749298095703,-0.6533699631690979,2.7887721061706543,0.6194874048233032,-1.4470770359039307,-0.2187308967113495,-0.0551915280520916,-0.4056089222431183,0.8750954866409302,-0.20788364112377167,-0.49305111169815063,-0.32237139344215393,1.3007441759109497,0.4028930366039276,0.28624042868614197,0.5472502708435059,0.6241375207901001,-0.372138649225235,-0.5407854318618774,0.6697447299957275,0.30758723616600037,0.3696366846561432,-0.04170072823762894,-0.46794700622558594,-1.3412895202636719,-1.699155330657959,-0.6780597567558289,0.190140962600708,0.8362382650375366,0.13357463479042053,-0.2843174338340759,-0.028710516169667244,0.6310741305351257,-0.32823505997657776,0.050503283739089966,-0.3411364257335663,0.5981330275535583,-0.0102824242785573,-0.032567720860242844,0.5382114052772522,-0.5059890151023865,0.2885144352912903,0.06018653139472008,-0.2616393566131592,-0.7199961543083191,-0.19087247550487518,0.05590443313121796,-0.5673877000808716,-0.3230450749397278,0.13214272260665894,0.49011993408203125,0.7096366882324219,-1.5975091457366943,0.671237051486969,-0.006234191358089447,-0.3606921136379242,0.48194313049316406,-0.21283364295959473,-0.39960527420043945,0.032150525599718094,0.11987762898206711,0.5151675343513489,-1.1142842769622803,-0.648198127746582,2.8828704357147217,0.9235799908638,-0.41165781021118164,0.07370691746473312,0.21328166127204895,-0.9710196852684021,0.4083584249019623,0.6568787097930908,0.37232303619384766,-0.5131444334983826,-1.606549859046936,-0.15010623633861542,0.970090389251709,1.6611043214797974,0.0710175484418869,-0.08471275866031647,-0.853714108467102,-0.07836839556694031,1.0046441555023193,1.4521607160568237,-0.3728345036506653,-0.07094099372625351,0.6923914551734924,-0.5008913278579712,-0.3519437313079834,0.012948050163686275,-0.6765660047531128,-0.9603280425071716,-0.20959573984146118,0.34614303708076477,-0.26391494274139404,2.295546531677246,-1.6699776649475098,0.3738827109336853,-0.03153780475258827,0.6670339107513428,-0.6456089019775391,0.02924744226038456,-1.5085670948028564,1.1815476417541504,0.05173920467495918,2.0469579696655273,0.26451629400253296,0.49528074264526367,2.0024361610412598,1.129617691040039,0.35288694500923157,0.2858166992664337,1.5743467807769775,-1.0528297424316406,0.41395333409309387,0.13237036764621735,0.7315863966941833,-0.6630755662918091,0.8717854619026184,-0.9360811114311218,0.23639731109142303,-1.397889256477356,-0.9871771931648254,-0.20211657881736755,-0.8595587611198425,-1.0145765542984009,-0.24132558703422546,-0.10944687575101852,-0.00727703794836998,0.4489997923374176,0.09325441718101501,0.08781282603740692,-0.4116004407405853,-0.003312874585390091,-0.4941083788871765,-0.08256310969591141,0.5873598456382751,0.37230560183525085,0.12963086366653442,-0.516140341758728,-0.6509883999824524,0.06572651118040085,-1.4521334171295166,-0.5021727085113525,1.488829493522644,1.2091460227966309,0.013563668355345726,-0.8436539769172668,0.6414158940315247,-0.31218698620796204,0.8200230598449707,-0.060432612895965576,1.0042197704315186,0.906620979309082,-0.23559336364269257,-0.4288295805454254,-0.15745654702186584,-0.5354435443878174,-0.06707076728343964,1.8172742128372192,0.5495831370353699,0.5137548446655273,0.1381041556596756,-0.6039034128189087,-0.4611782729625702,-0.9866845607757568,0.21195296943187714,0.8345271944999695,1.2967445850372314,1.1880301237106323,0.9880248308181763,-0.17662928998470306,0.6862203478813171,-0.6001634001731873,-0.24829620122909546,0.4469091296195984,0.499677449464798,-0.1528640240430832,0.32343724370002747,-1.0437487363815308,0.132518008351326,-1.0195140838623047,-0.09576643258333206,0.37640368938446045,-0.2928067445755005,-0.7996646761894226,0.4362085163593292,-0.56205815076828,0.06658244878053665,-0.7792523503303528,0.3036912977695465,0.2424190789461136,-0.17672762274742126,0.3415820598602295,0.5461041331291199,-0.008441057056188583,0.3087206780910492,-0.7281414270401001,-0.10729741305112839,0.3108315169811249,0.6014294624328613,0.30511021614074707,0.11435119062662125,-0.47869792580604553,0.30450439453125,-0.2820572853088379,0.842849850654602,0.9966987371444702,-0.4187539219856262,0.8335835933685303,-0.25539088249206543,-0.7241010069847107,0.44665324687957764,-1.2751829624176025,-0.21599876880645752,0.6275984048843384,-0.38080236315727234,0.36348530650138855,1.039048671722412,-0.39275625348091125,-0.6066862940788269,-1.109878420829773,-1.2328177690505981,0.7236171364784241,-0.5611972212791443,1.3678175210952759,-0.872043788433075,-0.08753740042448044,0.4797600209712982,0.03347992151975632,-0.2553146183490753,0.7290979027748108,1.0729539394378662,0.22031572461128235,-0.014580571092665195,-0.7514765858650208,0.2758636474609375,0.3288995921611786,-0.49603068828582764,0.6596261262893677,-0.5256625413894653,0.2987329363822937,-0.3424016833305359,0.4600631296634674,-0.9949673414230347,-0.8868736028671265,0.14912118017673492,0.4236093759536743,0.2744539678096771,0.014623335562646389,0.11369631439447403,-0.20904316008090973,-0.12306594848632812,-0.40667545795440674,0.11921896785497665,0.22904732823371887,0.17352434992790222,-0.025438906624913216,0.4328479766845703,-0.4092371165752411,-0.03231598436832428,-0.4215942323207855,-0.7891646027565002,-0.045340098440647125,0.15335774421691895,0.3216606080532074,0.5408391356468201,-0.3670933246612549,-1.0139776468276978,-0.8476060032844543,-0.5215381979942322,-0.2836360037326813,-0.2741056978702545,0.1960078328847885,0.19511286914348602,0.3273478150367737,-0.5267550945281982,-0.03419708460569382,-0.3250000476837158,0.2936175465583801,-0.0496123805642128,0.07486719638109207,-1.237236738204956,0.17785769701004028,0.3422238528728485,-0.2105206996202469,0.29865050315856934,1.2997750043869019,-0.4308832883834839,0.9456129670143127,0.26856228709220886,-0.9594032168388367,-0.048735082149505615,-1.3335068225860596,-0.27180036902427673,0.7528759241104126,-0.43534404039382935,0.1652548909187317,0.5019444227218628,-1.056557536125183,0.1983576864004135,-1.2344228029251099,0.22010992467403412,-0.08278798311948776,0.057162877172231674,0.41045287251472473,-0.2321530133485794,-0.6717190146446228,0.564464807510376,-1.2147353887557983,1.128732442855835,0.38941800594329834,0.3728463053703308,0.31263020634651184,-0.9396650791168213,-0.33935073018074036,0.6704816818237305,1.1174129247665405,-0.32006365060806274,0.7414711713790894,-1.4933494329452515,0.705676257610321,-0.5572572350502014,